{"learner":{"attributes":{"best_iteration":"1270","best_score":"0.17730357552825235"},"feature_names":["year","tourney_level_ATP 250/500","tourney_level_Grand Slam","tourney_level_Masters","tourney_level_Year End Final","surface_Clay","surface_Grass","surface_Hard","draw_size_12","draw_size_128","draw_size_16","draw_size_18","draw_size_24","draw_size_28","draw_size_32","draw_size_48","draw_size_56","draw_size_64","draw_size_8","draw_size_96","best_of_3","best_of_5","round_BR","round_F","round_QF","round_R128","round_R16","round_R32","round_R64","round_SF","seed_1","seed_10","seed_11","seed_12","seed_13","seed_14","seed_15","seed_16","seed_17","seed_18","seed_19","seed_2","seed_20","seed_21","seed_22","seed_23","seed_24","seed_25","seed_26","seed_27","seed_28","seed_29","seed_3","seed_30","seed_31","seed_32","seed_33","seed_35","seed_4","seed_5","seed_6","seed_7","seed_8","seed_9","seed_Unseeded","entry_ALT","entry_Alt","entry_LL","entry_NA","entry_PR","entry_Q","entry_SE","entry_WC","rank_points","rank_bin_Outside Top 100","rank_bin_Top 10","rank_bin_Top 100","rank_bin_Top 25","rank_bin_Top 50","opp_rank_points","opp_rank_bin_Outside Top 100","opp_rank_bin_Top 10","opp_rank_bin_Top 100","opp_rank_bin_Top 25","opp_rank_bin_Top 50","age","first_in_per","first_won_per","second_won_per","rally_svptw_per","ace_per","df_per","first_rpw_per","second_rpw_per","rally_rpw_per","bp_face_freq","ace_per_against","bp_create_freq"],"feature_types":["int","int","int","int","int","int","int","int","int","int","int","int","int","int","int","int","int","int","int","int","int","int","int","int","int","int","int","int","int","int","int","int","int","int","int","int","int","int","int","int","int","int","int","int","int","int","int","int","int","int","int","int","int","int","int","int","int","int","int","int","int","int","int","int","int","int","int","int","int","int","int","int","int","float","int","int","int","int","int","float","int","int","int","int","int","float","float","float","float","float","float","float","float","float","float","float","float","float"],"gradient_booster":{"model":{"gbtree_model_param":{"num_parallel_tree":"1","num_trees":"1321"},"iteration_indptr":[0,1,2,3,4,5,6,7,8,9,10,11,12,13,14,15,16,17,18,19,20,21,22,23,24,25,26,27,28,29,30,31,32,33,34,35,36,37,38,39,40,41,42,43,44,45,46,47,48,49,50,51,52,53,54,55,56,57,58,59,60,61,62,63,64,65,66,67,68,69,70,71,72,73,74,75,76,77,78,79,80,81,82,83,84,85,86,87,88,89,90,91,92,93,94,95,96,97,98,99,100,101,102,103,104,105,106,107,108,109,110,111,112,113,114,115,116,117,118,119,120,121,122,123,124,125,126,127,128,129,130,131,132,133,134,135,136,137,138,139,140,141,142,143,144,145,146,147,148,149,150,151,152,153,154,155,156,157,158,159,160,161,162,163,164,165,166,167,168,169,170,171,172,173,174,175,176,177,178,179,180,181,182,183,184,185,186,187,188,189,190,191,192,193,194,195,196,197,198,199,200,201,202,203,204,205,206,207,208,209,210,211,212,213,214,215,216,217,218,219,220,221,222,223,224,225,226,227,228,229,230,231,232,233,234,235,236,237,238,239,240,241,242,243,244,245,246,247,248,249,250,251,252,253,254,255,256,257,258,259,260,261,262,263,264,265,266,267,268,269,270,271,272,273,274,275,276,277,278,279,280,281,282,283,284,285,286,287,288,289,290,291,292,293,294,295,296,297,298,299,300,301,302,303,304,305,306,307,308,309,310,311,312,313,314,315,316,317,318,319,320,321,322,323,324,325,326,327,328,329,330,331,332,333,334,335,336,337,338,339,340,341,342,343,344,345,346,347,348,349,350,351,352,353,354,355,356,357,358,359,360,361,362,363,364,365,366,367,368,369,370,371,372,373,374,375,376,377,378,379,380,381,382,383,384,385,386,387,388,389,390,391,392,393,394,395,396,397,398,399,400,401,402,403,404,405,406,407,408,409,410,411,412,413,414,415,416,417,418,419,420,421,422,423,424,425,426,427,428,429,430,431,432,433,434,435,436,437,438,439,440,441,442,443,444,445,446,447,448,449,450,451,452,453,454,455,456,457,458,459,460,461,462,463,464,465,466,467,468,469,470,471,472,473,474,475,476,477,478,479,480,481,482,483,484,485,486,487,488,489,490,491,492,493,494,495,496,497,498,499,500,501,502,503,504,505,506,507,508,509,510,511,512,513,514,515,516,517,518,519,520,521,522,523,524,525,526,527,528,529,530,531,532,533,534,535,536,537,538,539,540,541,542,543,544,545,546,547,548,549,550,551,552,553,554,555,556,557,558,559,560,561,562,563,564,565,566,567,568,569,570,571,572,573,574,575,576,577,578,579,580,581,582,583,584,585,586,587,588,589,590,591,592,593,594,595,596,597,598,599,600,601,602,603,604,605,606,607,608,609,610,611,612,613,614,615,616,617,618,619,620,621,622,623,624,625,626,627,628,629,630,631,632,633,634,635,636,637,638,639,640,641,642,643,644,645,646,647,648,649,650,651,652,653,654,655,656,657,658,659,660,661,662,663,664,665,666,667,668,669,670,671,672,673,674,675,676,677,678,679,680,681,682,683,684,685,686,687,688,689,690,691,692,693,694,695,696,697,698,699,700,701,702,703,704,705,706,707,708,709,710,711,712,713,714,715,716,717,718,719,720,721,722,723,724,725,726,727,728,729,730,731,732,733,734,735,736,737,738,739,740,741,742,743,744,745,746,747,748,749,750,751,752,753,754,755,756,757,758,759,760,761,762,763,764,765,766,767,768,769,770,771,772,773,774,775,776,777,778,779,780,781,782,783,784,785,786,787,788,789,790,791,792,793,794,795,796,797,798,799,800,801,802,803,804,805,806,807,808,809,810,811,812,813,814,815,816,817,818,819,820,821,822,823,824,825,826,827,828,829,830,831,832,833,834,835,836,837,838,839,840,841,842,843,844,845,846,847,848,849,850,851,852,853,854,855,856,857,858,859,860,861,862,863,864,865,866,867,868,869,870,871,872,873,874,875,876,877,878,879,880,881,882,883,884,885,886,887,888,889,890,891,892,893,894,895,896,897,898,899,900,901,902,903,904,905,906,907,908,909,910,911,912,913,914,915,916,917,918,919,920,921,922,923,924,925,926,927,928,929,930,931,932,933,934,935,936,937,938,939,940,941,942,943,944,945,946,947,948,949,950,951,952,953,954,955,956,957,958,959,960,961,962,963,964,965,966,967,968,969,970,971,972,973,974,975,976,977,978,979,980,981,982,983,984,985,986,987,988,989,990,991,992,993,994,995,996,997,998,999,1000,1001,1002,1003,1004,1005,1006,1007,1008,1009,1010,1011,1012,1013,1014,1015,1016,1017,1018,1019,1020,1021,1022,1023,1024,1025,1026,1027,1028,1029,1030,1031,1032,1033,1034,1035,1036,1037,1038,1039,1040,1041,1042,1043,1044,1045,1046,1047,1048,1049,1050,1051,1052,1053,1054,1055,1056,1057,1058,1059,1060,1061,1062,1063,1064,1065,1066,1067,1068,1069,1070,1071,1072,1073,1074,1075,1076,1077,1078,1079,1080,1081,1082,1083,1084,1085,1086,1087,1088,1089,1090,1091,1092,1093,1094,1095,1096,1097,1098,1099,1100,1101,1102,1103,1104,1105,1106,1107,1108,1109,1110,1111,1112,1113,1114,1115,1116,1117,1118,1119,1120,1121,1122,1123,1124,1125,1126,1127,1128,1129,1130,1131,1132,1133,1134,1135,1136,1137,1138,1139,1140,1141,1142,1143,1144,1145,1146,1147,1148,1149,1150,1151,1152,1153,1154,1155,1156,1157,1158,1159,1160,1161,1162,1163,1164,1165,1166,1167,1168,1169,1170,1171,1172,1173,1174,1175,1176,1177,1178,1179,1180,1181,1182,1183,1184,1185,1186,1187,1188,1189,1190,1191,1192,1193,1194,1195,1196,1197,1198,1199,1200,1201,1202,1203,1204,1205,1206,1207,1208,1209,1210,1211,1212,1213,1214,1215,1216,1217,1218,1219,1220,1221,1222,1223,1224,1225,1226,1227,1228,1229,1230,1231,1232,1233,1234,1235,1236,1237,1238,1239,1240,1241,1242,1243,1244,1245,1246,1247,1248,1249,1250,1251,1252,1253,1254,1255,1256,1257,1258,1259,1260,1261,1262,1263,1264,1265,1266,1267,1268,1269,1270,1271,1272,1273,1274,1275,1276,1277,1278,1279,1280,1281,1282,1283,1284,1285,1286,1287,1288,1289,1290,1291,1292,1293,1294,1295,1296,1297,1298,1299,1300,1301,1302,1303,1304,1305,1306,1307,1308,1309,1310,1311,1312,1313,1314,1315,1316,1317,1318,1319,1320,1321],"tree_info":[0,0,0,0,0,0,0,0,0,0,0,0,0,0,0,0,0,0,0,0,0,0,0,0,0,0,0,0,0,0,0,0,0,0,0,0,0,0,0,0,0,0,0,0,0,0,0,0,0,0,0,0,0,0,0,0,0,0,0,0,0,0,0,0,0,0,0,0,0,0,0,0,0,0,0,0,0,0,0,0,0,0,0,0,0,0,0,0,0,0,0,0,0,0,0,0,0,0,0,0,0,0,0,0,0,0,0,0,0,0,0,0,0,0,0,0,0,0,0,0,0,0,0,0,0,0,0,0,0,0,0,0,0,0,0,0,0,0,0,0,0,0,0,0,0,0,0,0,0,0,0,0,0,0,0,0,0,0,0,0,0,0,0,0,0,0,0,0,0,0,0,0,0,0,0,0,0,0,0,0,0,0,0,0,0,0,0,0,0,0,0,0,0,0,0,0,0,0,0,0,0,0,0,0,0,0,0,0,0,0,0,0,0,0,0,0,0,0,0,0,0,0,0,0,0,0,0,0,0,0,0,0,0,0,0,0,0,0,0,0,0,0,0,0,0,0,0,0,0,0,0,0,0,0,0,0,0,0,0,0,0,0,0,0,0,0,0,0,0,0,0,0,0,0,0,0,0,0,0,0,0,0,0,0,0,0,0,0,0,0,0,0,0,0,0,0,0,0,0,0,0,0,0,0,0,0,0,0,0,0,0,0,0,0,0,0,0,0,0,0,0,0,0,0,0,0,0,0,0,0,0,0,0,0,0,0,0,0,0,0,0,0,0,0,0,0,0,0,0,0,0,0,0,0,0,0,0,0,0,0,0,0,0,0,0,0,0,0,0,0,0,0,0,0,0,0,0,0,0,0,0,0,0,0,0,0,0,0,0,0,0,0,0,0,0,0,0,0,0,0,0,0,0,0,0,0,0,0,0,0,0,0,0,0,0,0,0,0,0,0,0,0,0,0,0,0,0,0,0,0,0,0,0,0,0,0,0,0,0,0,0,0,0,0,0,0,0,0,0,0,0,0,0,0,0,0,0,0,0,0,0,0,0,0,0,0,0,0,0,0,0,0,0,0,0,0,0,0,0,0,0,0,0,0,0,0,0,0,0,0,0,0,0,0,0,0,0,0,0,0,0,0,0,0,0,0,0,0,0,0,0,0,0,0,0,0,0,0,0,0,0,0,0,0,0,0,0,0,0,0,0,0,0,0,0,0,0,0,0,0,0,0,0,0,0,0,0,0,0,0,0,0,0,0,0,0,0,0,0,0,0,0,0,0,0,0,0,0,0,0,0,0,0,0,0,0,0,0,0,0,0,0,0,0,0,0,0,0,0,0,0,0,0,0,0,0,0,0,0,0,0,0,0,0,0,0,0,0,0,0,0,0,0,0,0,0,0,0,0,0,0,0,0,0,0,0,0,0,0,0,0,0,0,0,0,0,0,0,0,0,0,0,0,0,0,0,0,0,0,0,0,0,0,0,0,0,0,0,0,0,0,0,0,0,0,0,0,0,0,0,0,0,0,0,0,0,0,0,0,0,0,0,0,0,0,0,0,0,0,0,0,0,0,0,0,0,0,0,0,0,0,0,0,0,0,0,0,0,0,0,0,0,0,0,0,0,0,0,0,0,0,0,0,0,0,0,0,0,0,0,0,0,0,0,0,0,0,0,0,0,0,0,0,0,0,0,0,0,0,0,0,0,0,0,0,0,0,0,0,0,0,0,0,0,0,0,0,0,0,0,0,0,0,0,0,0,0,0,0,0,0,0,0,0,0,0,0,0,0,0,0,0,0,0,0,0,0,0,0,0,0,0,0,0,0,0,0,0,0,0,0,0,0,0,0,0,0,0,0,0,0,0,0,0,0,0,0,0,0,0,0,0,0,0,0,0,0,0,0,0,0,0,0,0,0,0,0,0,0,0,0,0,0,0,0,0,0,0,0,0,0,0,0,0,0,0,0,0,0,0,0,0,0,0,0,0,0,0,0,0,0,0,0,0,0,0,0,0,0,0,0,0,0,0,0,0,0,0,0,0,0,0,0,0,0,0,0,0,0,0,0,0,0,0,0,0,0,0,0,0,0,0,0,0,0,0,0,0,0,0,0,0,0,0,0,0,0,0,0,0,0,0,0,0,0,0,0,0,0,0,0,0,0,0,0,0,0,0,0,0,0,0,0,0,0,0,0,0,0,0,0,0,0,0,0,0,0,0,0,0,0,0,0,0,0,0,0,0,0,0,0,0,0,0,0,0,0,0,0,0,0,0,0,0,0,0,0,0,0,0,0,0,0,0,0,0,0,0,0,0,0,0,0,0,0,0,0,0,0,0,0,0,0,0,0,0,0,0,0,0,0,0,0,0,0,0,0,0,0,0,0,0,0,0,0,0,0,0,0,0,0,0,0,0,0,0,0,0,0,0,0,0,0,0,0,0,0,0,0,0,0,0,0,0,0,0,0,0,0,0,0,0,0,0,0,0,0,0,0,0,0,0,0,0,0,0,0,0,0,0,0,0,0,0,0,0,0,0,0,0,0,0,0,0,0,0,0,0,0,0,0,0,0,0,0,0,0,0,0,0,0,0,0,0,0,0,0,0,0,0,0,0,0,0,0,0,0,0,0,0,0,0,0,0,0,0,0,0,0,0,0,0,0,0,0,0,0,0,0,0,0,0,0,0,0,0,0,0,0,0,0,0,0,0,0,0,0,0,0,0,0,0,0,0,0,0,0,0,0,0,0,0,0,0,0,0,0,0,0,0,0,0,0,0,0,0,0,0,0,0,0,0,0,0,0,0,0,0,0,0,0,0,0,0,0,0,0,0,0,0,0,0,0,0,0,0,0,0,0,0,0,0,0,0,0,0,0,0,0,0,0,0,0,0,0,0,0,0,0,0,0,0,0,0,0,0,0,0,0,0,0,0,0,0,0,0,0,0,0,0,0,0,0,0,0,0,0,0,0,0,0,0,0,0,0,0,0,0,0,0,0],"trees":[{"base_weights":[-3.9529046E-3,-1.143906E0,1.1155691E0,-1.6979214E0,-5.0224566E-1,1.3609183E0,2.2648476E-1,-4.836051E-2,-3.643261E-2,-1.2969833E-3,-3.243756E-2,2.2652688E-2,4.3663017E-2,-9.561025E-3,2.8401257E-2],"categories":[],"categories_nodes":[],"categories_segments":[],"categories_sizes":[],"default_left":[0,0,0,0,0,0,0,0,0,0,0,0,0,0,0],"id":0,"left_children":[1,3,5,7,9,11,13,-1,-1,-1,-1,-1,-1,-1,-1],"loss_changes":[2.3199021E4,3.2011064E3,2.0001777E3,2.4999805E2,1.4379368E3,1.1722314E3,1.0482745E3,0E0,0E0,0E0,0E0,0E0,0E0,0E0,0E0],"parents":[2147483647,0,0,1,1,2,2,3,3,4,4,5,5,6,6],"right_children":[2,4,6,8,10,12,14,-1,-1,-1,-1,-1,-1,-1,-1],"split_conditions":[6.3076925E-1,5.777778E-1,1.14285715E-1,5.4545456E-1,8.196721E-2,6.779661E-1,7.037037E-1,-4.836051E-2,-3.643261E-2,-1.2969833E-3,-3.243756E-2,2.2652688E-2,4.3663017E-2,-9.561025E-3,2.8401257E-2],"split_indices":[89,89,96,89,96,89,89,0,0,0,0,0,0,0,0],"split_type":[0,0,0,0,0,0,0,0,0,0,0,0,0,0,0],"sum_hessian":[1.8177086E4,9.006418E3,9.170667E3,4.832706E3,4.1737124E3,7.186935E3,1.983732E3,2.8762239E3,1.9564823E3,2.6219763E3,1.551736E3,2.999973E3,4.186962E3,1.1807393E3,8.0299274E2],"tree_param":{"num_deleted":"0","num_feature":"98","num_nodes":"15","size_leaf_vector":"1"}},{"base_weights":[2.3604692E-3,-1.2447617E0,9.6543884E-1,3.995352E-1,-1.6043255E0,1.5700401E0,-2.072593E-1,-2.8113615E-2,2.8874775E-2,-4.6338305E-2,-2.7570067E-2,2.7701821E-2,4.5729063E-2,-2.1303711E-2,2.1368567E-2],"categories":[],"categories_nodes":[],"categories_segments":[],"categories_sizes":[],"default_left":[0,0,0,0,0,0,0,0,0,0,0,0,0,0,0],"id":1,"left_children":[1,3,5,7,9,11,13,-1,-1,-1,-1,-1,-1,-1,-1],"loss_changes":[2.1815854E4,4.6798633E3,7.267078E3,1.544648E3,6.9559375E2,7.0514844E2,2.2630518E3,0E0,0E0,0E0,0E0,0E0,0E0,0E0,0E0],"parents":[2147483647,0,0,1,1,2,2,3,3,4,4,5,5,6,6],"right_children":[2,4,6,8,10,12,14,-1,-1,-1,-1,-1,-1,-1,-1],"split_conditions":[6.181818E-1,6.486486E-1,7.4418604E-1,5.522388E-1,5.888889E-1,6.5789473E-1,6.9135803E-1,-2.8113615E-2,2.8874775E-2,-4.6338305E-2,-2.7570067E-2,2.7701821E-2,4.5729063E-2,-2.1303711E-2,2.1368567E-2],"split_indices":[89,92,92,89,89,89,89,0,0,0,0,0,0,0,0],"split_type":[0,0,0,0,0,0,0,0,0,0,0,0,0,0,0],"sum_hessian":[1.8162543E4,7.914059E3,1.0248483E4,1.4199813E3,6.4940776E3,6.762117E3,3.4863665E3,4.6405444E2,9.5592694E2,4.6932256E3,1.8008517E3,2.053456E3,4.708661E3,2.1801782E3,1.3061882E3],"tree_param":{"num_deleted":"0","num_feature":"98","num_nodes":"15","size_leaf_vector":"1"}},{"base_weights":[-1.1619205E-3,1.1235976E0,-1.0695733E0,-9.8439634E-1,1.5613436E0,-1.6181722E0,4.6538767E-1,2.7816989E-2,-3.6914818E-2,2.3463445E-2,4.5586955E-2,-4.6768222E-2,-2.6948411E-2,2.4660101E-2,-2.0519549E-2],"categories":[],"categories_nodes":[],"categories_segments":[],"categories_sizes":[],"default_left":[0,0,0,0,0,0,0,0,0,0,0,0,0,0,0],"id":2,"left_children":[1,3,5,7,9,11,13,-1,-1,-1,-1,-1,-1,-1,-1],"loss_changes":[2.1798857E4,8.1552725E3,7.8344736E3,1.4326217E3,1.02274805E3,7.984668E2,1.5394104E3,0E0,0E0,0E0,0E0,0E0,0E0,0E0,0E0],"parents":[2147483647,0,0,1,1,2,2,3,3,4,4,5,5,6,6],"right_children":[2,4,6,8,10,12,14,-1,-1,-1,-1,-1,-1,-1,-1],"split_conditions":[6.2903225E-1,5.777778E-1,6.617647E-1,5.423729E-1,6.3076925E-1,6.1728394E-1,7.0731705E-1,2.7816989E-2,-3.6914818E-2,2.3463445E-2,4.5586955E-2,-4.6768222E-2,-2.6948411E-2,2.4660101E-2,-2.0519549E-2],"split_indices":[94,89,89,94,89,89,94,0,0,0,0,0,0,0,0],"split_type":[0,0,0,0,0,0,0,0,0,0,0,0,0,0,0],"sum_hessian":[1.813886E4,8.836334E3,9.302525E3,1.5192567E3,7.317077E3,6.8532285E3,2.4492969E3,2.7378867E2,1.245468E3,1.8371409E3,5.4799365E3,5.027799E3,1.8254298E3,1.7595128E3,6.897841E2],"tree_param":{"num_deleted":"0","num_feature":"98","num_nodes":"15","size_leaf_vector":"1"}},{"base_weights":[-4.791278E-3,1.213244E0,-9.500685E-1,-8.957668E-1,1.5915347E0,-1.5749545E0,4.2630336E-1,2.4325674E-2,-3.56223E-2,2.6654972E-2,4.559275E-2,-4.5416176E-2,-2.7011849E-2,2.5626173E-2,-1.745069E-2],"categories":[],"categories_nodes":[],"categories_segments":[],"categories_sizes":[],"default_left":[0,0,0,0,0,0,0,0,0,0,0,0,0,0,0],"id":3,"left_children":[1,3,5,7,9,11,13,-1,-1,-1,-1,-1,-1,-1,-1],"loss_changes":[2.0837979E4,6.310123E3,8.764824E3,1.0957834E3,6.8916797E2,7.1590234E2,2.0190515E3,0E0,0E0,0E0,0E0,0E0,0E0,0E0,0E0],"parents":[2147483647,0,0,1,1,2,2,3,3,4,4,5,5,6,6],"right_children":[2,4,6,8,10,12,14,-1,-1,-1,-1,-1,-1,-1,-1],"split_conditions":[6.181818E-1,5.744681E-1,6.516854E-1,5.423729E-1,6.3E-1,6.103896E-1,6.923077E-1,2.4325674E-2,-3.56223E-2,2.6654972E-2,4.559275E-2,-4.5416176E-2,-2.7011849E-2,2.5626173E-2,-1.745069E-2],"split_indices":[94,89,89,94,89,89,94,0,0,0,0,0,0,0,0],"split_type":[0,0,0,0,0,0,0,0,0,0,0,0,0,0,0],"sum_hessian":[1.8097205E4,7.90759E3,1.0189614E4,1.2024866E3,6.705103E3,7.00796E3,3.1816545E3,2.5365163E2,9.4883496E2,1.6948018E3,5.0103013E3,5.0906494E3,1.9173107E3,2.0963882E3,1.0852664E3],"tree_param":{"num_deleted":"0","num_feature":"98","num_nodes":"15","size_leaf_vector":"1"}},{"base_weights":[1.7639077E-3,1.119825E0,-9.739878E-1,-4.3573877E-1,1.4712782E0,-1.5160742E0,1.07316114E-1,2.4690965E-2,-2.9529635E-2,4.4706423E-2,2.6166523E-2,-2.679686E-2,-4.36095E-2,1.842297E-2,-2.1461422E-2],"categories":[],"categories_nodes":[],"categories_segments":[],"categories_sizes":[],"default_left":[0,0,0,0,0,0,0,0,0,0,0,0,0,0,0],"id":4,"left_children":[1,3,5,7,9,11,13,-1,-1,-1,-1,-1,-1,-1,-1],"loss_changes":[1.9709352E4,4.6033467E3,5.654968E3,1.5546251E3,8.415342E2,5.575918E2,1.8596814E3,0E0,0E0,0E0,0E0,0E0,0E0,0E0,0E0],"parents":[2147483647,0,0,1,1,2,2,3,3,4,4,5,5,6,6],"right_children":[2,4,6,8,10,12,14,-1,-1,-1,-1,-1,-1,-1,-1],"split_conditions":[6.25E-1,6.486486E-1,7.446808E-1,5.584416E-1,5.816327E-1,6.593407E-1,6.923077E-1,2.4690965E-2,-2.9529635E-2,4.4706423E-2,2.6166523E-2,-2.679686E-2,-4.36095E-2,1.842297E-2,-2.1461422E-2],"split_indices":[94,87,87,94,94,94,94,0,0,0,0,0,0,0,0],"split_type":[0,0,0,0,0,0,0,0,0,0,0,0,0,0,0],"sum_hessian":[1.8065133E4,8.418685E3,9.646448E3,1.5514199E3,6.867264E3,6.425227E3,3.2212207E3,5.2511224E2,1.0263077E3,4.2803438E3,2.5869207E3,1.8109216E3,4.614305E3,1.9557196E3,1.2655012E3],"tree_param":{"num_deleted":"0","num_feature":"98","num_nodes":"15","size_leaf_vector":"1"}},{"base_weights":[-2.601611E-3,1.1578888E0,-9.012917E-1,-8.112653E-1,1.5320599E0,-1.4522197E0,5.7098734E-1,2.451229E-2,-3.3055745E-2,2.5640821E-2,4.3743916E-2,-4.2981766E-2,-2.1712305E-2,2.7229695E-2,-1.5281101E-2],"categories":[],"categories_nodes":[],"categories_segments":[],"categories_sizes":[],"default_left":[0,0,0,0,0,0,0,0,0,0,0,0,0,0,0],"id":5,"left_children":[1,3,5,7,9,11,13,-1,-1,-1,-1,-1,-1,-1,-1],"loss_changes":[1.886246E4,5.8165713E3,8.268233E3,1.0653995E3,6.125713E2,1.00507227E3,1.5907703E3,0E0,0E0,0E0,0E0,0E0,0E0,0E0,0E0],"parents":[2147483647,0,0,1,1,2,2,3,3,4,4,5,5,6,6],"right_children":[2,4,6,8,10,12,14,-1,-1,-1,-1,-1,-1,-1,-1],"split_conditions":[6.181818E-1,5.769231E-1,6.617647E-1,5.423729E-1,6.3E-1,6.1728394E-1,6.979167E-1,2.451229E-2,-3.3055745E-2,2.5640821E-2,4.3743916E-2,-4.2981766E-2,-2.1712305E-2,2.7229695E-2,-1.5281101E-2],"split_indices":[94,89,89,94,89,89,94,0,0,0,0,0,0,0,0],"split_type":[0,0,0,0,0,0,0,0,0,0,0,0,0,0,0],"sum_hessian":[1.8085139E4,7.892777E3,1.0192361E4,1.2601199E3,6.632657E3,7.4170137E3,2.7753477E3,2.6804865E2,9.920712E2,1.6351179E3,4.997539E3,5.412792E3,2.0042217E3,1.9535977E3,8.2175006E2],"tree_param":{"num_deleted":"0","num_feature":"98","num_nodes":"15","size_leaf_vector":"1"}},{"base_weights":[2.0718044E-3,1.0155364E0,-9.947839E-1,2.0160617E-1,1.4565003E0,-1.4312955E0,-1.5844947E-1,2.893809E-2,-1.3673962E-2,4.2187095E-2,2.578463E-2,-3.893181E-2,-1.5400839E-2,1.0391948E-2,-2.4225423E-2],"categories":[],"categories_nodes":[],"categories_segments":[],"categories_sizes":[],"default_left":[0,0,0,0,0,0,0,0,0,0,0,0,0,0,0],"id":6,"left_children":[1,3,5,7,9,11,13,-1,-1,-1,-1,-1,-1,-1,-1],"loss_changes":[1.8153764E4,3.197663E3,3.306706E3,2.1338352E3,4.9066016E2,4.294756E2,1.3776929E3,0E0,0E0,0E0,0E0,0E0,0E0,0E0,0E0],"parents":[2147483647,0,0,1,1,2,2,3,3,4,4,5,5,6,6],"right_children":[2,4,6,8,10,12,14,-1,-1,-1,-1,-1,-1,-1,-1],"split_conditions":[6.3076925E-1,5E-1,5.3061223E-1,5.744681E-1,5.942029E-1,1.4516129E-1,6.923077E-1,2.893809E-2,-1.3673962E-2,4.2187095E-2,2.578463E-2,-3.893181E-2,-1.5400839E-2,1.0391948E-2,-2.4225423E-2],"split_indices":[94,88,88,94,94,90,94,0,0,0,0,0,0,0,0],"split_type":[0,0,0,0,0,0,0,0,0,0,0,0,0,0,0],"sum_hessian":[1.7967998E4,8.909842E3,9.058157E3,3.1312659E3,5.7785757E3,5.951376E3,3.1067815E3,1.3846311E3,1.7466348E3,4.0720408E3,1.7065348E3,5.386433E3,5.649428E2,1.809562E3,1.2972194E3],"tree_param":{"num_deleted":"0","num_feature":"98","num_nodes":"15","size_leaf_vector":"1"}},{"base_weights":[1.2724437E-3,-9.8529434E-1,9.6789247E-1,5.437638E-1,-1.3400575E0,1.4708709E0,-4.9059033E-2,-2.6162788E-2,2.9235221E-2,-4.096807E-2,-2.089567E-2,2.5504293E-2,4.119183E-2,-1.6250921E-2,2.0260338E-2],"categories":[],"categories_nodes":[],"categories_segments":[],"categories_sizes":[],"default_left":[0,0,0,0,0,0,0,0,0,0,0,0,0,0,0],"id":7,"left_children":[1,3,5,7,9,11,13,-1,-1,-1,-1,-1,-1,-1,-1],"loss_changes":[1.70744E4,4.8070645E3,4.626173E3,1.5575054E3,9.7219434E2,3.8949316E2,1.4690104E3,0E0,0E0,0E0,0E0,0E0,0E0,0E0,0E0],"parents":[2147483647,0,0,1,1,2,2,3,3,4,4,5,5,6,6],"right_children":[2,4,6,8,10,12,14,-1,-1,-1,-1,-1,-1,-1,-1],"split_conditions":[6.3076925E-1,6.486486E-1,7.446808E-1,5.522388E-1,5.925926E-1,7.692308E-2,6.938776E-1,-2.6162788E-2,2.9235221E-2,-4.096807E-2,-2.089567E-2,2.5504293E-2,4.119183E-2,-1.6250921E-2,2.0260338E-2],"split_indices":[89,92,92,89,89,97,89,0,0,0,0,0,0,0,0],"split_type":[0,0,0,0,0,0,0,0,0,0,0,0,0,0,0],"sum_hessian":[1.7903467E4,8.860236E3,9.04323E3,1.6684387E3,7.1917974E3,6.0505596E3,2.9926714E3,4.6039404E2,1.2080447E3,4.8235547E3,2.3682427E3,1.3421858E3,4.7083735E3,1.7639391E3,1.2287324E3],"tree_param":{"num_deleted":"0","num_feature":"98","num_nodes":"15","size_leaf_vector":"1"}},{"base_weights":[2.9463565E-3,9.710716E-1,-9.4953144E-1,-9.5020235E-1,1.373032E0,-1.4400542E0,4.0941116E-1,2.417411E-2,-3.4504335E-2,1.9822836E-2,4.036874E-2,-4.168719E-2,-2.4083449E-2,2.1269564E-2,-1.9564584E-2],"categories":[],"categories_nodes":[],"categories_segments":[],"categories_sizes":[],"default_left":[0,0,0,0,0,0,0,0,0,0,0,0,0,0,0],"id":8,"left_children":[1,3,5,7,9,11,13,-1,-1,-1,-1,-1,-1,-1,-1],"loss_changes":[1.6474236E4,6.8432188E3,6.003478E3,1.1484755E3,8.840801E2,6.143086E2,1.1769055E3,0E0,0E0,0E0,0E0,0E0,0E0,0E0,0E0],"parents":[2147483647,0,0,1,1,2,2,3,3,4,4,5,5,6,6],"right_children":[2,4,6,8,10,12,14,-1,-1,-1,-1,-1,-1,-1,-1],"split_conditions":[6.3076925E-1,5.769231E-1,6.617647E-1,5.423729E-1,6.292135E-1,6.1728394E-1,7.121212E-1,2.417411E-2,-3.4504335E-2,1.9822836E-2,4.036874E-2,-4.168719E-2,-2.4083449E-2,2.1269564E-2,-1.9564584E-2],"split_indices":[94,89,89,94,89,89,94,0,0,0,0,0,0,0,0],"split_type":[0,0,0,0,0,0,0,0,0,0,0,0,0,0,0],"sum_hessian":[1.7864572E4,8.859583E3,9.004989E3,1.5326748E3,7.3269077E3,6.6167036E3,2.388286E3,2.6466174E2,1.2680131E3,1.8418005E3,5.4851074E3,4.825612E3,1.7910916E3,1.758481E3,6.2980493E2],"tree_param":{"num_deleted":"0","num_feature":"98","num_nodes":"15","size_leaf_vector":"1"}},{"base_weights":[-1.0155145E-3,9.6986616E-1,-9.174941E-1,-8.826003E-1,1.3603531E0,-1.4049499E0,4.2105606E-1,2.3487922E-2,-3.25928E-2,4.051574E-2,2.222937E-2,-4.084187E-2,-2.3007695E-2,2.1954397E-2,-1.7649574E-2],"categories":[],"categories_nodes":[],"categories_segments":[],"categories_sizes":[],"default_left":[0,0,0,0,0,0,0,0,0,0,0,0,0,0,0],"id":9,"left_children":[1,3,5,7,9,11,13,-1,-1,-1,-1,-1,-1,-1,-1],"loss_changes":[1.5823171E4,6.2470547E3,5.969301E3,1.051346E3,7.7220703E2,6.3843945E2,1.1794078E3,0E0,0E0,0E0,0E0,0E0,0E0,0E0,0E0],"parents":[2147483647,0,0,1,1,2,2,3,3,4,4,5,5,6,6],"right_children":[2,4,6,8,10,12,14,-1,-1,-1,-1,-1,-1,-1,-1],"split_conditions":[6.2903225E-1,5.777778E-1,6.617647E-1,5.423729E-1,5.92233E-1,6.1728394E-1,7.0731705E-1,2.3487922E-2,-3.25928E-2,4.051574E-2,2.222937E-2,-4.084187E-2,-2.3007695E-2,2.1954397E-2,-1.7649574E-2],"split_indices":[94,89,89,94,94,89,94,0,0,0,0,0,0,0,0],"split_type":[0,0,0,0,0,0,0,0,0,0,0,0,0,0,0],"sum_hessian":[1.7781928E4,8.634591E3,9.147337E3,1.5030571E3,7.1315337E3,6.7054966E3,2.44184E3,2.667967E2,1.2362605E3,4.933109E3,2.198425E3,4.893263E3,1.8122334E3,1.7540605E3,6.8777954E2],"tree_param":{"num_deleted":"0","num_feature":"98","num_nodes":"15","size_leaf_vector":"1"}},{"base_weights":[-4.538429E-4,1.0534173E0,-8.152285E-1,-7.959121E-1,1.3919401E0,-1.325196E0,5.265973E-1,2.077794E-2,-3.1525254E-2,2.1358276E-2,3.9626334E-2,-3.9853834E-2,-2.1476941E-2,2.7427554E-2,-9.296069E-3],"categories":[],"categories_nodes":[],"categories_segments":[],"categories_sizes":[],"default_left":[0,0,0,0,0,0,0,0,0,0,0,0,0,0,0],"id":10,"left_children":[1,3,5,7,9,11,13,-1,-1,-1,-1,-1,-1,-1,-1],"loss_changes":[1.5139434E4,4.8134395E3,6.804863E3,8.2915173E2,5.5643555E2,8.038408E2,1.3227322E3,0E0,0E0,0E0,0E0,0E0,0E0,0E0,0E0],"parents":[2147483647,0,0,1,1,2,2,3,3,4,4,5,5,6,6],"right_children":[2,4,6,8,10,12,14,-1,-1,-1,-1,-1,-1,-1,-1],"split_conditions":[6.181818E-1,5.744681E-1,6.617647E-1,5.423729E-1,6.226415E-1,6.103896E-1,6.849315E-1,2.077794E-2,-3.1525254E-2,2.1358276E-2,3.9626334E-2,-3.9853834E-2,-2.1476941E-2,2.7427554E-2,-9.296069E-3],"split_indices":[94,89,89,94,89,89,94,0,0,0,0,0,0,0,0],"split_type":[0,0,0,0,0,0,0,0,0,0,0,0,0,0,0],"sum_hessian":[1.7630275E4,7.6870796E3,9.943195E3,1.1892314E3,6.497848E3,7.205009E3,2.738186E3,2.52601E2,9.3663043E2,1.4006571E3,5.097191E3,4.9009727E3,2.3040361E3,1.6999498E3,1.0382362E3],"tree_param":{"num_deleted":"0","num_feature":"98","num_nodes":"15","size_leaf_vector":"1"}},{"base_weights":[-2.416974E-3,-8.181069E-1,6.7611E-1,-1.248535E0,2.7959916E-1,-4.6575642E-1,1.1124979E0,-3.6523797E-2,-1.616746E-2,-1.7329657E-2,2.2592498E-2,-2.4740165E-2,1.1333632E-2,1.2650568E-2,3.5715524E-2],"categories":[],"categories_nodes":[],"categories_segments":[],"categories_sizes":[],"default_left":[0,0,0,0,0,0,0,0,0,0,0,0,0,0,0],"id":11,"left_children":[1,3,5,7,9,11,13,-1,-1,-1,-1,-1,-1,-1,-1],"loss_changes":[9.730017E3,3.772276E3,4.7824395E3,6.225596E2,1.292837E3,1.2026509E3,1.2047549E3,0E0,0E0,0E0,0E0,0E0,0E0,0E0,0E0],"parents":[2147483647,0,0,1,1,2,2,3,3,4,4,5,5,6,6],"right_children":[2,4,6,8,10,12,14,-1,-1,-1,-1,-1,-1,-1,-1],"split_conditions":[7.0731705E-1,1.0309278E-1,5.7471264E-2,5.483871E-1,4.6875E-1,5.588235E-1,5E-1,-3.6523797E-2,-1.616746E-2,-1.7329657E-2,2.2592498E-2,-2.4740165E-2,1.1333632E-2,1.2650568E-2,3.5715524E-2],"split_indices":[87,97,97,88,88,88,88,0,0,0,0,0,0,0,0],"split_type":[0,0,0,0,0,0,0,0,0,0,0,0,0,0,0],"sum_hessian":[1.7578988E4,7.9827E3,9.596288E3,5.734261E3,2.248439E3,2.6532766E3,6.943011E3,4.463176E3,1.2710854E3,8.6852625E2,1.3799127E3,1.7120791E3,9.411976E2,2.164837E3,4.7781743E3],"tree_param":{"num_deleted":"0","num_feature":"98","num_nodes":"15","size_leaf_vector":"1"}},{"base_weights":[-1.6785909E-3,9.0650916E-1,-8.885825E-1,-6.3963175E-1,1.3379159E0,-1.2967992E0,5.2773225E-1,1.6731512E-2,-3.0662626E-2,3.917749E-2,2.3368144E-2,-3.860404E-2,-1.943774E-2,2.3782311E-2,-1.550054E-2],"categories":[],"categories_nodes":[],"categories_segments":[],"categories_sizes":[],"default_left":[0,0,0,0,0,0,0,0,0,0,0,0,0,0,0],"id":12,"left_children":[1,3,5,7,9,11,13,-1,-1,-1,-1,-1,-1,-1,-1],"loss_changes":[1.4121351E4,5.7781416E3,5.128708E3,1.3587473E3,5.4776465E2,7.733887E2,8.987504E2,0E0,0E0,0E0,0E0,0E0,0E0,0E0,0E0],"parents":[2147483647,0,0,1,1,2,2,3,3,4,4,5,5,6,6],"right_children":[2,4,6,8,10,12,14,-1,-1,-1,-1,-1,-1,-1,-1],"split_conditions":[6.3076925E-1,5.9090906E-1,6.7391306E-1,5.632184E-1,5.9322035E-1,6.231884E-1,7.121212E-1,1.6731512E-2,-3.0662626E-2,3.917749E-2,2.3368144E-2,-3.860404E-2,-1.943774E-2,2.3782311E-2,-1.550054E-2],"split_indices":[94,89,89,94,94,89,94,0,0,0,0,0,0,0,0],"split_type":[0,0,0,0,0,0,0,0,0,0,0,0,0,0,0],"sum_hessian":[1.7530627E4,8.661301E3,8.869326E3,1.8893542E3,6.7719463E3,6.8850366E3,1.98429E3,5.684301E2,1.3209241E3,4.6840166E3,2.0879294E3,4.961428E3,1.9236084E3,1.46667E3,5.1761993E2],"tree_param":{"num_deleted":"0","num_feature":"98","num_nodes":"15","size_leaf_vector":"1"}},{"base_weights":[9.078328E-4,8.3804035E-1,-6.3221073E-1,1.2353961E0,-1.9017605E-1,4.7483352E-1,-1.0549952E0,3.6794215E-2,1.795513E-2,1.5281772E-2,-2.3862936E-2,2.629259E-2,-8.150335E-3,-1.0273449E-2,-3.4779325E-2],"categories":[],"categories_nodes":[],"categories_segments":[],"categories_sizes":[],"default_left":[0,0,0,0,0,0,0,0,0,0,0,0,0,0,0],"id":13,"left_children":[1,3,5,7,9,11,13,-1,-1,-1,-1,-1,-1,-1,-1],"loss_changes":[9.213984E3,3.0589287E3,4.633215E3,5.758291E2,1.2152686E3,1.1942642E3,1.4120659E3,0E0,0E0,0E0,0E0,0E0,0E0,0E0,0E0],"parents":[2147483647,0,0,1,1,2,2,3,3,4,4,5,5,6,6],"right_children":[2,4,6,8,10,12,14,-1,-1,-1,-1,-1,-1,-1,-1],"split_conditions":[7.0149255E-1,1.0294118E-1,5.7142857E-2,5.3061223E-1,5E-1,5.416667E-1,5E-1,3.6794215E-2,1.795513E-2,1.5281772E-2,-2.3862936E-2,2.629259E-2,-8.150335E-3,-1.0273449E-2,-3.4779325E-2],"split_indices":[92,95,95,93,93,93,93,0,0,0,0,0,0,0,0],"split_type":[0,0,0,0,0,0,0,0,0,0,0,0,0,0,0],"sum_hessian":[1.7383611E4,7.485741E3,9.897869E3,5.399231E3,2.08651E3,2.73527E3,7.162599E3,3.9318513E3,1.4673799E3,1.0119884E3,1.0745216E3,1.6141696E3,1.1211003E3,2.2592493E3,4.90335E3],"tree_param":{"num_deleted":"0","num_feature":"98","num_nodes":"15","size_leaf_vector":"1"}},{"base_weights":[-1.8756748E-3,8.348777E-1,-8.990177E-1,-6.212252E-1,1.2903463E0,-1.2836717E0,4.811683E-1,2.2763709E-2,-2.7696582E-2,3.843549E-2,2.2631112E-2,-3.7450284E-2,-1.8550472E-2,2.2154616E-2,-1.4101924E-2],"categories":[],"categories_nodes":[],"categories_segments":[],"categories_sizes":[],"default_left":[0,0,0,0,0,0,0,0,0,0,0,0,0,0,0],"id":14,"left_children":[1,3,5,7,9,11,13,-1,-1,-1,-1,-1,-1,-1,-1],"loss_changes":[1.301956E4,5.951966E3,4.4439355E3,1.481467E3,5.804258E2,6.477178E2,7.205814E2,0E0,0E0,0E0,0E0,0E0,0E0,0E0,0E0],"parents":[2147483647,0,0,1,1,2,2,3,3,4,4,5,5,6,6],"right_children":[2,4,6,8,10,12,14,-1,-1,-1,-1,-1,-1,-1,-1],"split_conditions":[6.363636E-1,5.945946E-1,6.75E-1,5.522388E-1,5.9322035E-1,6.3E-1,7.121212E-1,2.2763709E-2,-2.7696582E-2,3.843549E-2,2.2631112E-2,-3.7450284E-2,-1.8550472E-2,2.2154616E-2,-1.4101924E-2],"split_indices":[94,89,89,94,94,89,94,0,0,0,0,0,0,0,0],"split_type":[0,0,0,0,0,0,0,0,0,0,0,0,0,0,0],"sum_hessian":[1.7342447E4,8.973164E3,8.369282E3,2.1379067E3,6.8352573E3,6.5452744E3,1.8240083E3,4.983787E2,1.6395281E3,4.520543E3,2.3147146E3,4.973802E3,1.5714725E3,1.3303044E3,4.9370383E2],"tree_param":{"num_deleted":"0","num_feature":"98","num_nodes":"15","size_leaf_vector":"1"}},{"base_weights":[-2.4489122E-3,-8.6461854E-1,8.408833E-1,3.5510972E-1,-1.2214196E0,1.2682672E0,-1.1291372E-1,-2.5116062E-2,2.3875356E-2,-1.3952046E-2,-3.5349436E-2,3.6500424E-2,1.8696394E-2,1.8350746E-2,-1.8600913E-2],"categories":[],"categories_nodes":[],"categories_segments":[],"categories_sizes":[],"default_left":[0,0,0,0,0,0,0,0,0,0,0,0,0,0,0],"id":15,"left_children":[1,3,5,7,9,11,13,-1,-1,-1,-1,-1,-1,-1,-1],"loss_changes":[1.2502975E4,3.7008687E3,3.5437407E3,1.4801569E3,6.997412E2,5.0152344E2,1.3656221E3,0E0,0E0,0E0,0E0,0E0,0E0,0E0,0E0],"parents":[2147483647,0,0,1,1,2,2,3,3,4,4,5,5,6,6],"right_children":[2,4,6,8,10,12,14,-1,-1,-1,-1,-1,-1,-1,-1],"split_conditions":[6.3076925E-1,6.603774E-1,7.536232E-1,5.555556E-1,4.5454547E-1,5.4901963E-1,5.1111114E-1,-2.5116062E-2,2.3875356E-2,-1.3952046E-2,-3.5349436E-2,3.6500424E-2,1.8696394E-2,1.8350746E-2,-1.8600913E-2],"split_indices":[89,92,92,89,93,93,93,0,0,0,0,0,0,0,0],"split_type":[0,0,0,0,0,0,0,0,0,0,0,0,0,0,0],"sum_hessian":[1.7194703E4,8.50247E3,8.692232E3,1.9241938E3,6.5782764E3,6.0025444E3,2.689688E3,5.799151E2,1.3442787E3,1.2397731E3,5.3385034E3,4.6596865E3,1.3428579E3,1.1430669E3,1.5466211E3],"tree_param":{"num_deleted":"0","num_feature":"98","num_nodes":"15","size_leaf_vector":"1"}},{"base_weights":[-7.04601E-4,-8.457747E-1,8.240372E-1,-1.1926669E0,1.8014805E-1,-2.3996949E-1,1.1858832E0,-3.5595372E-2,-1.8546935E-2,-2.8314397E-2,1.7645504E-2,-1.7837206E-2,1.9739728E-2,3.530832E-2,1.9837257E-2],"categories":[],"categories_nodes":[],"categories_segments":[],"categories_sizes":[],"default_left":[0,0,0,0,0,0,0,0,0,0,0,0,0,0,0],"id":16,"left_children":[1,3,5,7,9,11,13,-1,-1,-1,-1,-1,-1,-1,-1],"loss_changes":[1.1906454E4,3.003124E3,3.3288784E3,5.7786914E2,1.3917804E3,1.01000354E3,5.074463E2,0E0,0E0,0E0,0E0,0E0,0E0,0E0,0E0],"parents":[2147483647,0,0,1,1,2,2,3,3,4,4,5,5,6,6],"right_children":[2,4,6,8,10,12,14,-1,-1,-1,-1,-1,-1,-1,-1],"split_conditions":[6.3076925E-1,1.0465116E-1,5.7471264E-2,5.970149E-1,5.5E-1,7.0886075E-1,5.0877196E-1,-3.5595372E-2,-1.8546935E-2,-2.8314397E-2,1.7645504E-2,-1.7837206E-2,1.9739728E-2,3.530832E-2,1.9837257E-2],"split_indices":[89,97,97,89,89,89,93,0,0,0,0,0,0,0,0],"split_type":[0,0,0,0,0,0,0,0,0,0,0,0,0,0,0],"sum_hessian":[1.7082217E4,8.437208E3,8.645009E3,6.305276E3,2.1319316E3,2.1938335E3,6.451175E3,4.449982E3,1.855294E3,6.0398785E2,1.5279437E3,1.511902E3,6.8193164E2,4.4065625E3,2.0446122E3],"tree_param":{"num_deleted":"0","num_feature":"98","num_nodes":"15","size_leaf_vector":"1"}},{"base_weights":[-1.0764556E-3,1.0204843E0,-6.787403E-1,-2.9281685E-1,1.2747457E0,-1.2110152E0,1.8005227E-1,1.8595483E-2,-2.3873594E-2,1.5482716E-2,3.5162047E-2,-2.1078017E-2,-3.6573432E-2,1.8386958E-2,-1.6214265E-2],"categories":[],"categories_nodes":[],"categories_segments":[],"categories_sizes":[],"default_left":[0,0,0,0,0,0,0,0,0,0,0,0,0,0,0],"id":17,"left_children":[1,3,5,7,9,11,13,-1,-1,-1,-1,-1,-1,-1,-1],"loss_changes":[1.178202E4,2.266791E3,4.677448E3,7.159436E2,3.6767188E2,5.281621E2,1.7085326E3,0E0,0E0,0E0,0E0,0E0,0E0,0E0,0E0],"parents":[2147483647,0,0,1,1,2,2,3,3,4,4,5,5,6,6],"right_children":[2,4,6,8,10,12,14,-1,-1,-1,-1,-1,-1,-1,-1],"split_conditions":[6.103896E-1,6.4102566E-1,7.358491E-1,5.555556E-1,4.2857143E-1,6.593407E-1,6.8421054E-1,1.8595483E-2,-2.3873594E-2,1.5482716E-2,3.5162047E-2,-2.1078017E-2,-3.6573432E-2,1.8386958E-2,-1.6214265E-2],"split_indices":[94,87,87,94,88,94,94,0,0,0,0,0,0,0,0],"split_type":[0,0,0,0,0,0,0,0,0,0,0,0,0,0,0],"sum_hessian":[1.7018275E4,6.7868267E3,1.0231449E4,1.1007306E3,5.686096E3,6.3164775E3,3.914972E3,4.240499E2,6.766807E2,7.1605286E2,4.9700435E3,2.2518784E3,4.064599E3,2.3570825E3,1.5578895E3],"tree_param":{"num_deleted":"0","num_feature":"98","num_nodes":"15","size_leaf_vector":"1"}},{"base_weights":[3.4783003E-3,8.308181E-1,-8.0223125E-1,-4.4254252E-1,1.1491069E0,-1.2251441E0,1.274769E-1,2.0583248E-2,-2.6127066E-2,3.642382E-2,1.985217E-2,-2.1158457E-2,-3.5526797E-2,1.5488659E-2,-1.5475639E-2],"categories":[],"categories_nodes":[],"categories_segments":[],"categories_sizes":[],"default_left":[0,0,0,0,0,0,0,0,0,0,0,0,0,0,0],"id":18,"left_children":[1,3,5,7,9,11,13,-1,-1,-1,-1,-1,-1,-1,-1],"loss_changes":[1.12551455E4,3.376705E3,3.3635464E3,1.1964287E3,6.7721094E2,3.7624707E2,9.320867E2,0E0,0E0,0E0,0E0,0E0,0E0,0E0,0E0],"parents":[2147483647,0,0,1,1,2,2,3,3,4,4,5,5,6,6],"right_children":[2,4,6,8,10,12,14,-1,-1,-1,-1,-1,-1,-1,-1],"split_conditions":[6.3076925E-1,6.511628E-1,7.536232E-1,5.584416E-1,5.816327E-1,6.6292137E-1,6.956522E-1,2.0583248E-2,-2.6127066E-2,3.642382E-2,1.985217E-2,-2.1158457E-2,-3.5526797E-2,1.5488659E-2,-1.5475639E-2],"split_indices":[94,87,87,94,94,94,94,0,0,0,0,0,0,0,0],"split_type":[0,0,0,0,0,0,0,0,0,0,0,0,0,0,0],"sum_hessian":[1.6883438E4,8.329985E3,8.553452E3,1.6656497E3,6.6643354E3,5.879103E3,2.6743494E3,5.268857E2,1.1387639E3,3.8645796E3,2.7997559E3,1.6839094E3,4.195194E3,1.6190992E3,1.0552501E3],"tree_param":{"num_deleted":"0","num_feature":"98","num_nodes":"15","size_leaf_vector":"1"}},{"base_weights":[-1.1240757E-3,-8.100299E-1,7.909133E-1,4.7335196E-1,-1.118879E0,1.1880085E0,-1.724558E-1,-2.834611E-2,2.328174E-2,-1.6188482E-2,-3.442253E-2,3.3556275E-2,1.28620565E-2,1.57348E-2,-1.8557917E-2],"categories":[],"categories_nodes":[],"categories_segments":[],"categories_sizes":[],"default_left":[0,0,0,0,0,0,0,0,0,0,0,0,0,0,0],"id":19,"left_children":[1,3,5,7,9,11,13,-1,-1,-1,-1,-1,-1,-1,-1],"loss_changes":[1.075484E4,3.2922031E3,3.2448853E3,1.1061292E3,7.289678E2,4.9686426E2,1.0732898E3,0E0,0E0,0E0,0E0,0E0,0E0,0E0,0E0],"parents":[2147483647,0,0,1,1,2,2,3,3,4,4,5,5,6,6],"right_children":[2,4,6,8,10,12,14,-1,-1,-1,-1,-1,-1,-1,-1],"split_conditions":[6.3076925E-1,6.486486E-1,7.590361E-1,5.3968257E-1,5E-1,5.8064514E-1,5.1111114E-1,-2.834611E-2,2.328174E-2,-1.6188482E-2,-3.442253E-2,3.3556275E-2,1.28620565E-2,1.57348E-2,-1.8557917E-2],"split_indices":[89,92,92,89,93,93,93,0,0,0,0,0,0,0,0],"split_type":[0,0,0,0,0,0,0,0,0,0,0,0,0,0,0],"sum_hessian":[1.6785426E4,8.304366E3,8.481061E3,1.610673E3,6.6936934E3,6.005607E3,2.4754534E3,3.47429E2,1.2632439E3,2.105424E3,4.588269E3,5.1070654E3,8.985416E2,1.0202833E3,1.45517E3],"tree_param":{"num_deleted":"0","num_feature":"98","num_nodes":"15","size_leaf_vector":"1"}},{"base_weights":[5.9633246E-3,-8.919793E-1,6.891473E-1,3.180979E-1,-1.1739763E0,1.1964983E0,-1.184623E-1,-2.7512552E-2,2.0294925E-2,-1.3375787E-2,-3.337429E-2,3.495696E-2,1.9677687E-2,1.5842443E-2,-1.7304037E-2],"categories":[],"categories_nodes":[],"categories_segments":[],"categories_sizes":[],"default_left":[0,0,0,0,0,0,0,0,0,0,0,0,0,0,0],"id":20,"left_children":[1,3,5,7,9,11,13,-1,-1,-1,-1,-1,-1,-1,-1],"loss_changes":[1.0221499E4,2.4570278E3,3.8774956E3,8.966644E2,4.8541113E2,4.1510645E2,1.4961056E3,0E0,0E0,0E0,0E0,0E0,0E0,0E0,0E0],"parents":[2147483647,0,0,1,1,2,2,3,3,4,4,5,5,6,6],"right_children":[2,4,6,8,10,12,14,-1,-1,-1,-1,-1,-1,-1,-1],"split_conditions":[6.181818E-1,6.486486E-1,7.358491E-1,5.3968257E-1,4.4444445E-1,5.3061223E-1,5.1111114E-1,-2.7512552E-2,2.0294925E-2,-1.3375787E-2,-3.337429E-2,3.495696E-2,1.9677687E-2,1.5842443E-2,-1.7304037E-2],"split_indices":[89,92,92,89,93,93,93,0,0,0,0,0,0,0,0],"split_type":[0,0,0,0,0,0,0,0,0,0,0,0,0,0,0],"sum_hessian":[1.6661018E4,7.1988447E3,9.462173E3,1.3604487E3,5.838396E3,5.8113345E3,3.650838E3,3.4517264E2,1.01527606E3,9.558611E2,4.8825347E3,4.1834697E3,1.627865E3,1.5712131E3,2.0796248E3],"tree_param":{"num_deleted":"0","num_feature":"98","num_nodes":"15","size_leaf_vector":"1"}},{"base_weights":[3.1471398E-4,-9.5495903E-1,6.261713E-1,4.895397E-1,-1.1625669E0,1.1352551E0,-1.7403568E-1,-2.2228632E-2,2.5254482E-2,-3.516033E-2,-2.11634E-2,1.7604915E-2,3.3321343E-2,-1.6771058E-2,1.7955972E-2],"categories":[],"categories_nodes":[],"categories_segments":[],"categories_sizes":[],"default_left":[0,0,0,0,0,0,0,0,0,0,0,0,0,0,0],"id":21,"left_children":[1,3,5,7,9,11,13,-1,-1,-1,-1,-1,-1,-1,-1],"loss_changes":[9.897179E3,1.9654492E3,4.0746702E3,5.539629E2,4.0222266E2,4.497622E2,1.6325405E3,0E0,0E0,0E0,0E0,0E0,0E0,0E0,0E0],"parents":[2147483647,0,0,1,1,2,2,3,3,4,4,5,5,6,6],"right_children":[2,4,6,8,10,12,14,-1,-1,-1,-1,-1,-1,-1,-1],"split_conditions":[6.103896E-1,6.25E-1,7.358491E-1,5.3968257E-1,5.7272726E-1,6.4705884E-1,6.9135803E-1,-2.2228632E-2,2.5254482E-2,-3.516033E-2,-2.11634E-2,1.7604915E-2,3.3321343E-2,-1.6771058E-2,1.7955972E-2],"split_indices":[89,92,92,89,89,89,89,0,0,0,0,0,0,0,0],"split_type":[0,0,0,0,0,0,0,0,0,0,0,0,0,0,0],"sum_hessian":[1.6553225E4,6.5520366E3,1.00011875E4,8.231669E2,5.72887E3,6.1124565E3,3.8887307E3,2.2001718E2,6.031497E2,3.5376245E3,2.1912454E3,1.6390807E3,4.473376E3,2.5106128E3,1.3781178E3],"tree_param":{"num_deleted":"0","num_feature":"98","num_nodes":"15","size_leaf_vector":"1"}},{"base_weights":[-1.5272608E-3,-7.309484E-1,5.5519766E-1,2.778663E-1,-1.1213892E0,1.075936E0,-1.9958495E-1,-1.6488971E-2,2.020266E-2,-1.3547259E-2,-3.3399582E-2,1.26085095E-2,3.2652423E-2,-2.0991117E-2,1.0291748E-2],"categories":[],"categories_nodes":[],"categories_segments":[],"categories_sizes":[],"default_left":[0,0,0,0,0,0,0,0,0,0,0,0,0,0,0],"id":22,"left_children":[1,3,5,7,9,11,13,-1,-1,-1,-1,-1,-1,-1,-1],"loss_changes":[6.676893E3,2.80364E3,3.665276E3,9.3324976E2,5.5074023E2,6.360718E2,1.4166309E3,0E0,0E0,0E0,0E0,0E0,0E0,0E0,0E0],"parents":[2147483647,0,0,1,1,2,2,3,3,4,4,5,5,6,6],"right_children":[2,4,6,8,10,12,14,-1,-1,-1,-1,-1,-1,-1,-1],"split_conditions":[7.027027E-1,6.7058825E-1,7.358491E-1,4.6153846E-1,4.6666667E-1,4.7368422E-1,5.217391E-1,-1.6488971E-2,2.020266E-2,-1.3547259E-2,-3.3399582E-2,1.26085095E-2,3.2652423E-2,-2.0991117E-2,1.0291748E-2],"split_indices":[87,92,92,88,93,88,88,0,0,0,0,0,0,0,0],"split_type":[0,0,0,0,0,0,0,0,0,0,0,0,0,0,0],"sum_hessian":[1.6440893E4,7.1166914E3,9.324202E3,1.9857448E3,5.130947E3,5.517523E3,3.8066787E3,7.076182E2,1.2781265E3,1.2013809E3,3.929566E3,1.3946353E3,4.1228877E3,1.875122E3,1.9315566E3],"tree_param":{"num_deleted":"0","num_feature":"98","num_nodes":"15","size_leaf_vector":"1"}},{"base_weights":[2.2132501E-3,-7.448963E-1,5.2816916E-1,4.3318504E-1,-1.0634351E0,1.0342577E0,-2.2966419E-1,-2.2659127E-2,1.9334123E-2,-1.7978817E-2,-3.2299567E-2,3.2807443E-2,1.8216874E-2,2.004234E-2,-1.2806849E-2],"categories":[],"categories_nodes":[],"categories_segments":[],"categories_sizes":[],"default_left":[0,0,0,0,0,0,0,0,0,0,0,0,0,0,0],"id":23,"left_children":[1,3,5,7,9,11,13,-1,-1,-1,-1,-1,-1,-1,-1],"loss_changes":[6.423857E3,2.5348445E3,3.6798645E3,6.0780884E2,3.772036E2,4.5601074E2,1.0484231E3,0E0,0E0,0E0,0E0,0E0,0E0,0E0,0E0],"parents":[2147483647,0,0,1,1,2,2,3,3,4,4,5,5,6,6],"right_children":[2,4,6,8,10,12,14,-1,-1,-1,-1,-1,-1,-1,-1],"split_conditions":[6.976744E-1,6.486486E-1,7.380952E-1,5.833333E-1,7.2727275E-1,6.7058825E-1,3.2258064E-2,-2.2659127E-2,1.9334123E-2,-1.7978817E-2,-3.2299567E-2,3.2807443E-2,1.8216874E-2,2.004234E-2,-1.2806849E-2],"split_indices":[87,92,92,87,92,92,95,0,0,0,0,0,0,0,0],"split_type":[0,0,0,0,0,0,0,0,0,0,0,0,0,0,0],"sum_hessian":[1.6346913E4,6.7533794E3,9.593533E3,1.4372443E3,5.3161353E3,5.7521704E3,3.841363E3,2.8129102E2,1.1559532E3,1.868979E3,3.4471562E3,3.2721548E3,2.4800156E3,8.086546E2,3.0327085E3],"tree_param":{"num_deleted":"0","num_feature":"98","num_nodes":"15","size_leaf_vector":"1"}},{"base_weights":[-2.21978E-3,9.355023E-1,-6.162302E-1,1.1977587E0,2.8467357E-2,3.8578817E-1,-9.796655E-1,3.4884766E-2,2.3124402E-2,2.511396E-2,-1.4377891E-2,2.0980552E-2,-1.1677704E-2,-1.46872485E-2,-3.2056153E-2],"categories":[],"categories_nodes":[],"categories_segments":[],"categories_sizes":[],"default_left":[0,0,0,0,0,0,0,0,0,0,0,0,0,0,0],"id":24,"left_children":[1,3,5,7,9,11,13,-1,-1,-1,-1,-1,-1,-1,-1],"loss_changes":[9.352009E3,1.5286387E3,3.5748381E3,2.3908838E2,8.0841376E2,9.507508E2,7.9216797E2,0E0,0E0,0E0,0E0,0E0,0E0,0E0,0E0],"parents":[2147483647,0,0,1,1,2,2,3,3,4,4,5,5,6,6],"right_children":[2,4,6,8,10,12,14,-1,-1,-1,-1,-1,-1,-1,-1],"split_conditions":[6.103896E-1,1.0784314E-1,5.7142857E-2,5.753425E-1,5.522388E-1,6.923077E-1,6.6292137E-1,3.4884766E-2,2.3124402E-2,2.511396E-2,-1.4377891E-2,2.0980552E-2,-1.1677704E-2,-1.46872485E-2,-3.2056153E-2],"split_indices":[94,95,95,94,94,94,94,0,0,0,0,0,0,0,0],"split_type":[0,0,0,0,0,0,0,0,0,0,0,0,0,0,0],"sum_hessian":[1.6241586E4,6.426486E3,9.8151E3,4.9848545E3,1.441631E3,2.6123179E3,7.202782E3,3.2146355E3,1.7702191E3,5.514608E2,8.9017017E2,1.7254816E3,8.8683624E2,2.877297E3,4.3254854E3],"tree_param":{"num_deleted":"0","num_feature":"98","num_nodes":"15","size_leaf_vector":"1"}},{"base_weights":[-4.048808E-3,9.1534853E-1,-6.0313684E-1,-7.251403E-1,1.1714126E0,-1.1274811E0,3.5565117E-1,2.5186284E-2,-2.7001869E-2,3.463939E-2,2.1124842E-2,-3.401762E-2,-1.9310072E-2,2.1579612E-2,-9.66178E-3],"categories":[],"categories_nodes":[],"categories_segments":[],"categories_sizes":[],"default_left":[0,0,0,0,0,0,0,0,0,0,0,0,0,0,0],"id":25,"left_children":[1,3,5,7,9,11,13,-1,-1,-1,-1,-1,-1,-1,-1],"loss_changes":[8.861251E3,2.6667583E3,4.897429E3,4.8051318E2,3.4163135E2,4.6879932E2,1.2261061E3,0E0,0E0,0E0,0E0,0E0,0E0,0E0,0E0],"parents":[2147483647,0,0,1,1,2,2,3,3,4,4,5,5,6,6],"right_children":[2,4,6,8,10,12,14,-1,-1,-1,-1,-1,-1,-1,-1],"split_conditions":[6.103896E-1,5.6565654E-1,6.4835167E-1,5.263158E-1,5.764706E-1,6.0194176E-1,6.8E-1,2.5186284E-2,-2.7001869E-2,3.463939E-2,2.1124842E-2,-3.401762E-2,-1.9310072E-2,2.1579612E-2,-9.66178E-3],"split_indices":[94,89,89,94,94,89,94,0,0,0,0,0,0,0,0],"split_type":[0,0,0,0,0,0,0,0,0,0,0,0,0,0,0],"sum_hessian":[1.6086972E4,6.3465864E3,9.740386E3,8.566791E2,5.4899077E3,6.2968203E3,3.4435652E3,1.3778091E2,7.188982E2,3.6188438E3,1.8710636E3,4.108969E3,2.1878506E3,2.0702107E3,1.3733545E3],"tree_param":{"num_deleted":"0","num_feature":"98","num_nodes":"15","size_leaf_vector":"1"}},{"base_weights":[-5.5670174E-4,-7.234499E-1,5.060909E-1,-1.070131E0,1.473249E-1,-3.6791164E-1,9.035642E-1,-3.2687213E-2,-1.7833127E-2,-1.6507776E-2,1.7269818E-2,-2.5377091E-2,4.506008E-3,9.460768E-3,2.984907E-2],"categories":[],"categories_nodes":[],"categories_segments":[],"categories_sizes":[],"default_left":[0,0,0,0,0,0,0,0,0,0,0,0,0,0,0],"id":26,"left_children":[1,3,5,7,9,11,13,-1,-1,-1,-1,-1,-1,-1,-1],"loss_changes":[5.8542446E3,1.9885764E3,3.2648923E3,3.6046387E2,7.8115265E2,9.9334375E2,8.993218E2,0E0,0E0,0E0,0E0,0E0,0E0,0E0,0E0],"parents":[2147483647,0,0,1,1,2,2,3,3,4,4,5,5,6,6],"right_children":[2,4,6,8,10,12,14,-1,-1,-1,-1,-1,-1,-1,-1],"split_conditions":[6.976744E-1,1.0309278E-1,6.097561E-2,5.084746E-1,4.6875E-1,5.1111114E-1,5E-1,-3.2687213E-2,-1.7833127E-2,-1.6507776E-2,1.7269818E-2,-2.5377091E-2,4.506008E-3,9.460768E-3,2.984907E-2],"split_indices":[87,97,97,88,88,88,88,0,0,0,0,0,0,0,0],"split_type":[0,0,0,0,0,0,0,0,0,0,0,0,0,0,0],"sum_hessian":[1.5983032E4,6.5860293E3,9.397003E3,4.71063E3,1.8753992E3,2.9374766E3,6.4595264E3,3.045379E3,1.665251E3,7.4895776E2,1.1264414E3,1.3701794E3,1.5672972E3,2.1171526E3,4.342374E3],"tree_param":{"num_deleted":"0","num_feature":"98","num_nodes":"15","size_leaf_vector":"1"}},{"base_weights":[-4.7330684E-3,8.9789885E-1,-5.922857E-1,-6.984705E-1,1.1497875E0,-1.1129384E0,3.0893958E-1,2.535482E-2,-2.5485035E-2,1.3801267E-2,3.214486E-2,-3.373145E-2,-1.9868083E-2,1.759002E-2,-1.5907502E-2],"categories":[],"categories_nodes":[],"categories_segments":[],"categories_sizes":[],"default_left":[0,0,0,0,0,0,0,0,0,0,0,0,0,0,0],"id":27,"left_children":[1,3,5,7,9,11,13,-1,-1,-1,-1,-1,-1,-1,-1],"loss_changes":[8.418846E3,2.5172427E3,4.512139E3,4.258603E2,3.427124E2,4.1657422E2,1.2341364E3,0E0,0E0,0E0,0E0,0E0,0E0,0E0,0E0],"parents":[2147483647,0,0,1,1,2,2,3,3,4,4,5,5,6,6],"right_children":[2,4,6,8,10,12,14,-1,-1,-1,-1,-1,-1,-1,-1],"split_conditions":[6.103896E-1,5.6565654E-1,6.458333E-1,5.2238804E-1,6.0273975E-1,5.970149E-1,7E-1,2.535482E-2,-2.5485035E-2,1.3801267E-2,3.214486E-2,-3.373145E-2,-1.9868083E-2,1.759002E-2,-1.5907502E-2],"split_indices":[94,89,89,94,89,89,94,0,0,0,0,0,0,0,0],"split_type":[0,0,0,0,0,0,0,0,0,0,0,0,0,0,0],"sum_hessian":[1.5873321E4,6.2583535E3,9.614968E3,8.5270825E2,5.405645E3,6.0942515E3,3.5207166E3,1.2679642E2,7.259118E2,7.8537604E2,4.620269E3,3.8096575E3,2.2845942E3,2.5047407E3,1.01597595E3],"tree_param":{"num_deleted":"0","num_feature":"98","num_nodes":"15","size_leaf_vector":"1"}},{"base_weights":[1.0548881E-3,6.8235356E-1,-7.511217E-1,-6.374266E-1,1.0479116E0,-1.0661514E0,5.016051E-1,2.2583773E-2,-2.49811E-2,3.273608E-2,1.67975E-2,-3.2843478E-2,-1.760776E-2,2.1007637E-2,-8.038154E-3],"categories":[],"categories_nodes":[],"categories_segments":[],"categories_sizes":[],"default_left":[0,0,0,0,0,0,0,0,0,0,0,0,0,0,0],"id":28,"left_children":[1,3,5,7,9,11,13,-1,-1,-1,-1,-1,-1,-1,-1],"loss_changes":[8.065581E3,3.9848972E3,2.9524497E3,9.166367E2,5.805161E2,4.8629297E2,3.8949973E2,0E0,0E0,0E0,0E0,0E0,0E0,0E0,0E0],"parents":[2147483647,0,0,1,1,2,2,3,3,4,4,5,5,6,6],"right_children":[2,4,6,8,10,12,14,-1,-1,-1,-1,-1,-1,-1,-1],"split_conditions":[6.375E-1,5.860465E-1,6.8421054E-1,5.423729E-1,5.9322035E-1,6.181818E-1,7.121212E-1,2.2583773E-2,-2.49811E-2,3.273608E-2,1.67975E-2,-3.2843478E-2,-1.760776E-2,2.1007637E-2,-8.038154E-3],"split_indices":[94,89,89,94,94,89,94,0,0,0,0,0,0,0,0],"split_type":[0,0,0,0,0,0,0,0,0,0,0,0,0,0,0],"sum_hessian":[1.5737986E4,8.2582E3,7.479786E3,1.7910719E3,6.467128E3,5.976931E3,1.5028552E3,3.249808E2,1.4660911E3,4.0858865E3,2.3812415E3,3.8159045E3,2.1610264E3,1.0815076E3,4.213476E2],"tree_param":{"num_deleted":"0","num_feature":"98","num_nodes":"15","size_leaf_vector":"1"}},{"base_weights":[3.3584863E-3,6.223167E-1,-8.027344E-1,-4.2491153E-1,9.5391124E-1,-1.1208493E0,7.231506E-2,1.7218804E-2,-2.4234843E-2,1.1879517E-2,3.051637E-2,-3.1504244E-2,-1.653334E-2,-1.6465785E-2,1.582368E-2],"categories":[],"categories_nodes":[],"categories_segments":[],"categories_sizes":[],"default_left":[0,0,0,0,0,0,0,0,0,0,0,0,0,0,0],"id":29,"left_children":[1,3,5,7,9,11,13,-1,-1,-1,-1,-1,-1,-1,-1],"loss_changes":[7.8087275E3,3.0745742E3,1.8924346E3,1.2149797E3,7.787417E2,2.5515918E2,7.0581195E2,0E0,0E0,0E0,0E0,0E0,0E0,0E0,0E0],"parents":[2147483647,0,0,1,1,2,2,3,3,4,4,5,5,6,6],"right_children":[2,4,6,8,10,12,14,-1,-1,-1,-1,-1,-1,-1,-1],"split_conditions":[6.455696E-1,6.6071427E-1,7.6785713E-1,5.6666666E-1,5E-1,5.714286E-1,5.1724136E-1,1.7218804E-2,-2.4234843E-2,1.1879517E-2,3.051637E-2,-3.1504244E-2,-1.653334E-2,-1.6465785E-2,1.582368E-2],"split_indices":[94,87,87,94,88,88,88,0,0,0,0,0,0,0,0],"split_type":[0,0,0,0,0,0,0,0,0,0,0,0,0,0,0],"sum_hessian":[1.5649679E4,8.852551E3,6.7971284E3,2.1288188E3,6.7237314E3,4.984925E3,1.8122036E3,6.84903E2,1.4439159E3,2.1858726E3,4.537859E3,4.0635825E3,9.213424E2,7.8386035E2,1.0283433E3],"tree_param":{"num_deleted":"0","num_feature":"98","num_nodes":"15","size_leaf_vector":"1"}},{"base_weights":[1.1592295E-3,-6.202171E-1,5.236979E-1,1.8483143E-1,-9.6864384E-1,9.482887E-1,-1.3171716E-1,-1.1442021E-2,1.881533E-2,-2.9574236E-2,-1.3187801E-2,1.2960161E-2,2.9362386E-2,-1.871076E-2,9.665338E-3],"categories":[],"categories_nodes":[],"categories_segments":[],"categories_sizes":[],"default_left":[0,0,0,0,0,0,0,0,0,0,0,0,0,0,0],"id":30,"left_children":[1,3,5,7,9,11,13,-1,-1,-1,-1,-1,-1,-1,-1],"loss_changes":[5.0273843E3,1.984113E3,2.340769E3,7.4045325E2,4.1376855E2,4.4438477E2,1.00609186E3,0E0,0E0,0E0,0E0,0E0,0E0,0E0,0E0],"parents":[2147483647,0,0,1,1,2,2,3,3,4,4,5,5,6,6],"right_children":[2,4,6,8,10,12,14,-1,-1,-1,-1,-1,-1,-1,-1],"split_conditions":[7.096774E-1,4.6666667E-1,5.3061223E-1,5E-1,5.3061223E-1,5E-1,5.084746E-1,-1.1442021E-2,1.881533E-2,-2.9574236E-2,-1.3187801E-2,1.2960161E-2,2.9362386E-2,-1.871076E-2,9.665338E-3],"split_indices":[87,93,93,88,88,88,88,0,0,0,0,0,0,0,0],"split_type":[0,0,0,0,0,0,0,0,0,0,0,0,0,0,0],"sum_hessian":[1.548246E4,7.072194E3,8.410267E3,2.136228E3,4.935966E3,5.1038623E3,3.3064038E3,9.93719E2,1.1425089E3,3.5082832E3,1.4276826E3,1.571288E3,3.5325745E3,1.5197716E3,1.7866322E3],"tree_param":{"num_deleted":"0","num_feature":"98","num_nodes":"15","size_leaf_vector":"1"}},{"base_weights":[3.453123E-3,7.646201E-1,-6.279052E-1,-6.569791E-1,1.0555433E0,-9.9569976E-1,4.8766723E-1,1.8444845E-2,-2.539823E-2,3.3260167E-2,1.8628512E-2,-3.1785324E-2,-1.592348E-2,2.0285955E-2,-1.1674484E-2],"categories":[],"categories_nodes":[],"categories_segments":[],"categories_sizes":[],"default_left":[0,0,0,0,0,0,0,0,0,0,0,0,0,0,0],"id":31,"left_children":[1,3,5,7,9,11,13,-1,-1,-1,-1,-1,-1,-1,-1],"loss_changes":[7.3762417E3,2.8785764E3,3.4426665E3,5.432452E2,4.5844775E2,5.7598975E2,5.9560547E2,0E0,0E0,0E0,0E0,0E0,0E0,0E0,0E0],"parents":[2147483647,0,0,1,1,2,2,3,3,4,4,5,5,6,6],"right_children":[2,4,6,8,10,12,14,-1,-1,-1,-1,-1,-1,-1,-1],"split_conditions":[6.229508E-1,5.744681E-1,6.7391306E-1,5.394737E-1,5.764706E-1,6.103896E-1,7.121212E-1,1.8444845E-2,-2.539823E-2,3.3260167E-2,1.8628512E-2,-3.1785324E-2,-1.592348E-2,2.0285955E-2,-1.1674484E-2],"split_indices":[94,89,89,94,94,89,94,0,0,0,0,0,0,0,0],"split_type":[0,0,0,0,0,0,0,0,0,0,0,0,0,0,0],"sum_hessian":[1.5347855E4,6.9586294E3,8.389226E3,1.1819329E3,5.7766963E3,6.309293E3,2.079933E3,2.303532E2,9.515797E2,3.3298374E3,2.446859E3,3.820578E3,2.488715E3,1.5737047E3,5.0622842E2],"tree_param":{"num_deleted":"0","num_feature":"98","num_nodes":"15","size_leaf_vector":"1"}},{"base_weights":[-1.0852043E-3,8.4525746E-1,-5.4823613E-1,-6.3008773E-1,1.0936778E0,-1.0052056E0,3.6863947E-1,2.6321387E-2,-2.4085328E-2,3.265715E-2,1.9402904E-2,-3.1596083E-2,-1.598712E-2,2.0246789E-2,-9.013658E-3],"categories":[],"categories_nodes":[],"categories_segments":[],"categories_sizes":[],"default_left":[0,0,0,0,0,0,0,0,0,0,0,0,0,0,0],"id":32,"left_children":[1,3,5,7,9,11,13,-1,-1,-1,-1,-1,-1,-1,-1],"loss_changes":[7.0592007E3,2.1941519E3,3.8795461E3,4.4252325E2,3.0982812E2,5.348198E2,9.33966E2,0E0,0E0,0E0,0E0,0E0,0E0,0E0,0E0],"parents":[2147483647,0,0,1,1,2,2,3,3,4,4,5,5,6,6],"right_children":[2,4,6,8,10,12,14,-1,-1,-1,-1,-1,-1,-1,-1],"split_conditions":[6.103896E-1,5.681818E-1,6.551724E-1,5.2238804E-1,5.764706E-1,6.041667E-1,6.849315E-1,2.6321387E-2,-2.4085328E-2,3.265715E-2,1.9402904E-2,-3.1596083E-2,-1.598712E-2,2.0246789E-2,-9.013658E-3],"split_indices":[94,89,89,94,94,89,94,0,0,0,0,0,0,0,0],"split_type":[0,0,0,0,0,0,0,0,0,0,0,0,0,0,0],"sum_hessian":[1.5243129E4,5.984949E3,9.25818E3,8.6231805E2,5.1226313E3,6.178786E3,3.0793933E3,1.3537473E2,7.269433E2,3.3381897E3,1.7844417E3,3.8734521E3,2.305334E3,1.9434762E3,1.1359172E3],"tree_param":{"num_deleted":"0","num_feature":"98","num_nodes":"15","size_leaf_vector":"1"}},{"base_weights":[-1.0740329E-3,6.214205E-1,-7.300669E-1,-4.6334642E-1,1.0291864E0,-1.0183921E0,4.3674082E-1,1.4687725E-2,-2.4285521E-2,3.1827763E-2,1.8083295E-2,-3.1520028E-2,-1.6945045E-2,1.8590853E-2,-9.040139E-3],"categories":[],"categories_nodes":[],"categories_segments":[],"categories_sizes":[],"default_left":[0,0,0,0,0,0,0,0,0,0,0,0,0,0,0],"id":33,"left_children":[1,3,5,7,9,11,13,-1,-1,-1,-1,-1,-1,-1,-1],"loss_changes":[6.853225E3,3.6035361E3,2.3404912E3,1.1160648E3,4.06021E2,4.1985938E2,3.1388892E2,0E0,0E0,0E0,0E0,0E0,0E0,0E0,0E0],"parents":[2147483647,0,0,1,1,2,2,3,3,4,4,5,5,6,6],"right_children":[2,4,6,8,10,12,14,-1,-1,-1,-1,-1,-1,-1,-1],"split_conditions":[6.40625E-1,6E-1,6.851852E-1,5.6790125E-1,5.92233E-1,6.1904764E-1,7.1666664E-1,1.4687725E-2,-2.4285521E-2,3.1827763E-2,1.8083295E-2,-3.1520028E-2,-1.6945045E-2,1.8590853E-2,-9.040139E-3],"split_indices":[94,89,89,94,94,89,94,0,0,0,0,0,0,0,0],"split_type":[0,0,0,0,0,0,0,0,0,0,0,0,0,0,0],"sum_hessian":[1.510095E4,8.145396E3,6.955554E3,2.2252388E3,5.920157E3,5.5775093E3,1.3780448E3,7.0814044E2,1.5170983E3,3.5766313E3,2.343526E3,3.5072566E3,2.070253E3,1.0095353E3,3.685095E2],"tree_param":{"num_deleted":"0","num_feature":"98","num_nodes":"15","size_leaf_vector":"1"}},{"base_weights":[-1.5242747E-3,5.705378E-1,-7.6097155E-1,-4.2164683E-1,8.917644E-1,-1.0732605E0,7.1989246E-2,1.6436446E-2,-2.2760516E-2,3.0893521E-2,1.3627109E-2,-3.0396236E-2,-1.6762875E-2,-1.4460907E-2,1.6275499E-2],"categories":[],"categories_nodes":[],"categories_segments":[],"categories_sizes":[],"default_left":[0,0,0,0,0,0,0,0,0,0,0,0,0,0,0],"id":34,"left_children":[1,3,5,7,9,11,13,-1,-1,-1,-1,-1,-1,-1,-1],"loss_changes":[6.502606E3,2.7210703E3,1.6729392E3,1.0343884E3,7.268921E2,2.1943506E2,6.2789056E2,0E0,0E0,0E0,0E0,0E0,0E0,0E0,0E0],"parents":[2147483647,0,0,1,1,2,2,3,3,4,4,5,5,6,6],"right_children":[2,4,6,8,10,12,14,-1,-1,-1,-1,-1,-1,-1,-1],"split_conditions":[6.4705884E-1,6.6071427E-1,7.6785713E-1,5.641026E-1,5.8947366E-1,5.609756E-1,5.263158E-1,1.6436446E-2,-2.2760516E-2,3.0893521E-2,1.3627109E-2,-3.0396236E-2,-1.6762875E-2,-1.4460907E-2,1.6275499E-2],"split_indices":[94,87,87,94,94,88,88,0,0,0,0,0,0,0,0],"split_type":[0,0,0,0,0,0,0,0,0,0,0,0,0,0,0],"sum_hessian":[1.4966272E4,8.536217E3,6.430055E3,2.0875889E3,6.448628E3,4.676707E3,1.7533481E3,6.362323E2,1.4513564E3,3.4496426E3,2.9989856E3,3.688953E3,9.8775415E2,8.2301166E2,9.303364E2],"tree_param":{"num_deleted":"0","num_feature":"98","num_nodes":"15","size_leaf_vector":"1"}},{"base_weights":[-1.8308444E-4,5.7293797E-1,-7.418903E-1,-4.844864E-1,9.833945E-1,-1.0227611E0,3.9772934E-1,1.4199871E-2,-2.387799E-2,3.0778313E-2,1.6289292E-2,-3.0060662E-2,-1.575922E-2,1.706323E-2,-1.0832873E-2],"categories":[],"categories_nodes":[],"categories_segments":[],"categories_sizes":[],"default_left":[0,0,0,0,0,0,0,0,0,0,0,0,0,0,0],"id":35,"left_children":[1,3,5,7,9,11,13,-1,-1,-1,-1,-1,-1,-1,-1],"loss_changes":[6.293156E3,3.624945E3,2.0658748E3,1.0836161E3,4.536914E2,3.154756E2,2.804434E2,0E0,0E0,0E0,0E0,0E0,0E0,0E0,0E0],"parents":[2147483647,0,0,1,1,2,2,3,3,4,4,5,5,6,6],"right_children":[2,4,6,8,10,12,14,-1,-1,-1,-1,-1,-1,-1,-1],"split_conditions":[6.455696E-1,6E-1,6.851852E-1,5.6790125E-1,5.97561E-1,6.3492066E-1,7.234042E-1,1.4199871E-2,-2.387799E-2,3.0778313E-2,1.6289292E-2,-3.0060662E-2,-1.575922E-2,1.706323E-2,-1.0832873E-2],"split_indices":[94,89,89,94,94,89,94,0,0,0,0,0,0,0,0],"split_type":[0,0,0,0,0,0,0,0,0,0,0,0,0,0,0],"sum_hessian":[1.4803228E4,8.350603E3,6.452625E3,2.3349143E3,6.015688E3,5.1769053E3,1.2757198E3,7.022866E2,1.6326277E3,3.705016E3,2.310672E3,3.78744E3,1.3894652E3,9.6198737E2,3.137325E2],"tree_param":{"num_deleted":"0","num_feature":"98","num_nodes":"15","size_leaf_vector":"1"}},{"base_weights":[-3.007229E-3,6.250911E-1,-4.6308926E-1,-4.0907466E-1,9.164081E-1,-9.3507826E-1,1.7970373E-1,1.0379214E-2,-2.2170866E-2,2.8919589E-2,1.1625428E-2,-1.0505551E-2,-2.8797917E-2,1.8087216E-2,-8.384475E-3],"categories":[],"categories_nodes":[],"categories_segments":[],"categories_sizes":[],"default_left":[0,0,0,0,0,0,0,0,0,0,0,0,0,0,0],"id":36,"left_children":[1,3,5,7,9,11,13,-1,-1,-1,-1,-1,-1,-1,-1],"loss_changes":[4.2450654E3,1.8714089E3,2.5727275E3,5.0647256E2,4.739419E2,4.8252734E2,9.565215E2,0E0,0E0,0E0,0E0,0E0,0E0,0E0,0E0],"parents":[2147483647,0,0,1,1,2,2,3,3,4,4,5,5,6,6],"right_children":[2,4,6,8,10,12,14,-1,-1,-1,-1,-1,-1,-1,-1],"split_conditions":[7.0149255E-1,6.486486E-1,7.358491E-1,4.6153846E-1,5.263158E-1,4.7368422E-1,5.217391E-1,1.0379214E-2,-2.2170866E-2,2.8919589E-2,1.1625428E-2,-1.0505551E-2,-2.8797917E-2,1.8087216E-2,-8.384475E-3],"split_indices":[92,87,87,93,93,93,93,0,0,0,0,0,0,0,0],"split_type":[0,0,0,0,0,0,0,0,0,0,0,0,0,0,0],"sum_hessian":[1.4688993E4,6.2102847E3,8.478708E3,1.3647518E3,4.8455327E3,4.8888843E3,3.589824E3,4.8969415E2,8.750577E2,3.3257283E3,1.5198047E3,1.2892031E3,3.5996812E3,1.7619221E3,1.827902E3],"tree_param":{"num_deleted":"0","num_feature":"98","num_nodes":"15","size_leaf_vector":"1"}},{"base_weights":[8.3970145E-4,7.911227E-1,-5.0139195E-1,1.0575556E0,2.9419096E-2,2.9369166E-1,-8.61398E-1,3.1191332E-2,1.9857462E-2,2.1434095E-2,-1.2141192E-2,1.7203355E-2,-1.0470021E-2,-1.34623E-2,-2.9347625E-2],"categories":[],"categories_nodes":[],"categories_segments":[],"categories_sizes":[],"default_left":[0,0,0,0,0,0,0,0,0,0,0,0,0,0,0],"id":37,"left_children":[1,3,5,7,9,11,13,-1,-1,-1,-1,-1,-1,-1,-1],"loss_changes":[5.792312E3,1.1506628E3,2.5542507E3,1.8819727E2,5.965921E2,7.3672656E2,5.844341E2,0E0,0E0,0E0,0E0,0E0,0E0,0E0,0E0],"parents":[2147483647,0,0,1,1,2,2,3,3,4,4,5,5,6,6],"right_children":[2,4,6,8,10,12,14,-1,-1,-1,-1,-1,-1,-1,-1],"split_conditions":[6.103896E-1,1.04477614E-1,6.122449E-2,5.764706E-1,5.522388E-1,6.923077E-1,6.707317E-1,3.1191332E-2,1.9857462E-2,2.1434095E-2,-1.2141192E-2,1.7203355E-2,-1.0470021E-2,-1.34623E-2,-2.9347625E-2],"split_indices":[94,95,95,94,94,94,94,0,0,0,0,0,0,0,0],"split_type":[0,0,0,0,0,0,0,0,0,0,0,0,0,0,0],"sum_hessian":[1.4592515E4,5.6701953E3,8.922319E3,4.2005186E3,1.469677E3,2.7807205E3,6.141599E3,2.6890886E3,1.5114298E3,5.6444354E2,9.052334E2,1.8089197E3,9.718008E2,2.8078948E3,3.333704E3],"tree_param":{"num_deleted":"0","num_feature":"98","num_nodes":"15","size_leaf_vector":"1"}},{"base_weights":[-1.2953603E-3,-6.0548794E-1,6.595951E-1,6.409223E-1,-9.4350076E-1,1.0464708E0,-2.6275057E-1,-2.3547722E-2,2.4781806E-2,-3.0527145E-2,-1.54804075E-2,3.0384336E-2,1.8773085E-2,-1.6145544E-2,1.6261006E-2],"categories":[],"categories_nodes":[],"categories_segments":[],"categories_sizes":[],"default_left":[0,0,0,0,0,0,0,0,0,0,0,0,0,0,0],"id":38,"left_children":[1,3,5,7,9,11,13,-1,-1,-1,-1,-1,-1,-1,-1],"loss_changes":[5.7742246E3,3.1831038E3,2.4646184E3,8.18722E2,4.9821875E2,2.1108887E2,6.7193634E2,0E0,0E0,0E0,0E0,0E0,0E0,0E0,0E0],"parents":[2147483647,0,0,1,1,2,2,3,3,4,4,5,5,6,6],"right_children":[2,4,6,8,10,12,14,-1,-1,-1,-1,-1,-1,-1,-1],"split_conditions":[6.376812E-1,5.833333E-1,6.615385E-1,5.3968257E-1,5.888889E-1,6.181818E-1,7.125E-1,-2.3547722E-2,2.4781806E-2,-3.0527145E-2,-1.54804075E-2,3.0384336E-2,1.8773085E-2,-1.6145544E-2,1.6261006E-2],"split_indices":[89,94,94,89,89,94,89,0,0,0,0,0,0,0,0],"split_type":[0,0,0,0,0,0,0,0,0,0,0,0,0,0,0],"sum_hessian":[1.4459627E4,7.5539727E3,6.905655E3,1.611333E3,5.9426396E3,4.8650884E3,2.0405668E3,2.7807217E2,1.3332607E3,3.439818E3,2.5028213E3,3.3756904E3,1.4893977E3,1.4483762E3,5.921905E2],"tree_param":{"num_deleted":"0","num_feature":"98","num_nodes":"15","size_leaf_vector":"1"}},{"base_weights":[-2.7141036E-4,-6.233907E-1,4.2565033E-1,-4.825182E-2,-1.0029562E0,8.3387613E-1,-1.3512668E-1,-1.8249294E-2,9.8321345E-3,-2.8866261E-2,-1.5021845E-2,7.842549E-3,2.5606234E-2,-1.733717E-2,8.266583E-3],"categories":[],"categories_nodes":[],"categories_segments":[],"categories_sizes":[],"default_left":[0,0,0,0,0,0,0,0,0,0,0,0,0,0,0],"id":39,"left_children":[1,3,5,7,9,11,13,-1,-1,-1,-1,-1,-1,-1,-1],"loss_changes":[3.8065962E3,1.2710986E3,1.9504318E3,6.63526E2,1.7910693E2,4.285725E2,8.886264E2,0E0,0E0,0E0,0E0,0E0,0E0,0E0,0E0],"parents":[2147483647,0,0,1,1,2,2,3,3,4,4,5,5,6,6],"right_children":[2,4,6,8,10,12,14,-1,-1,-1,-1,-1,-1,-1,-1],"split_conditions":[6.976744E-1,5E-1,5.263158E-1,4.6875E-1,5.4901963E-1,4.6666667E-1,5.084746E-1,-1.8249294E-2,9.8321345E-3,-2.8866261E-2,-1.5021845E-2,7.842549E-3,2.5606234E-2,-1.733717E-2,8.266583E-3],"split_indices":[87,93,93,88,88,88,88,0,0,0,0,0,0,0,0],"split_type":[0,0,0,0,0,0,0,0,0,0,0,0,0,0,0],"sum_hessian":[1.434168E4,5.8229087E3,8.5187705E3,2.3154275E3,3.5074814E3,4.929942E3,3.588829E3,9.12708E2,1.4027194E3,2.7086758E3,7.9880566E2,1.173008E3,3.7569336E3,1.644395E3,1.9444342E3],"tree_param":{"num_deleted":"0","num_feature":"98","num_nodes":"15","size_leaf_vector":"1"}},{"base_weights":[-2.9915404E-3,5.310635E-1,-7.0550287E-1,-5.128287E-1,9.1821223E-1,-9.75017E-1,3.5733998E-1,1.1893433E-2,-2.3884142E-2,2.9947236E-2,1.5182416E-2,-3.00772E-2,-1.6888589E-2,-1.0013336E-2,1.6065933E-2],"categories":[],"categories_nodes":[],"categories_segments":[],"categories_sizes":[],"default_left":[0,0,0,0,0,0,0,0,0,0,0,0,0,0,0],"id":40,"left_children":[1,3,5,7,9,11,13,-1,-1,-1,-1,-1,-1,-1,-1],"loss_changes":[5.331337E3,3.2628674E3,1.7582886E3,8.933754E2,4.7894824E2,3.059839E2,2.5017944E2,0E0,0E0,0E0,0E0,0E0,0E0,0E0,0E0],"parents":[2147483647,0,0,1,1,2,2,3,3,4,4,5,5,6,6],"right_children":[2,4,6,8,10,12,14,-1,-1,-1,-1,-1,-1,-1,-1],"split_conditions":[6.4634144E-1,5.9615386E-1,6.851852E-1,5.6790125E-1,5.9322035E-1,6.1904764E-1,3.0303031E-2,1.1893433E-2,-2.3884142E-2,2.9947236E-2,1.5182416E-2,-3.00772E-2,-1.6888589E-2,-1.0013336E-2,1.6065933E-2],"split_indices":[94,89,89,94,94,89,97,0,0,0,0,0,0,0,0],"split_type":[0,0,0,0,0,0,0,0,0,0,0,0,0,0,0],"sum_hessian":[1.4208946E4,8.0722676E3,6.1366787E3,2.1836953E3,5.8885723E3,4.895471E3,1.2412075E3,6.550656E2,1.5286296E3,3.3338386E3,2.5547336E3,3.0099631E3,1.885508E3,3.2834656E2,9.128609E2],"tree_param":{"num_deleted":"0","num_feature":"98","num_nodes":"15","size_leaf_vector":"1"}},{"base_weights":[-2.4952125E-3,-4.5920905E-1,5.545632E-1,-8.695037E-1,1.8228596E-1,-1.3818271E-1,8.874013E-1,-2.8286867E-2,-1.3212902E-2,-9.453734E-3,1.7473692E-2,-2.092636E-2,6.0278517E-3,1.1733186E-2,2.7906915E-2],"categories":[],"categories_nodes":[],"categories_segments":[],"categories_sizes":[],"default_left":[0,0,0,0,0,0,0,0,0,0,0,0,0,0,0],"id":41,"left_children":[1,3,5,7,9,11,13,-1,-1,-1,-1,-1,-1,-1,-1],"loss_changes":[3.5823276E3,2.0366598E3,1.4627653E3,3.900681E2,8.303989E2,5.212059E2,3.6961133E2,0E0,0E0,0E0,0E0,0E0,0E0,0E0,0E0],"parents":[2147483647,0,0,1,1,2,2,3,3,4,4,5,5,6,6],"right_children":[2,4,6,8,10,12,14,-1,-1,-1,-1,-1,-1,-1,-1],"split_conditions":[7.3333335E-1,9.195402E-2,6.097561E-2,5.084746E-1,5E-1,4.888889E-1,5E-1,-2.8286867E-2,-1.3212902E-2,-9.453734E-3,1.7473692E-2,-2.092636E-2,6.0278517E-3,1.1733186E-2,2.7906915E-2],"split_indices":[87,97,97,88,88,88,88,0,0,0,0,0,0,0,0],"split_type":[0,0,0,0,0,0,0,0,0,0,0,0,0,0,0],"sum_hessian":[1.4079552E4,7.7367764E3,6.342776E3,4.718742E3,3.0180342E3,2.058416E3,4.28436E3,2.8421934E3,1.8765487E3,1.434518E3,1.5835162E3,7.308225E2,1.3275935E3,1.3657393E3,2.9186204E3],"tree_param":{"num_deleted":"0","num_feature":"98","num_nodes":"15","size_leaf_vector":"1"}},{"base_weights":[-3.1898984E-5,-7.53625E-1,4.6967342E-1,4.3027335E-1,-9.469374E-1,9.4371825E-1,-1.4183068E-1,-2.4748007E-2,1.9689556E-2,-7.3793745E-3,-2.7208757E-2,2.941848E-2,1.5826488E-2,1.5656896E-2,-1.2769479E-2],"categories":[],"categories_nodes":[],"categories_segments":[],"categories_sizes":[],"default_left":[0,0,0,0,0,0,0,0,0,0,0,0,0,0,0],"id":42,"left_children":[1,3,5,7,9,11,13,-1,-1,-1,-1,-1,-1,-1,-1],"loss_changes":[4.9481772E3,1.228739E3,2.4964863E3,3.5544513E2,3.4696924E2,3.218252E2,1.0080566E3,0E0,0E0,0E0,0E0,0E0,0E0,0E0,0E0],"parents":[2147483647,0,0,1,1,2,2,3,3,4,4,5,5,6,6],"right_children":[2,4,6,8,10,12,14,-1,-1,-1,-1,-1,-1,-1,-1],"split_conditions":[6.103896E-1,6.25E-1,7.3170733E-1,5.263158E-1,4.2857143E-1,5.0877196E-1,4.827586E-1,-2.4748007E-2,1.9689556E-2,-7.3793745E-3,-2.7208757E-2,2.941848E-2,1.5826488E-2,1.5656896E-2,-1.2769479E-2],"split_indices":[89,92,92,89,93,93,93,0,0,0,0,0,0,0,0],"split_type":[0,0,0,0,0,0,0,0,0,0,0,0,0,0,0],"sum_hessian":[1.3978028E4,5.3670835E3,8.610944E3,7.53155E2,4.613928E3,4.8506265E3,3.7603179E3,1.46443E2,6.0671204E2,6.817635E2,3.932165E3,2.9865356E3,1.8640908E3,1.2078528E3,2.552465E3],"tree_param":{"num_deleted":"0","num_feature":"98","num_nodes":"15","size_leaf_vector":"1"}},{"base_weights":[-2.0344532E-3,-5.66074E-1,6.11235E-1,-8.596282E-1,2.0396896E-1,-1.6174506E-1,9.156921E-1,-2.923506E-2,-1.454255E-2,-2.2365E-2,1.4835254E-2,-1.3010178E-2,1.5657572E-2,1.6010223E-2,2.8537944E-2],"categories":[],"categories_nodes":[],"categories_segments":[],"categories_sizes":[],"default_left":[0,0,0,0,0,0,0,0,0,0,0,0,0,0,0],"id":43,"left_children":[1,3,5,7,9,11,13,-1,-1,-1,-1,-1,-1,-1,-1],"loss_changes":[4.790197E3,1.6308516E3,1.5615317E3,4.27938E2,8.030068E2,5.0073697E2,2.7291284E2,0E0,0E0,0E0,0E0,0E0,0E0,0E0,0E0],"parents":[2147483647,0,0,1,1,2,2,3,3,4,4,5,5,6,6],"right_children":[2,4,6,8,10,12,14,-1,-1,-1,-1,-1,-1,-1,-1],"split_conditions":[6.376812E-1,1.0465116E-1,5.699482E-2,5.8181816E-1,5.5E-1,7.1428573E-1,9.2307694E-2,-2.923506E-2,-1.454255E-2,-2.2365E-2,1.4835254E-2,-1.3010178E-2,1.5657572E-2,1.6010223E-2,2.8537944E-2],"split_indices":[89,97,97,89,89,89,97,0,0,0,0,0,0,0,0],"split_type":[0,0,0,0,0,0,0,0,0,0,0,0,0,0,0],"sum_hessian":[1.3847114E4,7.213213E3,6.633901E3,5.2224463E3,1.9907665E3,1.8745146E3,4.759386E3,2.664631E3,2.5578152E3,5.137389E2,1.4770276E3,1.2952518E3,5.792628E2,1.9229221E3,2.836464E3],"tree_param":{"num_deleted":"0","num_feature":"98","num_nodes":"15","size_leaf_vector":"1"}},{"base_weights":[5.413677E-4,-5.5495185E-1,6.0763687E-1,2.1325208E-1,-9.03135E-1,9.5096374E-1,-1.3217251E-1,-2.0193191E-2,1.519252E-2,-2.972809E-2,-1.632161E-2,2.8760875E-2,1.6995497E-2,-1.1660503E-2,1.7202869E-2],"categories":[],"categories_nodes":[],"categories_segments":[],"categories_sizes":[],"default_left":[0,0,0,0,0,0,0,0,0,0,0,0,0,0,0],"id":44,"left_children":[1,3,5,7,9,11,13,-1,-1,-1,-1,-1,-1,-1,-1],"loss_changes":[4.6395356E3,1.9217263E3,1.6698391E3,8.5072687E2,3.370703E2,2.201936E2,5.4000574E2,0E0,0E0,0E0,0E0,0E0,0E0,0E0,0E0],"parents":[2147483647,0,0,1,1,2,2,3,3,4,4,5,5,6,6],"right_children":[2,4,6,8,10,12,14,-1,-1,-1,-1,-1,-1,-1,-1],"split_conditions":[6.376812E-1,6.792453E-1,7.6119405E-1,5.555556E-1,5.8181816E-1,6.9736844E-1,7.169811E-1,-2.0193191E-2,1.519252E-2,-2.972809E-2,-1.632161E-2,2.8760875E-2,1.6995497E-2,-1.1660503E-2,1.7202869E-2],"split_indices":[89,92,92,89,89,92,89,0,0,0,0,0,0,0,0],"split_type":[0,0,0,0,0,0,0,0,0,0,0,0,0,0,0],"sum_hessian":[1.3756377E4,7.1833823E3,6.572994E3,2.2403179E3,4.9430645E3,4.4895483E3,2.083446E3,6.1540564E2,1.6249124E3,2.5192761E3,2.423788E3,2.8180757E3,1.6714725E3,1.486683E3,5.96763E2],"tree_param":{"num_deleted":"0","num_feature":"98","num_nodes":"15","size_leaf_vector":"1"}},{"base_weights":[-2.7116619E-3,-4.3787938E-1,5.2295536E-1,1.3267758E-1,-8.43432E-1,9.02036E-1,3.984217E-2,-1.15587665E-2,1.3109099E-2,-2.5576232E-2,-9.564118E-3,1.4118244E-2,2.7155815E-2,-1.3037143E-2,1.1705102E-2],"categories":[],"categories_nodes":[],"categories_segments":[],"categories_sizes":[],"default_left":[0,0,0,0,0,0,0,0,0,0,0,0,0,0,0],"id":45,"left_children":[1,3,5,7,9,11,13,-1,-1,-1,-1,-1,-1,-1,-1],"loss_changes":[3.1219958E3,1.727922E3,1.1318414E3,6.854511E2,3.1587793E2,1.9057422E2,6.211103E2,0E0,0E0,0E0,0E0,0E0,0E0,0E0,0E0],"parents":[2147483647,0,0,1,1,2,2,3,3,4,4,5,5,6,6],"right_children":[2,4,6,8,10,12,14,-1,-1,-1,-1,-1,-1,-1,-1],"split_conditions":[7.3333335E-1,5E-1,5.217391E-1,4.742268E-1,5.5263156E-1,5E-1,5.1111114E-1,-1.15587665E-2,1.3109099E-2,-2.5576232E-2,-9.564118E-3,1.4118244E-2,2.7155815E-2,-1.3037143E-2,1.1705102E-2],"split_indices":[87,93,93,88,88,88,88,0,0,0,0,0,0,0,0],"split_type":[0,0,0,0,0,0,0,0,0,0,0,0,0,0,0],"sum_hessian":[1.3646848E4,7.4663086E3,6.1805396E3,3.1020947E3,4.364214E3,3.4627153E3,2.7178242E3,1.2205186E3,1.8815763E3,3.2870603E3,1.0771533E3,1.0704282E3,2.392287E3,1.1733344E3,1.5444899E3],"tree_param":{"num_deleted":"0","num_feature":"98","num_nodes":"15","size_leaf_vector":"1"}},{"base_weights":[-1.2175535E-3,5.073322E-1,-6.6879874E-1,-3.6397973E-1,7.976294E-1,-9.690808E-1,6.3443884E-2,1.6477952E-2,-1.94906E-2,2.9358687E-2,1.2839292E-2,-1.8602E-2,-2.9613145E-2,-1.4348767E-2,1.2526732E-2],"categories":[],"categories_nodes":[],"categories_segments":[],"categories_sizes":[],"default_left":[0,0,0,0,0,0,0,0,0,0,0,0,0,0,0],"id":46,"left_children":[1,3,5,7,9,11,13,-1,-1,-1,-1,-1,-1,-1,-1],"loss_changes":[4.6011377E3,1.945953E3,1.288699E3,7.669732E2,5.945415E2,1.8741528E2,4.5161206E2,0E0,0E0,0E0,0E0,0E0,0E0,0E0,0E0],"parents":[2147483647,0,0,1,1,2,2,3,3,4,4,5,5,6,6],"right_children":[2,4,6,8,10,12,14,-1,-1,-1,-1,-1,-1,-1,-1],"split_conditions":[6.4634144E-1,6.6071427E-1,7.6785713E-1,5.584416E-1,5.816327E-1,6.9014084E-1,5.1111114E-1,1.6477952E-2,-1.94906E-2,2.9358687E-2,1.2839292E-2,-1.8602E-2,-2.9613145E-2,-1.4348767E-2,1.2526732E-2],"split_indices":[94,87,87,94,94,94,88,0,0,0,0,0,0,0,0],"split_type":[0,0,0,0,0,0,0,0,0,0,0,0,0,0,0],"sum_hessian":[1.3551614E4,7.6919546E3,5.8596597E3,1.9221354E3,5.769819E3,4.155551E3,1.704109E3,5.426229E2,1.3795125E3,2.6580962E3,3.111723E3,1.7996237E3,2.355927E3,6.909331E2,1.01317596E3],"tree_param":{"num_deleted":"0","num_feature":"98","num_nodes":"15","size_leaf_vector":"1"}},{"base_weights":[3.4190482E-3,8.293107E-1,-3.928103E-1,-8.7918365E-1,9.9343854E-1,-8.732264E-1,3.021846E-1,3.3639465E-2,-2.7711352E-2,1.4362679E-2,2.8511176E-2,-2.841622E-2,-1.3713231E-2,1.8243447E-2,-7.38852E-3],"categories":[],"categories_nodes":[],"categories_segments":[],"categories_sizes":[],"default_left":[0,0,0,0,0,0,0,0,0,0,0,0,0,0,0],"id":47,"left_children":[1,3,5,7,9,11,13,-1,-1,-1,-1,-1,-1,-1,-1],"loss_changes":[4.390201E3,1.2201726E3,3.027214E3,1.6917581E2,2.0317798E2,4.2576294E2,8.95563E2,0E0,0E0,0E0,0E0,0E0,0E0,0E0,0E0],"parents":[2147483647,0,0,1,1,2,2,3,3,4,4,5,5,6,6],"right_children":[2,4,6,8,10,12,14,-1,-1,-1,-1,-1,-1,-1,-1],"split_conditions":[5.97561E-1,5.423729E-1,6.451613E-1,5E-1,6.0273975E-1,5.970149E-1,6.7368424E-1,3.3639465E-2,-2.7711352E-2,1.4362679E-2,2.8511176E-2,-2.841622E-2,-1.3713231E-2,1.8243447E-2,-7.38852E-3],"split_indices":[94,89,89,94,89,89,94,0,0,0,0,0,0,0,0],"split_type":[0,0,0,0,0,0,0,0,0,0,0,0,0,0,0],"sum_hessian":[1.3414478E4,4.3490947E3,9.065383E3,3.8089874E2,3.9681958E3,5.3602036E3,3.7051792E3,3.1775782E1,3.4912296E2,8.5301044E2,3.1151855E3,3.1625266E3,2.197677E3,2.188168E3,1.5170112E3],"tree_param":{"num_deleted":"0","num_feature":"98","num_nodes":"15","size_leaf_vector":"1"}},{"base_weights":[2.885523E-3,5.50857E-1,-4.322717E-1,-3.5626763E-1,8.164405E-1,-8.415937E-1,1.6952096E-1,9.423004E-3,-2.0432897E-2,2.6914444E-2,1.1751227E-2,-9.214904E-3,-2.6260803E-2,1.3237201E-2,-1.1314097E-2],"categories":[],"categories_nodes":[],"categories_segments":[],"categories_sizes":[],"default_left":[0,0,0,0,0,0,0,0,0,0,0,0,0,0,0],"id":48,"left_children":[1,3,5,7,9,11,13,-1,-1,-1,-1,-1,-1,-1,-1],"loss_changes":[3.1740347E3,1.4196709E3,1.8276683E3,4.258081E2,3.8021143E2,3.8835815E2,6.3621313E2,0E0,0E0,0E0,0E0,0E0,0E0,0E0,0E0],"parents":[2147483647,0,0,1,1,2,2,3,3,4,4,5,5,6,6],"right_children":[2,4,6,8,10,12,14,-1,-1,-1,-1,-1,-1,-1,-1],"split_conditions":[7.0731705E-1,6.486486E-1,7.4418604E-1,4.6341464E-1,5.0877196E-1,4.7368422E-1,5.609756E-1,9.423004E-3,-2.0432897E-2,2.6914444E-2,1.1751227E-2,-9.214904E-3,-2.6260803E-2,1.3237201E-2,-1.1314097E-2],"split_indices":[92,87,87,93,93,93,93,0,0,0,0,0,0,0,0],"split_type":[0,0,0,0,0,0,0,0,0,0,0,0,0,0,0],"sum_hessian":[1.3309756E4,5.8913115E3,7.4184443E3,1.3340432E3,4.557268E3,4.415305E3,3.0031392E3,5.0472397E2,8.293193E2,2.7591736E3,1.7980947E3,1.213207E3,3.202098E3,1.915852E3,1.0872872E3],"tree_param":{"num_deleted":"0","num_feature":"98","num_nodes":"15","size_leaf_vector":"1"}},{"base_weights":[6.3064613E-4,7.4718267E-1,-4.184403E-1,-6.9278246E-1,9.4186294E-1,-8.7014806E-1,2.8347158E-1,2.1534946E-2,-2.4352666E-2,2.8916037E-2,1.5489253E-2,-2.8804047E-2,-1.4800903E-2,1.6804464E-2,-8.792153E-3],"categories":[],"categories_nodes":[],"categories_segments":[],"categories_sizes":[],"default_left":[0,0,0,0,0,0,0,0,0,0,0,0,0,0,0],"id":49,"left_children":[1,3,5,7,9,11,13,-1,-1,-1,-1,-1,-1,-1,-1],"loss_changes":[4.1372734E3,1.333221E3,2.685546E3,2.2353293E2,2.6233423E2,3.8162012E2,7.7272974E2,0E0,0E0,0E0,0E0,0E0,0E0,0E0,0E0],"parents":[2147483647,0,0,1,1,2,2,3,3,4,4,5,5,6,6],"right_children":[2,4,6,8,10,12,14,-1,-1,-1,-1,-1,-1,-1,-1],"split_conditions":[6.056338E-1,5.555556E-1,6.4835167E-1,5.185185E-1,5.744681E-1,5.925926E-1,6.8421054E-1,2.1534946E-2,-2.4352666E-2,2.8916037E-2,1.5489253E-2,-2.8804047E-2,-1.4800903E-2,1.6804464E-2,-8.792153E-3],"split_indices":[94,89,89,94,94,89,94,0,0,0,0,0,0,0,0],"split_type":[0,0,0,0,0,0,0,0,0,0,0,0,0,0,0],"sum_hessian":[1.3222889E4,4.7539346E3,8.468954E3,5.659246E2,4.18801E3,5.1529224E3,3.3160317E3,8.1003525E1,4.8492108E2,2.7005186E3,1.4874913E3,2.762784E3,2.3901384E3,2.0807903E3,1.2352415E3],"tree_param":{"num_deleted":"0","num_feature":"98","num_nodes":"15","size_leaf_vector":"1"}},{"base_weights":[2.2922846E-4,4.8484743E-1,-6.3758844E-1,-4.1152555E-1,8.515888E-1,-8.7975377E-1,3.850306E-1,1.3707296E-2,-2.0218575E-2,2.8310888E-2,1.403108E-2,-2.7223112E-2,-1.2734852E-2,1.6135417E-2,-9.900767E-3],"categories":[],"categories_nodes":[],"categories_segments":[],"categories_sizes":[],"default_left":[0,0,0,0,0,0,0,0,0,0,0,0,0,0,0],"id":50,"left_children":[1,3,5,7,9,11,13,-1,-1,-1,-1,-1,-1,-1,-1],"loss_changes":[4.0457961E3,2.445377E3,1.3997249E3,7.706134E2,4.0517456E2,3.1798022E2,2.0401222E2,0E0,0E0,0E0,0E0,0E0,0E0,0E0,0E0],"parents":[2147483647,0,0,1,1,2,2,3,3,4,4,5,5,6,6],"right_children":[2,4,6,8,10,12,14,-1,-1,-1,-1,-1,-1,-1,-1],"split_conditions":[6.4634144E-1,6E-1,6.9135803E-1,5.632184E-1,5.9322035E-1,6.3492066E-1,1.5E-1,1.3707296E-2,-2.0218575E-2,2.8310888E-2,1.403108E-2,-2.7223112E-2,-1.2734852E-2,1.6135417E-2,-9.900767E-3],"split_indices":[94,89,89,94,94,89,96,0,0,0,0,0,0,0,0],"split_type":[0,0,0,0,0,0,0,0,0,0,0,0,0,0,0],"sum_hessian":[1.3088032E4,7.4373994E3,5.650633E3,2.1592935E3,5.278106E3,4.5688936E3,1.0817395E3,6.1507635E2,1.544217E3,2.8837756E3,2.3943303E3,3.0968599E3,1.4720334E3,8.217549E2,2.599846E2],"tree_param":{"num_deleted":"0","num_feature":"98","num_nodes":"15","size_leaf_vector":"1"}},{"base_weights":[-1.1608535E-3,4.5532224E-1,-6.4394933E-1,-4.261654E-1,8.1880265E-1,-9.081248E-1,3.011489E-1,1.1111028E-2,-2.0417724E-2,2.7991388E-2,1.3199753E-2,-2.5511028E-2,-3.0150556E-3,1.4107498E-2,-1.0236343E-2],"categories":[],"categories_nodes":[],"categories_segments":[],"categories_sizes":[],"default_left":[0,0,0,0,0,0,0,0,0,0,0,0,0,0,0],"id":51,"left_children":[1,3,5,7,9,11,13,-1,-1,-1,-1,-1,-1,-1,-1],"loss_changes":[3.7982698E3,2.4254175E3,1.3423484E3,7.0330176E2,4.4404736E2,2.8805542E2,2.0501064E2,0E0,0E0,0E0,0E0,0E0,0E0,0E0,0E0],"parents":[2147483647,0,0,1,1,2,2,3,3,4,4,5,5,6,6],"right_children":[2,4,6,8,10,12,14,-1,-1,-1,-1,-1,-1,-1,-1],"split_conditions":[6.5E-1,6E-1,6.851852E-1,5.6790125E-1,5.9322035E-1,1.5E-1,8.333333E-1,1.1111028E-2,-2.0417724E-2,2.7991388E-2,1.3199753E-2,-2.5511028E-2,-3.0150556E-3,1.4107498E-2,-1.0236343E-2],"split_indices":[94,89,89,94,94,90,92,0,0,0,0,0,0,0,0],"split_type":[0,0,0,0,0,0,0,0,0,0,0,0,0,0,0],"sum_hessian":[1.29435625E4,7.5685854E3,5.3749775E3,2.209579E3,5.3590063E3,4.200906E3,1.1740718E3,6.6494806E2,1.5446311E3,2.823299E3,2.535707E3,3.785025E3,4.1588104E2,8.663364E2,3.0773532E2],"tree_param":{"num_deleted":"0","num_feature":"98","num_nodes":"15","size_leaf_vector":"1"}},{"base_weights":[-9.0604014E-4,5.173895E-1,-4.069783E-1,-1.5331441E-1,8.54011E-1,-7.522258E-1,2.4360235E-1,1.2839302E-2,-1.5041E-2,9.478432E-3,2.6362246E-2,-7.8346515E-3,-2.5433065E-2,-1.1256982E-2,1.4243686E-2],"categories":[],"categories_nodes":[],"categories_segments":[],"categories_sizes":[],"default_left":[0,0,0,0,0,0,0,0,0,0,0,0,0,0,0],"id":52,"left_children":[1,3,5,7,9,11,13,-1,-1,-1,-1,-1,-1,-1,-1],"loss_changes":[2.6964778E3,1.2708558E3,1.613758E3,5.3323694E2,3.15625E2,5.020852E2,5.3046985E2,0E0,0E0,0E0,0E0,0E0,0E0,0E0,0E0],"parents":[2147483647,0,0,1,1,2,2,3,3,4,4,5,5,6,6],"right_children":[2,4,6,8,10,12,14,-1,-1,-1,-1,-1,-1,-1,-1],"split_conditions":[7.0731705E-1,6.792453E-1,7.592593E-1,4.6875E-1,4.6666667E-1,5E-1,4.878049E-1,1.2839302E-2,-1.5041E-2,9.478432E-3,2.6362246E-2,-7.8346515E-3,-2.5433065E-2,-1.1256982E-2,1.4243686E-2],"split_indices":[92,87,87,93,88,93,88,0,0,0,0,0,0,0,0],"split_type":[0,0,0,0,0,0,0,0,0,0,0,0,0,0,0],"sum_hessian":[1.2810974E4,5.6276064E3,7.183367E3,1.880553E3,3.7470535E3,4.693027E3,2.4903403E3,7.492026E2,1.1313505E3,9.9142584E2,2.7556274E3,1.639344E3,3.053683E3,7.807961E2,1.7095443E3],"tree_param":{"num_deleted":"0","num_feature":"98","num_nodes":"15","size_leaf_vector":"1"}},{"base_weights":[3.0784244E-3,-5.0462884E-1,5.515636E-1,1.5017647E-1,-8.4492403E-1,8.549874E-1,-1.9246231E-1,-2.260446E-2,1.1599125E-2,-2.8965168E-2,-1.53992465E-2,2.764851E-2,1.5434322E-2,-1.3498321E-2,1.3308082E-2],"categories":[],"categories_nodes":[],"categories_segments":[],"categories_sizes":[],"default_left":[0,0,0,0,0,0,0,0,0,0,0,0,0,0,0],"id":53,"left_children":[1,3,5,7,9,11,13,-1,-1,-1,-1,-1,-1,-1,-1],"loss_changes":[3.53722E3,1.4699868E3,1.3786632E3,7.035284E2,3.0137476E2,2.4450317E2,4.2050024E2,0E0,0E0,0E0,0E0,0E0,0E0,0E0,0E0],"parents":[2147483647,0,0,1,1,2,2,3,3,4,4,5,5,6,6],"right_children":[2,4,6,8,10,12,14,-1,-1,-1,-1,-1,-1,-1,-1],"split_conditions":[6.376812E-1,6.847826E-1,7.719298E-1,5.4545456E-1,5.769231E-1,6.891892E-1,7.1153843E-1,-2.260446E-2,1.1599125E-2,-2.8965168E-2,-1.53992465E-2,2.764851E-2,1.5434322E-2,-1.3498321E-2,1.3308082E-2],"split_indices":[89,92,92,89,89,92,89,0,0,0,0,0,0,0,0],"split_type":[0,0,0,0,0,0,0,0,0,0,0,0,0,0,0],"sum_hessian":[1.270124E4,6.5956943E3,6.105546E3,2.2554927E3,4.3402017E3,4.33698E3,1.7685663E3,5.1061322E2,1.7448795E3,2.0034479E3,2.3367537E3,2.3027512E3,2.0342285E3,1.2038281E3,5.647381E2],"tree_param":{"num_deleted":"0","num_feature":"98","num_nodes":"15","size_leaf_vector":"1"}},{"base_weights":[2.808607E-3,7.137929E-1,-3.908256E-1,-3.3632287E-1,8.949415E-1,-8.1192607E-1,1.5418124E-1,2.3979608E-2,-1.632157E-2,2.7934166E-2,1.4296317E-2,-2.698249E-2,-1.1964816E-2,-1.224923E-2,1.2369399E-2],"categories":[],"categories_nodes":[],"categories_segments":[],"categories_sizes":[],"default_left":[0,0,0,0,0,0,0,0,0,0,0,0,0,0,0],"id":54,"left_children":[1,3,5,7,9,11,13,-1,-1,-1,-1,-1,-1,-1,-1],"loss_changes":[3.5253674E3,8.5414966E2,1.860853E3,2.5248125E2,2.5066113E2,3.7916772E2,7.331087E2,0E0,0E0,0E0,0E0,0E0,0E0,0E0,0E0],"parents":[2147483647,0,0,1,1,2,2,3,3,4,4,5,5,6,6],"right_children":[2,4,6,8,10,12,14,-1,-1,-1,-1,-1,-1,-1,-1],"split_conditions":[6.056338E-1,6.25E-1,7.358491E-1,5.185185E-1,5.744681E-1,5.084746E-1,4.878049E-1,2.3979608E-2,-1.632157E-2,2.7934166E-2,1.4296317E-2,-2.698249E-2,-1.1964816E-2,-1.224923E-2,1.2369399E-2],"split_indices":[94,87,87,94,94,88,88,0,0,0,0,0,0,0,0],"split_type":[0,0,0,0,0,0,0,0,0,0,0,0,0,0,0],"sum_hessian":[1.2595309E4,4.4883506E3,8.1069575E3,6.601601E2,3.8281907E3,4.57335E3,3.5336074E3,1.25786804E2,5.343733E2,2.4273816E3,1.4008088E3,2.6954382E3,1.877912E3,1.2077466E3,2.3258608E3],"tree_param":{"num_deleted":"0","num_feature":"98","num_nodes":"15","size_leaf_vector":"1"}},{"base_weights":[-1.3229987E-3,4.433531E-1,-6.228256E-1,-5.008347E-1,7.5595623E-1,-8.126145E-1,5.708219E-1,1.9771699E-2,-1.931237E-2,2.7580444E-2,1.1943434E-2,-2.7591225E-2,-1.3122893E-2,2.1154953E-2,-3.560261E-3],"categories":[],"categories_nodes":[],"categories_segments":[],"categories_sizes":[],"default_left":[0,0,0,0,0,0,0,0,0,0,0,0,0,0,0],"id":55,"left_children":[1,3,5,7,9,11,13,-1,-1,-1,-1,-1,-1,-1,-1],"loss_changes":[3.4531484E3,2.1499604E3,1.1808684E3,5.81818E2,5.070857E2,3.558313E2,1.2917577E2,0E0,0E0,0E0,0E0,0E0,0E0,0E0,0E0],"parents":[2147483647,0,0,1,1,2,2,3,3,4,4,5,5,6,6],"right_children":[2,4,6,8,10,12,14,-1,-1,-1,-1,-1,-1,-1,-1],"split_conditions":[6.5E-1,5.888889E-1,7.1153843E-1,5.394737E-1,5.875E-1,6.2068963E-1,8.333333E-1,1.9771699E-2,-1.931237E-2,2.7580444E-2,1.1943434E-2,-2.7591225E-2,-1.3122893E-2,2.1154953E-2,-3.560261E-3],"split_indices":[94,89,89,94,94,89,92,0,0,0,0,0,0,0,0],"split_type":[0,0,0,0,0,0,0,0,0,0,0,0,0,0,0],"sum_hessian":[1.2493607E4,7.2827964E3,5.210811E3,1.8112643E3,5.471532E3,4.49621E3,7.146015E2,2.99575E2,1.5116893E3,2.6024949E3,2.8690374E3,2.396107E3,2.1001028E3,5.2621857E2,1.8838295E2],"tree_param":{"num_deleted":"0","num_feature":"98","num_nodes":"15","size_leaf_vector":"1"}},{"base_weights":[2.6739882E-3,-6.4680827E-1,3.91973E-1,3.8912E-1,-8.27694E-1,7.8679484E-1,-2.0522846E-1,-2.428732E-2,1.7415604E-2,-2.8465258E-2,-1.4585296E-2,1.3267694E-2,2.6730297E-2,-1.2020125E-2,1.51558705E-2],"categories":[],"categories_nodes":[],"categories_segments":[],"categories_sizes":[],"default_left":[0,0,0,0,0,0,0,0,0,0,0,0,0,0,0],"id":56,"left_children":[1,3,5,7,9,11,13,-1,-1,-1,-1,-1,-1,-1,-1],"loss_changes":[3.133947E3,8.706515E2,1.8275085E3,2.6807413E2,2.8858203E2,3.2080908E2,6.475092E2,0E0,0E0,0E0,0E0,0E0,0E0,0E0,0E0],"parents":[2147483647,0,0,1,1,2,2,3,3,4,4,5,5,6,6],"right_children":[2,4,6,8,10,12,14,-1,-1,-1,-1,-1,-1,-1,-1],"split_conditions":[6.103896E-1,6.25E-1,7.4545455E-1,5.2238804E-1,5.609756E-1,6.7164177E-1,7.1153843E-1,-2.428732E-2,1.7415604E-2,-2.8465258E-2,-1.4585296E-2,1.3267694E-2,2.6730297E-2,-1.2020125E-2,1.51558705E-2],"split_indices":[89,92,92,89,89,89,89,0,0,0,0,0,0,0,0],"split_type":[0,0,0,0,0,0,0,0,0,0,0,0,0,0,0],"sum_hessian":[1.2393911E4,4.6445347E3,7.7493765E3,6.902245E2,3.9543103E3,4.6651934E3,3.0841833E3,1.2280174E2,5.674227E2,1.8899756E3,2.0643347E3,2.2728586E3,2.3923347E3,2.3175474E3,7.666359E2],"tree_param":{"num_deleted":"0","num_feature":"98","num_nodes":"15","size_leaf_vector":"1"}},{"base_weights":[1.4369927E-3,7.544808E-1,-3.4574503E-1,-8.037682E-1,9.12987E-1,-8.1137425E-1,2.275778E-1,2.994161E-2,-2.5523022E-2,1.3660899E-2,2.7066642E-2,-2.8885052E-2,-1.46767795E-2,1.2387956E-2,-1.5481636E-2],"categories":[],"categories_nodes":[],"categories_segments":[],"categories_sizes":[],"default_left":[0,0,0,0,0,0,0,0,0,0,0,0,0,0,0],"id":57,"left_children":[1,3,5,7,9,11,13,-1,-1,-1,-1,-1,-1,-1,-1],"loss_changes":[3.2163367E3,9.592571E2,2.24793E3,1.3608128E2,1.9053809E2,3.4935352E2,8.018955E2,0E0,0E0,0E0,0E0,0E0,0E0,0E0,0E0],"parents":[2147483647,0,0,1,1,2,2,3,3,4,4,5,5,6,6],"right_children":[2,4,6,8,10,12,14,-1,-1,-1,-1,-1,-1,-1,-1],"split_conditions":[5.97561E-1,5.423729E-1,6.40625E-1,5E-1,6.103896E-1,5.744681E-1,7.0731705E-1,2.994161E-2,-2.5523022E-2,1.3660899E-2,2.7066642E-2,-2.8885052E-2,-1.46767795E-2,1.2387956E-2,-1.5481636E-2],"split_indices":[94,89,89,94,89,89,94,0,0,0,0,0,0,0,0],"split_type":[0,0,0,0,0,0,0,0,0,0,0,0,0,0,0],"sum_hessian":[1.23009375E4,3.8815566E3,8.419381E3,3.5809448E2,3.5234622E3,4.646065E3,3.7733164E3,3.1412947E1,3.2668152E2,9.6200244E2,2.5614597E3,2.0026953E3,2.6433696E3,2.886457E3,8.8685944E2],"tree_param":{"num_deleted":"0","num_feature":"98","num_nodes":"15","size_leaf_vector":"1"}},{"base_weights":[-1.67091E-3,-4.8268723E-1,5.128596E-1,1.7082492E-1,-7.965255E-1,8.133627E-1,-1.9588564E-1,-1.673783E-2,1.3239053E-2,-2.79721E-2,-1.4121872E-2,2.402619E-2,5.520683E-3,1.328245E-2,-1.27625E-2],"categories":[],"categories_nodes":[],"categories_segments":[],"categories_sizes":[],"default_left":[0,0,0,0,0,0,0,0,0,0,0,0,0,0,0],"id":58,"left_children":[1,3,5,7,9,11,13,-1,-1,-1,-1,-1,-1,-1,-1],"loss_changes":[3.0114563E3,1.2899711E3,1.2522571E3,5.8079395E2,3.068418E2,3.050376E2,3.773928E2,0E0,0E0,0E0,0E0,0E0,0E0,0E0,0E0],"parents":[2147483647,0,0,1,1,2,2,3,3,4,4,5,5,6,6],"right_children":[2,4,6,8,10,12,14,-1,-1,-1,-1,-1,-1,-1,-1],"split_conditions":[6.376812E-1,6.792453E-1,7.719298E-1,5.588235E-1,5.777778E-1,5.882353E-1,4.8387095E-1,-1.673783E-2,1.3239053E-2,-2.79721E-2,-1.4121872E-2,2.402619E-2,5.520683E-3,1.328245E-2,-1.27625E-2],"split_indices":[89,92,92,89,89,93,93,0,0,0,0,0,0,0,0],"split_type":[0,0,0,0,0,0,0,0,0,0,0,0,0,0,0],"sum_hessian":[1.2166563E4,6.2882305E3,5.8783325E3,2.0400269E3,4.2482036E3,4.1281484E3,1.7501842E3,6.026122E2,1.4374147E3,1.9318995E3,2.3163042E3,3.4204333E3,7.07715E2,5.198438E2,1.2303403E3],"tree_param":{"num_deleted":"0","num_feature":"98","num_nodes":"15","size_leaf_vector":"1"}},{"base_weights":[-4.8067796E-4,-4.1519502E-1,4.2309994E-1,-6.6714793E-1,9.4121784E-2,2.1845584E-1,8.041398E-1,-2.5354514E-2,-1.1844378E-2,-1.43089825E-2,8.844523E-3,2.6555636E-4,1.8481676E-2,1.6439822E-2,2.7077233E-2],"categories":[],"categories_nodes":[],"categories_segments":[],"categories_sizes":[],"default_left":[0,0,0,0,0,0,0,0,0,0,0,0,0,0,0],"id":59,"left_children":[1,3,5,7,9,11,13,-1,-1,-1,-1,-1,-1,-1,-1],"loss_changes":[2.1202117E3,7.827396E2,4.6534912E2,2.689192E2,3.302838E2,4.0605685E2,8.501929E1,0E0,0E0,0E0,0E0,0E0,0E0,0E0,0E0],"parents":[2147483647,0,0,1,1,2,2,3,3,4,4,5,5,6,6],"right_children":[2,4,6,8,10,12,14,-1,-1,-1,-1,-1,-1,-1,-1],"split_conditions":[8E-2,9.615385E-2,8.3333336E-2,4.225352E-2,3.1746034E-2,1.3207547E-1,1.2068965E-1,-2.5354514E-2,-1.1844378E-2,-1.43089825E-2,8.844523E-3,2.6555636E-4,1.8481676E-2,1.6439822E-2,2.7077233E-2],"split_indices":[97,90,90,97,97,97,97,0,0,0,0,0,0,0,0],"split_type":[0,0,0,0,0,0,0,0,0,0,0,0,0,0,0],"sum_hessian":[1.2068563E4,6.09828E3,5.970283E3,4.0800452E3,2.0182349E3,3.884999E3,2.0852844E3,1.5880991E3,2.491946E3,5.6024316E2,1.4579917E3,2.747579E3,1.1374199E3,1.2674897E3,8.1779474E2],"tree_param":{"num_deleted":"0","num_feature":"98","num_nodes":"15","size_leaf_vector":"1"}},{"base_weights":[6.9093955E-4,-4.6644023E-1,4.9998337E-1,2.8349152E-1,-7.305295E-1,8.2302356E-1,-1.2085336E-1,-2.1235105E-2,1.4464387E-2,-2.73781E-2,-1.2330848E-2,1.2844979E-2,2.5457807E-2,-1.0305981E-2,1.54402135E-2],"categories":[],"categories_nodes":[],"categories_segments":[],"categories_sizes":[],"default_left":[0,0,0,0,0,0,0,0,0,0,0,0,0,0,0],"id":60,"left_children":[1,3,5,7,9,11,13,-1,-1,-1,-1,-1,-1,-1,-1],"loss_changes":[2.8024004E3,1.2295529E3,1.1649554E3,5.0459482E2,3.8596533E2,2.0847217E2,4.041172E2,0E0,0E0,0E0,0E0,0E0,0E0,0E0,0E0],"parents":[2147483647,0,0,1,1,2,2,3,3,4,4,5,5,6,6],"right_children":[2,4,6,8,10,12,14,-1,-1,-1,-1,-1,-1,-1,-1],"split_conditions":[6.376812E-1,6.603774E-1,7.6119405E-1,5.3968257E-1,5.744681E-1,8E-2,7.1794873E-1,-2.1235105E-2,1.4464387E-2,-2.73781E-2,-1.2330848E-2,1.2844979E-2,2.5457807E-2,-1.0305981E-2,1.54402135E-2],"split_indices":[89,92,92,89,89,97,89,0,0,0,0,0,0,0,0],"split_type":[0,0,0,0,0,0,0,0,0,0,0,0,0,0,0],"sum_hessian":[1.2014251E4,6.2069043E3,5.807346E3,1.6163602E3,4.5905444E3,3.8198289E3,1.9875173E3,3.2546564E2,1.2908945E3,1.95176E3,2.6387842E3,1.3197653E3,2.5000635E3,1.4314655E3,5.560518E2],"tree_param":{"num_deleted":"0","num_feature":"98","num_nodes":"15","size_leaf_vector":"1"}},{"base_weights":[-1.1440108E-4,-4.2218617E-1,5.3997284E-1,3.314687E-1,-6.840398E-1,8.606408E-1,-5.0653033E-2,-2.0457212E-2,1.51987905E-2,-7.0572235E-3,-2.3538701E-2,2.4982732E-2,9.221961E-3,1.6368126E-2,-9.019192E-3],"categories":[],"categories_nodes":[],"categories_segments":[],"categories_sizes":[],"default_left":[0,0,0,0,0,0,0,0,0,0,0,0,0,0,0],"id":61,"left_children":[1,3,5,7,9,11,13,-1,-1,-1,-1,-1,-1,-1,-1],"loss_changes":[2.713348E3,1.3187806E3,9.89041E2,5.086454E2,4.7400537E2,1.923523E2,3.813074E2,0E0,0E0,0E0,0E0,0E0,0E0,0E0,0E0],"parents":[2147483647,0,0,1,1,2,2,3,3,4,4,5,5,6,6],"right_children":[2,4,6,8,10,12,14,-1,-1,-1,-1,-1,-1,-1,-1],"split_conditions":[6.458333E-1,6.603774E-1,7.590361E-1,5.3968257E-1,5E-1,5.8064514E-1,4.827586E-1,-2.0457212E-2,1.51987905E-2,-7.0572235E-3,-2.3538701E-2,2.4982732E-2,9.221961E-3,1.6368126E-2,-9.019192E-3],"split_indices":[89,92,92,89,93,93,93,0,0,0,0,0,0,0,0],"split_type":[0,0,0,0,0,0,0,0,0,0,0,0,0,0,0],"sum_hessian":[1.1901967E4,6.6811274E3,5.2208394E3,1.7225822E3,4.9585454E3,3.383717E3,1.8371221E3,3.2334976E2,1.3992324E3,1.8054872E3,3.153058E3,2.7572922E3,6.2642487E2,5.583481E2,1.278774E3],"tree_param":{"num_deleted":"0","num_feature":"98","num_nodes":"15","size_leaf_vector":"1"}},{"base_weights":[-1.690622E-3,-6.1099994E-1,3.590919E-1,3.7969223E-1,-7.868703E-1,7.804846E-1,-1.2737016E-1,-2.523976E-2,1.6555E-2,-2.7668761E-2,-1.364513E-2,1.2702173E-2,2.5995541E-2,-9.102532E-3,1.7819416E-2],"categories":[],"categories_nodes":[],"categories_segments":[],"categories_sizes":[],"default_left":[0,0,0,0,0,0,0,0,0,0,0,0,0,0,0],"id":62,"left_children":[1,3,5,7,9,11,13,-1,-1,-1,-1,-1,-1,-1,-1],"loss_changes":[2.5997083E3,7.665454E2,1.5227534E3,2.4091846E2,2.774851E2,2.642942E2,6.454709E2,0E0,0E0,0E0,0E0,0E0,0E0,0E0,0E0],"parents":[2147483647,0,0,1,1,2,2,3,3,4,4,5,5,6,6],"right_children":[2,4,6,8,10,12,14,-1,-1,-1,-1,-1,-1,-1,-1],"split_conditions":[6.103896E-1,6.25E-1,7.3333335E-1,5.185185E-1,5.609756E-1,6.666667E-1,7.1794873E-1,-2.523976E-2,1.6555E-2,-2.7668761E-2,-1.364513E-2,1.2702173E-2,2.5995541E-2,-9.102532E-3,1.7819416E-2],"split_indices":[89,92,92,89,89,89,89,0,0,0,0,0,0,0,0],"split_type":[0,0,0,0,0,0,0,0,0,0,0,0,0,0,0],"sum_hessian":[1.1824854E4,4.3977373E3,7.427116E3,6.627838E2,3.7349534E3,3.9797063E3,3.44741E3,1.0781422E2,5.549696E2,1.7384175E3,1.9965359E3,1.7921599E3,2.1875464E3,2.7003982E3,7.4701166E2],"tree_param":{"num_deleted":"0","num_feature":"98","num_nodes":"15","size_leaf_vector":"1"}},{"base_weights":[1.8708836E-3,4.6914446E-1,-5.0004834E-1,-1.5312675E-1,7.7198243E-1,-7.8555924E-1,1.5760836E-1,1.5248734E-2,-1.3361965E-2,2.7668962E-2,1.3858897E-2,-1.3645083E-2,-2.6743127E-2,1.0642565E-2,-1.2068608E-2],"categories":[],"categories_nodes":[],"categories_segments":[],"categories_sizes":[],"default_left":[0,0,0,0,0,0,0,0,0,0,0,0,0,0,0],"id":63,"left_children":[1,3,5,7,9,11,13,-1,-1,-1,-1,-1,-1,-1,-1],"loss_changes":[2.747212E3,1.1433256E3,1.0605315E3,5.4670605E2,2.8955103E2,2.5634985E2,2.7665533E2,0E0,0E0,0E0,0E0,0E0,0E0,0E0,0E0],"parents":[2147483647,0,0,1,1,2,2,3,3,4,4,5,5,6,6],"right_children":[2,4,6,8,10,12,14,-1,-1,-1,-1,-1,-1,-1,-1],"split_conditions":[6.375E-1,6.792453E-1,7.7272725E-1,5.619048E-1,5.753425E-1,6.9014084E-1,7.1666664E-1,1.5248734E-2,-1.3361965E-2,2.7668962E-2,1.3858897E-2,-1.3645083E-2,-2.6743127E-2,1.0642565E-2,-1.2068608E-2],"split_indices":[94,87,87,94,94,94,94,0,0,0,0,0,0,0,0],"split_type":[0,0,0,0,0,0,0,0,0,0,0,0,0,0,0],"sum_hessian":[1.1712454E4,6.0657354E3,5.646719E3,1.9855736E3,4.0801616E3,3.937452E3,1.7092672E3,6.545896E2,1.330984E3,1.7525963E3,2.3275654E3,1.9852677E3,1.9521843E3,1.212739E3,4.965281E2],"tree_param":{"num_deleted":"0","num_feature":"98","num_nodes":"15","size_leaf_vector":"1"}},{"base_weights":[-2.3113616E-4,7.149371E-1,-3.2252142E-1,-5.5800503E-1,8.535996E-1,-7.252878E-1,1.6776523E-1,1.6334767E-2,-2.1717912E-2,2.6700629E-2,1.4100607E-2,-1.1528574E-2,-2.5807656E-2,1.3756083E-2,-8.0577945E-3],"categories":[],"categories_nodes":[],"categories_segments":[],"categories_sizes":[],"default_left":[0,0,0,0,0,0,0,0,0,0,0,0,0,0,0],"id":64,"left_children":[1,3,5,7,9,11,13,-1,-1,-1,-1,-1,-1,-1,-1],"loss_changes":[2.679656E3,6.3776953E2,1.5827809E3,1.22915405E2,1.8513477E2,3.4065747E2,6.425731E2,0E0,0E0,0E0,0E0,0E0,0E0,0E0,0E0],"parents":[2147483647,0,0,1,1,2,2,3,3,4,4,5,5,6,6],"right_children":[2,4,6,8,10,12,14,-1,-1,-1,-1,-1,-1,-1,-1],"split_conditions":[5.97561E-1,6E-1,7.352941E-1,5.16129E-1,5.6666666E-1,6.666667E-1,6.7469877E-1,1.6334767E-2,-2.1717912E-2,2.6700629E-2,1.4100607E-2,-1.1528574E-2,-2.5807656E-2,1.3756083E-2,-8.0577945E-3],"split_indices":[94,87,87,94,94,94,94,0,0,0,0,0,0,0,0],"split_type":[0,0,0,0,0,0,0,0,0,0,0,0,0,0,0],"sum_hessian":[1.1624989E4,3.611004E3,8.013986E3,3.5444913E2,3.2565547E3,4.3997017E3,3.614284E3,6.879855E1,2.8565057E2,2.0114523E3,1.2451025E3,2.2226223E3,2.1770796E3,2.0479496E3,1.5663342E3],"tree_param":{"num_deleted":"0","num_feature":"98","num_nodes":"15","size_leaf_vector":"1"}},{"base_weights":[2.7732893E-3,7.2960776E-1,-3.0426773E-1,-7.372109E-1,8.845937E-1,-7.127001E-1,2.7281773E-1,2.9216338E-2,-2.3958305E-2,1.38759315E-2,2.6272012E-2,-2.5933627E-2,-1.0580407E-2,1.6426165E-2,-4.6876683E-3],"categories":[],"categories_nodes":[],"categories_segments":[],"categories_sizes":[],"default_left":[0,0,0,0,0,0,0,0,0,0,0,0,0,0,0],"id":65,"left_children":[1,3,5,7,9,11,13,-1,-1,-1,-1,-1,-1,-1,-1],"loss_changes":[2.5664058E3,7.767938E2,1.9056434E3,1.2137378E2,1.4801611E2,4.2389966E2,5.616333E2,0E0,0E0,0E0,0E0,0E0,0E0,0E0,0E0],"parents":[2147483647,0,0,1,1,2,2,3,3,4,4,5,5,6,6],"right_children":[2,4,6,8,10,12,14,-1,-1,-1,-1,-1,-1,-1,-1],"split_conditions":[5.952381E-1,5.423729E-1,6.4835167E-1,4.9382716E-1,6.103896E-1,5.925926E-1,6.691176E-1,2.9216338E-2,-2.3958305E-2,1.38759315E-2,2.6272012E-2,-2.5933627E-2,-1.0580407E-2,1.6426165E-2,-4.6876683E-3],"split_indices":[94,89,89,94,89,89,94,0,0,0,0,0,0,0,0],"split_type":[0,0,0,0,0,0,0,0,0,0,0,0,0,0,0],"sum_hessian":[1.1498537E4,3.4147617E3,8.0837754E3,3.2604654E2,3.088715E3,4.733653E3,3.3501226E3,3.0683376E1,2.9536316E2,8.9553503E2,2.1931802E3,2.3713604E3,2.3622927E3,1.8538014E3,1.496321E3],"tree_param":{"num_deleted":"0","num_feature":"98","num_nodes":"15","size_leaf_vector":"1"}},{"base_weights":[-2.5729572E-3,3.927765E-1,-5.541026E-1,-4.549014E-1,6.790479E-1,-7.4935937E-1,4.5814982E-1,1.6895585E-2,-1.8061573E-2,2.7249172E-2,1.1352706E-2,-2.2564659E-2,-7.040881E-4,1.6367892E-2,-1.3381701E-2],"categories":[],"categories_nodes":[],"categories_segments":[],"categories_sizes":[],"default_left":[0,0,0,0,0,0,0,0,0,0,0,0,0,0,0],"id":66,"left_children":[1,3,5,7,9,11,13,-1,-1,-1,-1,-1,-1,-1,-1],"loss_changes":[2.4909717E3,1.6148844E3,9.4300574E2,4.6711578E2,4.5050317E2,3.7703174E2,1.3644176E2,0E0,0E0,0E0,0E0,0E0,0E0,0E0,0E0],"parents":[2147483647,0,0,1,1,2,2,3,3,4,4,5,5,6,6],"right_children":[2,4,6,8,10,12,14,-1,-1,-1,-1,-1,-1,-1,-1],"split_conditions":[6.5E-1,5.888889E-1,7.051282E-1,5.423729E-1,5.764706E-1,1.3461539E-1,7.5E-1,1.6895585E-2,-1.8061573E-2,2.7249172E-2,1.1352706E-2,-2.2564659E-2,-7.040881E-4,1.6367892E-2,-1.3381701E-2],"split_indices":[94,89,89,94,94,90,94,0,0,0,0,0,0,0,0],"split_type":[0,0,0,0,0,0,0,0,0,0,0,0,0,0,0],"sum_hessian":[1.1422836E4,6.6534097E3,4.7694263E3,1.6794814E3,4.973928E3,3.9984355E3,7.709907E2,3.070853E2,1.3723961E3,1.8948773E3,3.079051E3,3.3854143E3,6.130211E2,6.5153217E2,1.19458534E2],"tree_param":{"num_deleted":"0","num_feature":"98","num_nodes":"15","size_leaf_vector":"1"}},{"base_weights":[-1.6288266E-3,3.7595123E-1,-4.1868898E-1,-2.4940057E-1,6.541662E-1,-7.5804955E-1,7.074515E-2,1.1071665E-2,-1.2211452E-2,2.2399956E-2,7.986638E-3,-2.6113825E-2,-1.38604725E-2,-1.6154142E-2,7.844976E-3],"categories":[],"categories_nodes":[],"categories_segments":[],"categories_sizes":[],"default_left":[0,0,0,0,0,0,0,0,0,0,0,0,0,0,0],"id":67,"left_children":[1,3,5,7,9,11,13,-1,-1,-1,-1,-1,-1,-1,-1],"loss_changes":[1.7811454E3,1.0329312E3,8.9281354E2,2.8258527E2,3.0863147E2,1.792345E2,3.6282663E2,0E0,0E0,0E0,0E0,0E0,0E0,0E0,0E0],"parents":[2147483647,0,0,1,1,2,2,3,3,4,4,5,5,6,6],"right_children":[2,4,6,8,10,12,14,-1,-1,-1,-1,-1,-1,-1,-1],"split_conditions":[8.163265E-2,5.5555556E-2,9.195402E-2,3.076923E-2,5.0877196E-1,6.6071427E-1,6.1290324E-1,1.1071665E-2,-1.2211452E-2,2.2399956E-2,7.986638E-3,-2.6113825E-2,-1.38604725E-2,-1.6154142E-2,7.844976E-3],"split_indices":[95,97,97,95,93,87,87,0,0,0,0,0,0,0,0],"split_type":[0,0,0,0,0,0,0,0,0,0,0,0,0,0,0],"sum_hessian":[1.1309642E4,5.935616E3,5.374025E3,1.8274794E3,4.108137E3,3.17356E3,2.2004646E3,4.5625424E2,1.3712251E3,2.5037537E3,1.6043834E3,1.4431943E3,1.7303657E3,5.525968E2,1.6478679E3],"tree_param":{"num_deleted":"0","num_feature":"98","num_nodes":"15","size_leaf_vector":"1"}},{"base_weights":[1.5187209E-3,6.8706137E-1,-3.0155358E-1,-6.8910205E-1,8.437491E-1,-7.8873235E-1,1.5500666E-1,3.0753594E-2,-2.287847E-2,2.7146813E-2,1.4413103E-2,-2.7687708E-2,-1.4416108E-2,1.1764534E-2,-9.766515E-3],"categories":[],"categories_nodes":[],"categories_segments":[],"categories_sizes":[],"default_left":[0,0,0,0,0,0,0,0,0,0,0,0,0,0,0],"id":68,"left_children":[1,3,5,7,9,11,13,-1,-1,-1,-1,-1,-1,-1,-1],"loss_changes":[2.3345605E3,7.4310815E2,1.7331619E3,1.3569547E2,1.867041E2,2.4797046E2,6.54979E2,0E0,0E0,0E0,0E0,0E0,0E0,0E0,0E0],"parents":[2147483647,0,0,1,1,2,2,3,3,4,4,5,5,6,6],"right_children":[2,4,6,8,10,12,14,-1,-1,-1,-1,-1,-1,-1,-1],"split_conditions":[5.97561E-1,5.4545456E-1,6.315789E-1,5E-1,5.619048E-1,5.7272726E-1,6.8421054E-1,3.0753594E-2,-2.287847E-2,2.7146813E-2,1.4413103E-2,-2.7687708E-2,-1.4416108E-2,1.1764534E-2,-9.766515E-3],"split_indices":[94,89,89,94,94,89,94,0,0,0,0,0,0,0,0],"split_type":[0,0,0,0,0,0,0,0,0,0,0,0,0,0,0],"sum_hessian":[1.1234988E4,3.4441624E3,7.7908257E3,3.5178128E2,3.0923809E3,3.7689932E3,4.0218328E3,3.3841915E1,3.1793936E2,1.7526688E3,1.3397122E3,1.6482554E3,2.1207378E3,2.566949E3,1.4548838E3],"tree_param":{"num_deleted":"0","num_feature":"98","num_nodes":"15","size_leaf_vector":"1"}},{"base_weights":[3.9809886E-3,3.8422313E-1,-5.265301E-1,-2.9966477E-1,7.153492E-1,-7.8058016E-1,2.4614498E-1,1.1752183E-2,-1.652828E-2,2.5637437E-2,1.1628178E-2,-2.243329E-2,1.9092903E-3,2.76129E-4,2.255741E-2],"categories":[],"categories_nodes":[],"categories_segments":[],"categories_sizes":[],"default_left":[0,0,0,0,0,0,0,0,0,0,0,0,0,0,0],"id":69,"left_children":[1,3,5,7,9,11,13,-1,-1,-1,-1,-1,-1,-1,-1],"loss_changes":[2.2468357E3,1.4694495E3,9.129923E2,5.5365405E2,3.2524194E2,2.8236328E2,1.7149953E2,0E0,0E0,0E0,0E0,0E0,0E0,0E0,0E0],"parents":[2147483647,0,0,1,1,2,2,3,3,4,4,5,5,6,6],"right_children":[2,4,6,8,10,12,14,-1,-1,-1,-1,-1,-1,-1,-1],"split_conditions":[6.5E-1,6.034483E-1,6.8421054E-1,5.6790125E-1,5.92233E-1,1.5555556E-1,7.4626863E-1,1.1752183E-2,-1.652828E-2,2.5637437E-2,1.1628178E-2,-2.243329E-2,1.9092903E-3,2.76129E-4,2.255741E-2],"split_indices":[94,89,89,94,94,90,89,0,0,0,0,0,0,0,0],"split_type":[0,0,0,0,0,0,0,0,0,0,0,0,0,0,0],"sum_hessian":[1.1137265E4,6.4876675E3,4.6495967E3,2.1163352E3,4.3713325E3,3.4992488E3,1.150348E3,6.6168115E2,1.454654E3,2.094092E3,2.2772402E3,3.1517742E3,3.4747464E2,8.393157E2,3.1103232E2],"tree_param":{"num_deleted":"0","num_feature":"98","num_nodes":"15","size_leaf_vector":"1"}},{"base_weights":[-1.474845E-3,3.3440778E-1,-5.8396465E-1,7.290472E-1,-9.983416E-2,5.163061E-1,-7.3183197E-1,2.6830079E-2,1.3899674E-2,1.4562358E-2,-1.1162399E-2,-1.5744051E-2,1.8167097E-2,-2.38428E-2,-9.69632E-3],"categories":[],"categories_nodes":[],"categories_segments":[],"categories_sizes":[],"default_left":[0,0,0,0,0,0,0,0,0,0,0,0,0,0,0],"id":70,"left_children":[1,3,5,7,9,11,13,-1,-1,-1,-1,-1,-1,-1,-1],"loss_changes":[2.1579558E3,1.1989427E3,6.565559E2,2.169071E2,7.46343E2,1.0411894E2,2.4871387E2,0E0,0E0,0E0,0E0,0E0,0E0,0E0,0E0],"parents":[2147483647,0,0,1,1,2,2,3,3,4,4,5,5,6,6],"right_children":[2,4,6,8,10,12,14,-1,-1,-1,-1,-1,-1,-1,-1],"split_conditions":[6.6E-1,8.196721E-2,2.9411765E-2,5.816327E-1,5.753425E-1,1.4084507E-2,7.457627E-1,2.6830079E-2,1.3899674E-2,1.4562358E-2,-1.1162399E-2,-1.5744051E-2,1.8167097E-2,-2.38428E-2,-9.69632E-3],"split_indices":[94,95,95,94,94,97,87,0,0,0,0,0,0,0,0],"split_type":[0,0,0,0,0,0,0,0,0,0,0,0,0,0,0],"sum_hessian":[1.1028519E4,6.9949727E3,4.0335461E3,3.6645715E3,3.330401E3,4.775821E2,3.555964E3,1.3574708E3,2.3071008E3,1.1134395E3,2.2169614E3,6.912745E1,4.0845465E2,2.278784E3,1.27718E3],"tree_param":{"num_deleted":"0","num_feature":"98","num_nodes":"15","size_leaf_vector":"1"}},{"base_weights":[1.9490259E-4,3.6045197E-1,-3.9990497E-1,6.415552E-1,-2.4138966E-1,2.6415554E-1,-6.5449685E-1,2.3609819E-2,8.192909E-3,9.621668E-3,-1.2415644E-2,-1.988218E-2,1.1736047E-2,-7.294952E-3,-2.2678783E-2],"categories":[],"categories_nodes":[],"categories_segments":[],"categories_sizes":[],"default_left":[0,0,0,0,0,0,0,0,0,0,0,0,0,0,0],"id":71,"left_children":[1,3,5,7,9,11,13,-1,-1,-1,-1,-1,-1,-1,-1],"loss_changes":[1.5793212E3,9.7558887E2,8.7780133E2,3.5307886E2,2.7499304E2,2.896532E2,3.1901562E2,0E0,0E0,0E0,0E0,0E0,0E0,0E0,0E0],"parents":[2147483647,0,0,1,1,2,2,3,3,4,4,5,5,6,6],"right_children":[2,4,6,8,10,12,14,-1,-1,-1,-1,-1,-1,-1,-1],"split_conditions":[8.163265E-2,7.719298E-1,6.603774E-1,5.0877196E-1,4.827586E-1,5.810811E-1,5E-1,2.3609819E-2,8.192909E-3,9.621668E-3,-1.2415644E-2,-1.988218E-2,1.1736047E-2,-7.294952E-3,-2.2678783E-2],"split_indices":[95,92,92,93,93,87,93,0,0,0,0,0,0,0,0],"split_type":[0,0,0,0,0,0,0,0,0,0,0,0,0,0,0],"sum_hessian":[1.095591E4,5.765217E3,5.190693E3,3.9298823E3,1.8353345E3,1.4383677E3,3.7523252E3,2.1041008E3,1.8257816E3,5.1827856E2,1.3170559E3,2.2539415E2,1.2129735E3,1.4389655E3,2.3133599E3],