{"learner":{"attributes":{"best_iteration":"287","best_score":"0.17848738125159136"},"feature_names":["year","tourney_level_ATP 250/500","tourney_level_Grand Slam","tourney_level_Masters","tourney_level_Year End Final","surface_Clay","surface_Grass","surface_Hard","draw_size_12","draw_size_128","draw_size_16","draw_size_18","draw_size_24","draw_size_28","draw_size_32","draw_size_48","draw_size_56","draw_size_64","draw_size_8","draw_size_96","best_of_3","best_of_5","round_BR","round_F","round_QF","round_R128","round_R16","round_R32","round_R64","round_SF","seed_1","seed_10","seed_11","seed_12","seed_13","seed_14","seed_15","seed_16","seed_17","seed_18","seed_19","seed_2","seed_20","seed_21","seed_22","seed_23","seed_24","seed_25","seed_26","seed_27","seed_28","seed_29","seed_3","seed_30","seed_31","seed_32","seed_33","seed_35","seed_4","seed_5","seed_6","seed_7","seed_8","seed_9","seed_Unseeded","entry_ALT","entry_Alt","entry_LL","entry_NA","entry_PR","entry_Q","entry_SE","entry_WC","rank_points","rank_bin_Outside Top 100","rank_bin_Top 10","rank_bin_Top 100","rank_bin_Top 25","rank_bin_Top 50","opp_rank_points","opp_rank_bin_Outside Top 100","opp_rank_bin_Top 10","opp_rank_bin_Top 100","opp_rank_bin_Top 25","opp_rank_bin_Top 50","age","first_in_per","first_won_per","second_won_per","rally_svptw_per","ace_per","df_per","first_rpw_per","second_rpw_per","rally_rpw_per","bp_face_freq","ace_per_against","bp_create_freq"],"feature_types":["int","int","int","int","int","int","int","int","int","int","int","int","int","int","int","int","int","int","int","int","int","int","int","int","int","int","int","int","int","int","int","int","int","int","int","int","int","int","int","int","int","int","int","int","int","int","int","int","int","int","int","int","int","int","int","int","int","int","int","int","int","int","int","int","int","int","int","int","int","int","int","int","int","float","int","int","int","int","int","float","int","int","int","int","int","float","float","float","float","float","float","float","float","float","float","float","float","float"],"gradient_booster":{"model":{"gbtree_model_param":{"num_parallel_tree":"1","num_trees":"338"},"iteration_indptr":[0,1,2,3,4,5,6,7,8,9,10,11,12,13,14,15,16,17,18,19,20,21,22,23,24,25,26,27,28,29,30,31,32,33,34,35,36,37,38,39,40,41,42,43,44,45,46,47,48,49,50,51,52,53,54,55,56,57,58,59,60,61,62,63,64,65,66,67,68,69,70,71,72,73,74,75,76,77,78,79,80,81,82,83,84,85,86,87,88,89,90,91,92,93,94,95,96,97,98,99,100,101,102,103,104,105,106,107,108,109,110,111,112,113,114,115,116,117,118,119,120,121,122,123,124,125,126,127,128,129,130,131,132,133,134,135,136,137,138,139,140,141,142,143,144,145,146,147,148,149,150,151,152,153,154,155,156,157,158,159,160,161,162,163,164,165,166,167,168,169,170,171,172,173,174,175,176,177,178,179,180,181,182,183,184,185,186,187,188,189,190,191,192,193,194,195,196,197,198,199,200,201,202,203,204,205,206,207,208,209,210,211,212,213,214,215,216,217,218,219,220,221,222,223,224,225,226,227,228,229,230,231,232,233,234,235,236,237,238,239,240,241,242,243,244,245,246,247,248,249,250,251,252,253,254,255,256,257,258,259,260,261,262,263,264,265,266,267,268,269,270,271,272,273,274,275,276,277,278,279,280,281,282,283,284,285,286,287,288,289,290,291,292,293,294,295,296,297,298,299,300,301,302,303,304,305,306,307,308,309,310,311,312,313,314,315,316,317,318,319,320,321,322,323,324,325,326,327,328,329,330,331,332,333,334,335,336,337,338],"tree_info":[0,0,0,0,0,0,0,0,0,0,0,0,0,0,0,0,0,0,0,0,0,0,0,0,0,0,0,0,0,0,0,0,0,0,0,0,0,0,0,0,0,0,0,0,0,0,0,0,0,0,0,0,0,0,0,0,0,0,0,0,0,0,0,0,0,0,0,0,0,0,0,0,0,0,0,0,0,0,0,0,0,0,0,0,0,0,0,0,0,0,0,0,0,0,0,0,0,0,0,0,0,0,0,0,0,0,0,0,0,0,0,0,0,0,0,0,0,0,0,0,0,0,0,0,0,0,0,0,0,0,0,0,0,0,0,0,0,0,0,0,0,0,0,0,0,0,0,0,0,0,0,0,0,0,0,0,0,0,0,0,0,0,0,0,0,0,0,0,0,0,0,0,0,0,0,0,0,0,0,0,0,0,0,0,0,0,0,0,0,0,0,0,0,0,0,0,0,0,0,0,0,0,0,0,0,0,0,0,0,0,0,0,0,0,0,0,0,0,0,0,0,0,0,0,0,0,0,0,0,0,0,0,0,0,0,0,0,0,0,0,0,0,0,0,0,0,0,0,0,0,0,0,0,0,0,0,0,0,0,0,0,0,0,0,0,0,0,0,0,0,0,0,0,0,0,0,0,0,0,0,0,0,0,0,0,0,0,0,0,0,0,0,0,0,0,0,0,0,0,0,0,0,0,0,0,0,0,0,0,0,0,0,0,0,0,0,0,0,0,0,0,0,0,0,0,0,0,0,0,0,0,0,0,0,0,0,0,0],"trees":[{"base_weights":[-7.1835485E-3,-1.14238E0,1.1128814E0,-2.3756179E-1,-1.6347314E0,1.59668E0,1.7810039E-1,-1.2536778E0,5.73559E-1,-1.8563505E0,-1.1217923E0,1.7191725E0,9.429241E-1,-4.2242807E-1,1.0077451E0,-1.7043059E0,-7.435539E-1,9.448415E-1,-3.85976E-1,-1.9320418E0,-1.6059128E0,-4.6320182E-1,-1.444309E0,1.4228297E0,1.8699422E0,1.568137E-1,1.4313242E0,2.1809225E-1,-9.2907226E-1,1.3218454E0,-8.688756E-2,-1.0553435E0,-1.7853208E0,3.6929438E-1,-1.0481375E0,1.492972E0,5.169528E-1,4.3969837E-1,-7.4144334E-1,-1.8228118E0,-1.9777905E0,-1.30478E0,-1.8404316E0,2.0048234E-1,-9.2733765E-1,-1.1422547E0,-1.7743173E0,1.702366E0,9.752457E-1,9.683533E-2,1.729828E0,7.876796E-1,-6.057956E-1,1.4791236E0,-3.188972E-1,5.581048E-1,-4.9357656E-1,-5.04069E-1,-1.3405129E0,1.4116771E0,1.689668E-1,-4.5631438E-1,8.539702E-1,-7.958369E-2,-1.3055637E-2,-9.358056E-2,-7.2865926E-2,3.764941E-2,-4.498303E-2,-2.3191227E-2,-7.1237504E-2,8.298463E-2,5.7784908E-2,8.329496E-3,4.6419654E-2,3.8118325E-2,-2.9771648E-2,-4.335047E-2,3.742249E-2,-9.471742E-2,-7.404089E-2,-8.434034E-3,-9.832475E-2,-4.170618E-2,-8.17799E-2,-2.0589063E-2,-9.189144E-2,2.3913005E-2,-4.136153E-2,-2.7276168E-2,-6.807907E-2,-6.2213425E-2,-2.4626118E-3,-9.213033E-2,-5.7390463E-2,9.501391E-2,7.792732E-2,6.149057E-2,2.4621747E-2,7.752542E-2,9.49187E-2,5.339622E-2,-7.885195E-3,-4.311857E-2,-1.1806332E-3,8.198394E-2,5.2167125E-2,-6.0768712E-2,2.7941426E-2,3.377313E-2,-2.922598E-2,-4.5029737E-2,6.4704646E-3,-7.2082006E-3,-4.6346758E-2,-7.5842105E-2,-2.9819774E-2,5.0761703E-2,8.121807E-2,-1.5593261E-2,4.8515733E-2,2.2604447E-3,-4.9737744E-2,6.8365425E-2,1.1023184E-2],"categories":[],"categories_nodes":[],"categories_segments":[],"categories_sizes":[],"default_left":[0,0,0,0,0,0,0,0,0,0,0,0,0,0,0,0,0,0,0,0,0,0,0,0,0,0,0,0,0,0,0,0,0,0,0,0,0,0,0,0,0,0,0,0,0,0,0,0,0,0,0,0,0,0,0,0,0,0,0,0,0,0,0,0,0,0,0,0,0,0,0,0,0,0,0,0,0,0,0,0,0,0,0,0,0,0,0,0,0,0,0,0,0,0,0,0,0,0,0,0,0,0,0,0,0,0,0,0,0,0,0,0,0,0,0,0,0,0,0,0,0,0,0,0,0],"id":0,"left_children":[1,3,5,7,9,11,13,15,17,19,21,23,25,27,29,31,33,35,37,39,41,43,45,47,49,51,53,55,57,59,61,63,65,67,69,71,73,75,77,79,81,83,85,87,89,91,93,95,97,-1,99,101,103,105,107,109,111,113,115,117,119,121,123,-1,-1,-1,-1,-1,-1,-1,-1,-1,-1,-1,-1,-1,-1,-1,-1,-1,-1,-1,-1,-1,-1,-1,-1,-1,-1,-1,-1,-1,-1,-1,-1,-1,-1,-1,-1,-1,-1,-1,-1,-1,-1,-1,-1,-1,-1,-1,-1,-1,-1,-1,-1,-1,-1,-1,-1,-1,-1,-1,-1,-1,-1],"loss_changes":[2.1809424E4,3.7943945E3,3.9040928E3,2.4762195E3,6.2445215E2,4.534795E2,1.4682373E3,3.0488403E2,5.957276E2,6.912305E1,3.5320605E2,2.1066602E2,3.4526575E2,5.550982E2,4.256942E2,3.4759033E1,2.1324216E2,2.8156763E2,1.3742572E2,1.02890625E1,6.0570312E1,1.696673E2,1.0891748E2,2.0055298E2,3.0841797E1,1.6719803E2,4.7093384E1,1.8321954E2,1.6601831E2,9.915662E1,9.663275E1,3.4563744E1,1.6122314E1,6.789393E1,1.0957214E2,2.8352905E1,9.8615234E1,4.853644E1,6.4733154E1,2.1020264E1,2.9521484E0,6.1416626E1,5.2491455E0,6.627685E1,5.32128E1,7.024225E1,2.3575195E1,2.4266113E1,7.7832275E1,0E0,3.1539062E1,5.1907867E1,2.387762E1,3.739917E1,1.3292018E1,7.182144E1,6.324272E1,7.231062E1,6.5371765E1,7.536304E1,2.80406E1,5.470839E1,2.5344429E1,0E0,0E0,0E0,0E0,0E0,0E0,0E0,0E0,0E0,0E0,0E0,0E0,0E0,0E0,0E0,0E0,0E0,0E0,0E0,0E0,0E0,0E0,0E0,0E0,0E0,0E0,0E0,0E0,0E0,0E0,0E0,0E0,0E0,0E0,0E0,0E0,0E0,0E0,0E0,0E0,0E0,0E0,0E0,0E0,0E0,0E0,0E0,0E0,0E0,0E0,0E0,0E0,0E0,0E0,0E0,0E0,0E0,0E0,0E0,0E0,0E0,0E0],"parents":[2147483647,0,0,1,1,2,2,3,3,4,4,5,5,6,6,7,7,8,8,9,9,10,10,11,11,12,12,13,13,14,14,15,15,16,16,17,17,18,18,19,19,20,20,21,21,22,22,23,23,24,24,25,25,26,26,27,27,28,28,29,29,30,30,31,31,32,32,33,33,34,34,35,35,36,36,37,37,38,38,39,39,40,40,41,41,42,42,43,43,44,44,45,45,46,46,47,47,48,48,50,50,51,51,52,52,53,53,54,54,55,55,56,56,57,57,58,58,59,59,60,60,61,61,62,62],"right_children":[2,4,6,8,10,12,14,16,18,20,22,24,26,28,30,32,34,36,38,40,42,44,46,48,50,52,54,56,58,60,62,64,66,68,70,72,74,76,78,80,82,84,86,88,90,92,94,96,98,-1,100,102,104,106,108,110,112,114,116,118,120,122,124,-1,-1,-1,-1,-1,-1,-1,-1,-1,-1,-1,-1,-1,-1,-1,-1,-1,-1,-1,-1,-1,-1,-1,-1,-1,-1,-1,-1,-1,-1,-1,-1,-1,-1,-1,-1,-1,-1,-1,-1,-1,-1,-1,-1,-1,-1,-1,-1,-1,-1,-1,-1,-1,-1,-1,-1,-1,-1,-1,-1,-1,-1],"split_conditions":[6.3076925E-1,5E-1,5.3061223E-1,5.744681E-1,5.934066E-1,1.1904762E-1,6.923077E-1,5.3968257E-1,8.256881E-2,5.7272726E-1,4.918033E-2,6.7164177E-1,6.792453E-1,6.849315E-2,1.375E-1,3.478261E-1,3.809524E-1,4.1509435E-1,4.090909E-1,5.5E-1,5.681818E-1,5.5E-1,5.862069E-1,4.6666667E-1,4.5833334E-1,4.7058824E-1,2.9508197E-1,6.1290324E-1,5.964912E-1,6.888889E-1,7.5609756E-1,5.135135E-1,5.263158E-1,8.256881E-2,4.4247787E-2,3.846154E-1,6.0784316E-1,1.4285715E-1,1.5E-1,5.5737704E-1,2.6666667E-2,5.6179777E-2,3.1746034E-2,5.4421768E-2,6.097561E-1,1.4678898E-1,1.4159292E-1,3.888889E-1,6.521739E-2,9.683533E-2,7.169811E-1,1.827957E-1,9.615385E-2,4.848485E-1,6E-1,7.042254E-2,6.617647E-1,1.17117114E-1,1.3592233E-1,7.169811E-1,7.368421E-1,6.0465115E-1,6.0465115E-1,-7.958369E-2,-1.3055637E-2,-9.358056E-2,-7.2865926E-2,3.764941E-2,-4.498303E-2,-2.3191227E-2,-7.1237504E-2,8.298463E-2,5.7784908E-2,8.329496E-3,4.6419654E-2,3.8118325E-2,-2.9771648E-2,-4.335047E-2,3.742249E-2,-9.471742E-2,-7.404089E-2,-8.434034E-3,-9.832475E-2,-4.170618E-2,-8.17799E-2,-2.0589063E-2,-9.189144E-2,2.3913005E-2,-4.136153E-2,-2.7276168E-2,-6.807907E-2,-6.2213425E-2,-2.4626118E-3,-9.213033E-2,-5.7390463E-2,9.501391E-2,7.792732E-2,6.149057E-2,2.4621747E-2,7.752542E-2,9.49187E-2,5.339622E-2,-7.885195E-3,-4.311857E-2,-1.1806332E-3,8.198394E-2,5.2167125E-2,-6.0768712E-2,2.7941426E-2,3.377313E-2,-2.922598E-2,-4.5029737E-2,6.4704646E-3,-7.2082006E-3,-4.6346758E-2,-7.5842105E-2,-2.9819774E-2,5.0761703E-2,8.121807E-2,-1.5593261E-2,4.8515733E-2,2.2604447E-3,-4.9737744E-2,6.8365425E-2,1.1023184E-2],"split_indices":[89,93,93,89,89,96,89,89,96,89,96,89,89,96,96,93,93,93,93,93,93,93,93,93,93,93,96,93,93,93,89,89,89,96,96,93,89,96,90,89,95,96,95,91,93,90,90,93,96,0,89,96,90,93,88,91,89,96,90,89,89,93,93,0,0,0,0,0,0,0,0,0,0,0,0,0,0,0,0,0,0,0,0,0,0,0,0,0,0,0,0,0,0,0,0,0,0,0,0,0,0,0,0,0,0,0,0,0,0,0,0,0,0,0,0,0,0,0,0,0,0,0,0,0,0],"split_type":[0,0,0,0,0,0,0,0,0,0,0,0,0,0,0,0,0,0,0,0,0,0,0,0,0,0,0,0,0,0,0,0,0,0,0,0,0,0,0,0,0,0,0,0,0,0,0,0,0,0,0,0,0,0,0,0,0,0,0,0,0,0,0,0,0,0,0,0,0,0,0,0,0,0,0,0,0,0,0,0,0,0,0,0,0,0,0,0,0,0,0,0,0,0,0,0,0,0,0,0,0,0,0,0,0,0,0,0,0,0,0,0,0,0,0,0,0,0,0,0,0,0,0,0,0],"sum_hessian":[1.7150344E4,8.517673E3,8.632672E3,3.002223E3,5.51545E3,5.687948E3,2.9447234E3,1.3324879E3,1.6697349E3,3.849215E3,1.6662349E3,4.7887065E3,8.992419E2,1.7084845E3,1.2362388E3,7.059936E2,6.264943E2,1.2039891E3,4.657458E2,2.9497234E3,8.994918E2,5.4874506E2,1.1174899E3,1.6189854E3,3.1697212E3,3.452469E2,5.53995E2,7.5474316E2,9.5374133E2,9.604913E2,2.757475E2,8.0249275E1,6.257443E2,1.3449878E2,4.9199554E2,5.2649524E2,6.7749384E2,1.3999873E2,3.2574704E2,8.84992E2,2.0647312E3,3.972464E2,5.0224545E2,2.2599796E2,3.2274707E2,5.862447E2,5.312452E2,9.9449097E2,6.244943E2,2.0187317E3,1.1509896E3,1.8899829E2,1.5624858E2,5.394951E2,1.4499868E1,5.1099536E2,2.4374779E2,4.7049573E2,4.8324564E2,8.9074194E2,6.974937E1,1.984982E2,7.72493E1,4.6749577E1,3.3499695E1,4.742457E2,1.5149863E2,1.0349906E2,3.099972E1,1.9724821E2,2.947473E2,3.3949692E2,1.869983E2,3.6974664E2,3.0774722E2,1.0674903E2,3.32497E1,2.9999728E2,2.5749767E1,7.0324365E2,1.8174835E2,1.2499887E0,2.0634812E3,1.6974846E2,2.2749794E2,3.4999683E0,4.9874548E2,1.7824838E2,4.774957E1,1.7549841E2,1.4724867E2,5.324952E2,5.374951E1,4.6849576E2,6.274943E1,3.8174655E2,6.1274445E2,4.0249637E2,2.2199799E2,5.9899457E2,5.51995E2,1.4499869E2,4.3999603E1,1.0724903E2,4.8999557E1,3.8349652E2,1.5599858E2,6.9999366E0,7.4999323E0,4.6249582E2,4.849956E1,1.4649867E2,9.724912E1,2.5699768E2,2.1349806E2,3.8524652E2,9.7999115E1,3.2624704E2,5.644949E2,4.3999603E1,2.5749767E1,1.0374906E2,9.474914E1,4.1499622E1,3.5749676E1],"tree_param":{"num_deleted":"0","num_feature":"98","num_nodes":"125","size_leaf_vector":"1"}},{"base_weights":[4.550563E-3,-1.0770174E0,1.0661618E0,6.165666E-1,-1.4661063E0,1.6135498E0,-4.9981374E-2,-1.0646638E0,1.2508934E0,-1.7656596E0,-9.237901E-1,1.7778926E0,1.1670791E0,-6.4978594E-1,8.551873E-1,3.6088476E-1,-1.4077858E0,1.669533E0,7.5926715E-1,-1.4302363E0,-1.8319335E0,-1.2606949E-2,-1.4005728E0,1.4503797E0,1.8373685E0,4.9311903E-1,1.5497324E0,-1.7605144E-1,-1.0538974E0,1.1607047E0,-7.067934E-2,-1.2411816E0,1.34867E0,-1.514798E0,1.4525868E-1,1.8932399E0,1.4516919E0,-2.7661948E-2,1.1471074E0,-1.7909164E0,-9.4969666E-1,-1.8687813E0,-1.6516577E0,-2.9867643E-1,5.951759E-1,-1.1140114E0,-1.7339052E0,1.8181608E0,1.1063118E0,1.8835521E0,1.7161702E0,6.314851E-1,-5.909789E-1,1.3691847E0,1.7677213E0,-5.363473E-1,2.5453556E-1,-7.508462E-1,-1.3587388E0,8.73867E-1,1.5682713E0,-4.9639273E-1,7.171953E-1,5.7231266E-2,-6.952168E-2,7.491444E-2,7.886993E-3,-8.392953E-2,-3.9176382E-2,2.6958534E-2,-2.5470477E-2,9.436126E-2,3.1085076E-2,3.8890723E-2,8.020983E-2,-9.5913345E-3,6.1128646E-2,6.477542E-2,3.380679E-2,-8.977268E-2,7.3339893E-3,-5.834568E-2,-1.1802281E-2,-9.292297E-2,-9.87832E-3,-6.7370206E-2,-8.995464E-2,5.2218544E-3,-3.1952813E-2,5.114756E-2,-1.8401145E-3,-6.0961973E-2,-1.0284771E-2,-8.7987356E-2,-6.233796E-2,9.077096E-2,2.4049262E-2,6.660014E-2,3.0087525E-2,2.0042945E-2,9.361241E-2,7.71187E-2,9.2245884E-2,1.6541239E-2,4.896992E-2,-3.974788E-2,4.057937E-2,7.8599066E-2,5.3445127E-2,9.032503E-2,7.5210184E-2,-1.2078929E-2,-4.4160455E-2,4.5297418E-2,-4.364157E-4,-4.7676653E-2,-3.1446887E-3,-7.2250344E-2,-2.929483E-2,6.084448E-2,2.4404762E-2,7.897126E-2,2.2314258E-2,-9.386349E-3,-5.5211764E-2,4.247622E-2,-3.270367E-2],"categories":[],"categories_nodes":[],"categories_segments":[],"categories_sizes":[],"default_left":[0,0,0,0,0,0,0,0,0,0,0,0,0,0,0,0,0,0,0,0,0,0,0,0,0,0,0,0,0,0,0,0,0,0,0,0,0,0,0,0,0,0,0,0,0,0,0,0,0,0,0,0,0,0,0,0,0,0,0,0,0,0,0,0,0,0,0,0,0,0,0,0,0,0,0,0,0,0,0,0,0,0,0,0,0,0,0,0,0,0,0,0,0,0,0,0,0,0,0,0,0,0,0,0,0,0,0,0,0,0,0,0,0,0,0,0,0,0,0,0,0,0,0,0,0,0,0],"id":1,"left_children":[1,3,5,7,9,11,13,15,17,19,21,23,25,27,29,31,33,35,37,39,41,43,45,47,49,51,53,55,57,59,61,63,65,67,69,71,73,75,77,79,81,83,85,87,89,91,93,95,97,99,101,103,105,107,109,111,113,115,117,119,121,123,125,-1,-1,-1,-1,-1,-1,-1,-1,-1,-1,-1,-1,-1,-1,-1,-1,-1,-1,-1,-1,-1,-1,-1,-1,-1,-1,-1,-1,-1,-1,-1,-1,-1,-1,-1,-1,-1,-1,-1,-1,-1,-1,-1,-1,-1,-1,-1,-1,-1,-1,-1,-1,-1,-1,-1,-1,-1,-1,-1,-1,-1,-1,-1,-1],"loss_changes":[1.9673584E4,5.5938438E3,5.28321E3,1.6932852E3,1.1191387E3,4.230537E2,1.5459395E3,2.1352008E2,2.3548865E2,9.55166E1,1.0678384E3,7.92168E1,4.0238452E2,3.2753174E2,3.212085E2,1.3680936E2,5.872577E1,2.6834473E1,1.6256784E2,1.2583533E2,2.078418E1,1.4720804E2,1.5167871E2,8.056958E1,1.6036133E1,8.567293E1,3.619629E1,1.2272275E2,8.3982056E1,9.7969604E1,9.5142426E1,1.4334091E1,9.64135E0,3.98255E1,6.4818435E0,6.002197E-1,3.3099976E1,3.6912064E1,2.4837067E1,1.3289307E1,5.0579346E1,5.7841797E0,2.6912476E1,8.020558E1,7.450465E1,8.870715E1,1.0305664E1,2.3704834E0,3.9015564E1,2.6757812E-1,1.9466309E1,5.283542E1,1.979771E1,3.2183838E1,2.2458496E0,4.4127724E1,6.246913E1,6.666821E1,3.245813E1,6.671768E1,7.2284546E0,3.4441826E1,1.948407E1,0E0,0E0,0E0,0E0,0E0,0E0,0E0,0E0,0E0,0E0,0E0,0E0,0E0,0E0,0E0,0E0,0E0,0E0,0E0,0E0,0E0,0E0,0E0,0E0,0E0,0E0,0E0,0E0,0E0,0E0,0E0,0E0,0E0,0E0,0E0,0E0,0E0,0E0,0E0,0E0,0E0,0E0,0E0,0E0,0E0,0E0,0E0,0E0,0E0,0E0,0E0,0E0,0E0,0E0,0E0,0E0,0E0,0E0,0E0,0E0,0E0,0E0,0E0,0E0],"parents":[2147483647,0,0,1,1,2,2,3,3,4,4,5,5,6,6,7,7,8,8,9,9,10,10,11,11,12,12,13,13,14,14,15,15,16,16,17,17,18,18,19,19,20,20,21,21,22,22,23,23,24,24,25,25,26,26,27,27,28,28,29,29,30,30,31,31,32,32,33,33,34,34,35,35,36,36,37,37,38,38,39,39,40,40,41,41,42,42,43,43,44,44,45,45,46,46,47,47,48,48,49,49,50,50,51,51,52,52,53,53,54,54,55,55,56,56,57,57,58,58,59,59,60,60,61,61,62,62],"right_children":[2,4,6,8,10,12,14,16,18,20,22,24,26,28,30,32,34,36,38,40,42,44,46,48,50,52,54,56,58,60,62,64,66,68,70,72,74,76,78,80,82,84,86,88,90,92,94,96,98,100,102,104,106,108,110,112,114,116,118,120,122,124,126,-1,-1,-1,-1,-1,-1,-1,-1,-1,-1,-1,-1,-1,-1,-1,-1,-1,-1,-1,-1,-1,-1,-1,-1,-1,-1,-1,-1,-1,-1,-1,-1,-1,-1,-1,-1,-1,-1,-1,-1,-1,-1,-1,-1,-1,-1,-1,-1,-1,-1,-1,-1,-1,-1,-1,-1,-1,-1,-1,-1,-1,-1,-1,-1],"split_conditions":[6.3076925E-1,6.486486E-1,7.446808E-1,5.522388E-1,5.888889E-1,6.9736844E-1,6.956522E-1,5.641026E-1,6.052632E-1,6.944444E-1,7.2307694E-1,6.5E-1,6.708861E-1,7.9310346E-1,8.333333E-1,5.0769234E-1,1.1320755E-1,5.6060606E-1,5.860465E-1,5.535714E-1,5.744681E-1,8.3333336E-2,7.941176E-1,6.333333E-1,6.5909094E-1,6.741573E-2,7.195122E-1,6.617647E-1,8.333333E-1,7.413793E-1,7.5E-1,4.4444445E-1,5.9210528E-2,5.3968257E-1,4.8387095E-2,1E0,5.7575756E-1,1.1904762E-1,4.6875E-2,1.7977528E-1,8.3333336E-2,3.265306E-1,7.5555557E-1,6.847826E-1,3.75E-2,1.3725491E-1,1.6E-1,3.67E1,4.109589E-2,5.882353E-1,6.981132E-1,7.54717E-2,1.5E-1,3.529412E-2,5.8333334E-2,3.6697246E-2,1.9607844E-2,1.2328767E-1,1.6666667E-1,7.826087E-1,2.7586207E-1,5E-2,8.196721E-2,5.7231266E-2,-6.952168E-2,7.491444E-2,7.886993E-3,-8.392953E-2,-3.9176382E-2,2.6958534E-2,-2.5470477E-2,9.436126E-2,3.1085076E-2,3.8890723E-2,8.020983E-2,-9.5913345E-3,6.1128646E-2,6.477542E-2,3.380679E-2,-8.977268E-2,7.3339893E-3,-5.834568E-2,-1.1802281E-2,-9.292297E-2,-9.87832E-3,-6.7370206E-2,-8.995464E-2,5.2218544E-3,-3.1952813E-2,5.114756E-2,-1.8401145E-3,-6.0961973E-2,-1.0284771E-2,-8.7987356E-2,-6.233796E-2,9.077096E-2,2.4049262E-2,6.660014E-2,3.0087525E-2,2.0042945E-2,9.361241E-2,7.71187E-2,9.2245884E-2,1.6541239E-2,4.896992E-2,-3.974788E-2,4.057937E-2,7.8599066E-2,5.3445127E-2,9.032503E-2,7.5210184E-2,-1.2078929E-2,-4.4160455E-2,4.5297418E-2,-4.364157E-4,-4.7676653E-2,-3.1446887E-3,-7.2250344E-2,-2.929483E-2,6.084448E-2,2.4404762E-2,7.897126E-2,2.2314258E-2,-9.386349E-3,-5.5211764E-2,4.247622E-2,-3.270367E-2],"split_indices":[89,92,92,89,89,92,89,92,92,92,92,89,89,92,92,89,90,92,89,89,89,90,92,92,92,91,89,89,92,89,89,92,91,89,91,34,89,90,91,90,90,90,92,92,91,90,90,85,91,87,89,90,90,91,91,91,91,90,90,92,96,91,91,0,0,0,0,0,0,0,0,0,0,0,0,0,0,0,0,0,0,0,0,0,0,0,0,0,0,0,0,0,0,0,0,0,0,0,0,0,0,0,0,0,0,0,0,0,0,0,0,0,0,0,0,0,0,0,0,0,0,0,0,0,0,0,0],"split_type":[0,0,0,0,0,0,0,0,0,0,0,0,0,0,0,0,0,0,0,0,0,0,0,0,0,0,0,0,0,0,0,0,0,0,0,0,0,0,0,0,0,0,0,0,0,0,0,0,0,0,0,0,0,0,0,0,0,0,0,0,0,0,0,0,0,0,0,0,0,0,0,0,0,0,0,0,0,0,0,0,0,0,0,0,0,0,0,0,0,0,0,0,0,0,0,0,0,0,0,0,0,0,0,0,0,0,0,0,0,0,0,0,0,0,0,0,0,0,0,0,0,0,0,0,0,0,0],"sum_hessian":[1.713196E4,8.486159E3,8.645802E3,1.585227E3,6.900932E3,5.8006104E3,2.8451912E3,4.3400488E2,1.1512222E3,4.4436885E3,2.457244E3,4.237298E3,1.5633126E3,1.7115054E3,1.1336858E3,8.41267E1,3.4987817E2,6.201925E2,5.310297E2,7.375975E2,3.7060908E3,8.445646E2,1.6126793E3,6.5588947E2,3.5814084E3,5.67187E2,9.961256E2,7.887449E2,9.227605E2,8.52278E2,2.814078E2,3.1936007E1,5.2190697E1,3.2741266E2,2.2465504E1,3.014672E2,3.1872528E2,1.7557162E2,3.5545807E2,4.1946796E2,3.181295E2,3.0678958E3,6.381952E2,5.7477527E2,2.697893E2,8.699758E2,7.427035E2,3.145414E2,3.4134802E2,2.5807544E3,1.0006541E3,5.0349155E2,6.369551E1,5.49601E2,4.465246E2,4.294041E2,3.5934076E2,4.6486646E2,4.5789404E2,5.024558E2,3.498222E2,1.8304942E2,9.83584E1,1.497332E0,3.0438673E1,4.5698208E1,6.49249E0,2.627484E2,6.4664246E1,1.4228647E1,8.236856E0,2.9946838E2,1.9988159E0,6.369015E1,2.5503514E2,1.5608827E2,1.9483356E1,2.6453653E2,9.092154E1,4.1622327E2,3.2446942E0,2.4121872E2,7.691078E1,3.0653994E3,2.496277E0,2.2673831E2,4.1145688E2,2.6478885E2,3.0998645E2,1.5962782E2,1.1016146E2,7.7327954E2,9.669624E1,6.8673267E2,5.597082E1,3.1204437E2,2.4970403E0,2.3122209E2,1.1012594E2,9.986142E-1,2.5797556E3,4.6756372E2,5.330904E2,2.744665E2,2.2902505E2,5.5951122E1,7.7443876E0,3.157207E2,2.3388033E2,3.6694998E2,7.95746E1,2.3555519E2,1.9384892E2,1.0212705E2,2.572137E2,3.5619107E2,1.08675385E2,4.0641922E2,5.1474796E1,2.6080038E2,2.4165541E2,3.4282645E2,6.9957566E0,1.23109314E2,5.99401E1,8.986805E1,8.490352E0],"tree_param":{"num_deleted":"0","num_feature":"98","num_nodes":"127","size_leaf_vector":"1"}},{"base_weights":[4.1181067E-4,1.0621637E0,-1.0402284E0,-9.733694E-1,1.4815252E0,-1.557877E0,4.191563E-1,1.0593543E0,-1.4003323E0,7.67018E-1,1.6726469E0,-1.7536229E0,-1.0166733E0,9.042025E-1,-7.7724063E-1,-7.5807154E-1,1.540235E0,-1.6639212E0,-8.633268E-1,1.6284374E0,-8.8356905E-2,1.784674E0,1.3518218E0,-1.7984791E0,-1.5427675E0,-4.081862E-1,-1.5137277E0,4.1701543E-1,1.3759406E0,-1.2178421E0,8.91419E-2,1.0820543E0,-1.1727785E0,4.2213982E-1,1.6494308E0,-1.3290907E0,-1.7487237E0,8.25084E-2,-1.3096513E0,1.7803575E0,1.3193691E0,5.251684E-1,-3.5445657E-1,2.8826407E-1,1.787303E0,7.511209E-1,1.6174716E0,-4.1454947E-1,-1.8011152E0,-1.2013428E0,-1.7408695E0,-1.10177405E-1,-8.012421E-1,-1.1383606E0,-1.6326814E0,7.757976E-1,-2.1679842E-1,1.1845196E0,1.6420153E0,-1.3664432E0,-5.104896E-1,-8.022468E-1,4.0996915E-1,7.662989E-2,-2.5378497E-2,-7.6157965E-2,4.6280418E-2,5.7964444E-2,-1.5169773E-2,8.735211E-2,5.7401516E-2,-7.6441064E-2,-1.6723448E-2,-8.948231E-2,-7.396479E-2,-2.9140301E-2,2.5664976E-2,-6.7051634E-2,2.0625701E-2,2.735296E-2,8.924186E-2,7.4365586E-2,4.817135E-2,4.4346113E-2,-5.030688E-3,-3.4926753E-2,2.842536E-3,4.9837343E-2,-1.9839982E-2,9.023775E-2,8.365122E-2,5.1262353E-2,1.5854856E-2,7.063164E-2,8.702972E-2,3.857419E-2,-4.802583E-2,-8.593065E-2,-9.0708666E-2,-6.505093E-2,-2.10951E-2,4.2331274E-4,-8.676561E-2,9.236094E-3,-2.8369503E-2,-5.57781E-2,-1.679911E-2,-3.515662E-2,-6.773752E-2,-8.878334E-2,-7.256894E-2,2.6992977E-2,5.40137E-2,1.5071031E-2,-2.9636845E-2,6.421541E-2,2.8783428E-2,5.4230385E-2,8.4388226E-2,-4.645151E-2,-7.63604E-2,-5.1076874E-2,1.960174E-3,-7.44234E-4,-5.429966E-2,-1.7257439E-3,5.101525E-2],"categories":[],"categories_nodes":[],"categories_segments":[],"categories_sizes":[],"default_left":[0,0,0,0,0,0,0,0,0,0,0,0,0,0,0,0,0,0,0,0,0,0,0,0,0,0,0,0,0,0,0,0,0,0,0,0,0,0,0,0,0,0,0,0,0,0,0,0,0,0,0,0,0,0,0,0,0,0,0,0,0,0,0,0,0,0,0,0,0,0,0,0,0,0,0,0,0,0,0,0,0,0,0,0,0,0,0,0,0,0,0,0,0,0,0,0,0,0,0,0,0,0,0,0,0,0,0,0,0,0,0,0,0,0,0,0,0,0,0,0,0,0,0,0,0,0,0],"id":2,"left_children":[1,3,5,7,9,11,13,15,17,19,21,23,25,27,29,31,33,35,37,39,41,43,45,47,49,51,53,55,57,59,61,63,65,67,69,71,73,75,77,79,81,83,85,87,89,91,93,95,97,99,101,103,105,107,109,111,113,115,117,119,121,123,125,-1,-1,-1,-1,-1,-1,-1,-1,-1,-1,-1,-1,-1,-1,-1,-1,-1,-1,-1,-1,-1,-1,-1,-1,-1,-1,-1,-1,-1,-1,-1,-1,-1,-1,-1,-1,-1,-1,-1,-1,-1,-1,-1,-1,-1,-1,-1,-1,-1,-1,-1,-1,-1,-1,-1,-1,-1,-1,-1,-1,-1,-1,-1,-1],"loss_changes":[1.887574E4,7.220002E3,6.5185195E3,1.2559603E3,9.5585254E2,6.724131E2,1.3121807E3,2.2116083E2,1.672456E2,1.0923164E3,1.9575098E2,4.074707E1,5.116073E2,3.6883826E2,2.4929031E2,4.2129807E1,2.332785E1,1.978003E1,1.6736145E2,3.1707153E1,1.21757385E2,1.5317383E1,2.276023E2,1.2967773E1,5.337439E1,8.923613E1,3.9239014E1,1.8058002E2,3.91062E1,4.4495117E1,6.3506218E1,8.57683E0,3.506521E1,1.0956117E1,7.117981E0,3.3829407E1,5.236206E0,3.7464058E1,1.9168732E1,8.072876E0,1.3484985E1,5.208556E1,7.472025E1,4.7376614E0,8.375977E0,5.313806E1,2.2993164E1,6.6845493E0,2.7910156E0,2.498291E1,4.9882812E0,5.959143E1,4.8362366E1,2.0806915E1,1.54313965E1,3.5841003E1,5.69831E1,3.0224731E1,8.109436E0,2.43432E1,2.2067055E1,1.3305523E1,4.4920555E1,0E0,0E0,0E0,0E0,0E0,0E0,0E0,0E0,0E0,0E0,0E0,0E0,0E0,0E0,0E0,0E0,0E0,0E0,0E0,0E0,0E0,0E0,0E0,0E0,0E0,0E0,0E0,0E0,0E0,0E0,0E0,0E0,0E0,0E0,0E0,0E0,0E0,0E0,0E0,0E0,0E0,0E0,0E0,0E0,0E0,0E0,0E0,0E0,0E0,0E0,0E0,0E0,0E0,0E0,0E0,0E0,0E0,0E0,0E0,0E0,0E0,0E0,0E0,0E0],"parents":[2147483647,0,0,1,1,2,2,3,3,4,4,5,5,6,6,7,7,8,8,9,9,10,10,11,11,12,12,13,13,14,14,15,15,16,16,17,17,18,18,19,19,20,20,21,21,22,22,23,23,24,24,25,25,26,26,27,27,28,28,29,29,30,30,31,31,32,32,33,33,34,34,35,35,36,36,37,37,38,38,39,39,40,40,41,41,42,42,43,43,44,44,45,45,46,46,47,47,48,48,49,49,50,50,51,51,52,52,53,53,54,54,55,55,56,56,57,57,58,58,59,59,60,60,61,61,62,62],"right_children":[2,4,6,8,10,12,14,16,18,20,22,24,26,28,30,32,34,36,38,40,42,44,46,48,50,52,54,56,58,60,62,64,66,68,70,72,74,76,78,80,82,84,86,88,90,92,94,96,98,100,102,104,106,108,110,112,114,116,118,120,122,124,126,-1,-1,-1,-1,-1,-1,-1,-1,-1,-1,-1,-1,-1,-1,-1,-1,-1,-1,-1,-1,-1,-1,-1,-1,-1,-1,-1,-1,-1,-1,-1,-1,-1,-1,-1,-1,-1,-1,-1,-1,-1,-1,-1,-1,-1,-1,-1,-1,-1,-1,-1,-1,-1,-1,-1,-1,-1,-1,-1,-1,-1,-1,-1,-1],"split_conditions":[6.3076925E-1,5.769231E-1,6.617647E-1,5.423729E-1,6.226415E-1,6.1728394E-1,7.0731705E-1,5.185185E-1,5.522388E-1,5.764706E-1,5.97561E-1,5.970149E-1,6.8085104E-1,7.051282E-1,7.1794873E-1,4.909091E-1,9.7087376E-2,5.744681E-1,5.825243E-1,5.510204E-1,5.952381E-1,3.1746034E-2,6.603774E-1,3.1746034E-2,6.730769E-1,3.75E-2,7E-1,6.721311E-1,7.4626863E-1,8.245614E-1,1.5873017E-2,6E-2,6.3829786E-1,2.8985508E-2,1.4423077E-1,5.409836E-1,6.551724E-1,1.0526316E-1,7.846154E-1,6.8627454E-2,3.816794E-2,4.2105265E-2,6.034483E-1,6.117647E-1,5.764706E-1,3.75E-2,6.981132E-1,6.6292137E-1,6.6292137E-1,7.567568E-1,2E-2,6.6E-1,7.4311924E-1,6.349207E-2,7.307692E-1,7.6271184E-2,2.8037382E-2,6.9014084E-1,2.9411765E-2,7.234042E-1,5.121951E-1,1.4925373E-2,7.582418E-1,7.662989E-2,-2.5378497E-2,-7.6157965E-2,4.6280418E-2,5.7964444E-2,-1.5169773E-2,8.735211E-2,5.7401516E-2,-7.6441064E-2,-1.6723448E-2,-8.948231E-2,-7.396479E-2,-2.9140301E-2,2.5664976E-2,-6.7051634E-2,2.0625701E-2,2.735296E-2,8.924186E-2,7.4365586E-2,4.817135E-2,4.4346113E-2,-5.030688E-3,-3.4926753E-2,2.842536E-3,4.9837343E-2,-1.9839982E-2,9.023775E-2,8.365122E-2,5.1262353E-2,1.5854856E-2,7.063164E-2,8.702972E-2,3.857419E-2,-4.802583E-2,-8.593065E-2,-9.0708666E-2,-6.505093E-2,-2.10951E-2,4.2331274E-4,-8.676561E-2,9.236094E-3,-2.8369503E-2,-5.57781E-2,-1.679911E-2,-3.515662E-2,-6.773752E-2,-8.878334E-2,-7.256894E-2,2.6992977E-2,5.40137E-2,1.5071031E-2,-2.9636845E-2,6.421541E-2,2.8783428E-2,5.4230385E-2,8.4388226E-2,-4.645151E-2,-7.63604E-2,-5.1076874E-2,1.960174E-3,-7.44234E-4,-5.429966E-2,-1.7257439E-3,5.101525E-2],"split_indices":[94,89,89,94,89,89,94,89,89,94,94,89,94,89,89,94,97,94,94,94,94,97,89,95,94,91,94,94,89,87,97,91,87,91,95,89,87,97,87,97,91,91,89,86,94,91,89,94,94,87,95,94,87,95,87,97,91,94,97,94,88,95,89,0,0,0,0,0,0,0,0,0,0,0,0,0,0,0,0,0,0,0,0,0,0,0,0,0,0,0,0,0,0,0,0,0,0,0,0,0,0,0,0,0,0,0,0,0,0,0,0,0,0,0,0,0,0,0,0,0,0,0,0,0,0,0,0],"split_type":[0,0,0,0,0,0,0,0,0,0,0,0,0,0,0,0,0,0,0,0,0,0,0,0,0,0,0,0,0,0,0,0,0,0,0,0,0,0,0,0,0,0,0,0,0,0,0,0,0,0,0,0,0,0,0,0,0,0,0,0,0,0,0,0,0,0,0,0,0,0,0,0,0,0,0,0,0,0,0,0,0,0,0,0,0,0,0,0,0,0,0,0,0,0,0,0,0,0,0,0,0,0,0,0,0,0,0,0,0,0,0,0,0,0,0,0,0,0,0,0,0,0,0,0,0,0,0],"sum_hessian":[1.7081383E4,8.454966E3,8.626418E3,1.4440369E3,7.010929E3,6.3677505E3,2.2586672E3,2.5033017E2,1.1937067E3,1.4808765E3,5.5300527E3,4.6743765E3,1.6933738E3,1.6073667E3,6.5130035E2,5.2196064E1,1.9813411E2,7.989734E2,3.9473334E2,7.373848E2,7.434917E2,4.094762E3,1.4352905E3,3.8470103E3,8.273663E2,7.623618E2,9.3101196E2,7.91888E2,8.154787E2,4.3151532E2,2.1978506E2,9.220294E0,4.297577E1,1.8201097E1,1.79933E2,1.655056E2,6.334678E2,1.2677046E2,2.679629E2,4.9055658E2,2.4682826E2,2.2446713E2,5.1902454E2,7.469383E0,4.0872927E3,4.415466E2,9.9374396E2,7.727792E0,3.8392825E3,3.0690485E2,5.204614E2,4.3457846E2,3.2778336E2,2.2711514E2,7.0389685E2,5.055973E2,2.8629074E2,4.7807297E2,3.3740576E2,3.5561148E2,7.590385E1,5.763544E1,1.6214961E2,7.23239E0,1.9879043E0,3.7002743E1,5.9730277E0,8.730548E0,9.47055E0,1.4501129E2,3.492171E1,1.3609007E2,2.941553E1,5.2195715E2,1.1151059E2,4.9632206E1,7.713826E1,2.622274E2,5.7354984E0,6.73815E0,4.8381845E2,1.61207E2,8.562125E1,1.4130489E2,8.316225E1,2.8080682E2,2.3821771E2,3.48331E0,3.9860725E0,3.1872258E3,9.0006683E2,2.666304E2,1.7491618E2,4.0902817E2,5.8471576E2,2.2426567E0,5.485135E0,9.9413196E2,2.8451506E3,2.6871606E2,3.8188774E1,1.4957883E0,5.1896564E2,2.6484787E2,1.6973058E2,1.9245923E2,1.3532414E2,7.963673E1,1.4747842E2,3.6570786E2,3.38189E2,2.9131363E2,2.1428366E2,1.2077711E2,1.6551363E2,4.045748E2,7.349818E1,3.357874E1,3.0382703E2,1.028422E2,2.5276927E2,3.8701744E1,3.7202103E1,1.59512615E1,4.168418E1,9.473186E1,6.7417755E1],"tree_param":{"num_deleted":"0","num_feature":"98","num_nodes":"127","size_leaf_vector":"1"}},{"base_weights":[-7.022405E-3,1.1383512E0,-8.9351076E-1,-8.290933E-1,1.4935962E0,-1.4666196E0,4.1421932E-1,9.117612E-1,-1.2988689E0,9.407317E-1,1.663809E0,-1.6637133E0,-9.65357E-1,9.0338606E-1,-7.3956674E-1,-7.96961E-1,1.4209479E0,-1.5590867E0,-7.093921E-1,1.568367E0,1.3141437E-1,1.7270141E0,1.4449552E0,-1.4612787E0,-1.72627E0,-1.9858705E-1,-1.3720522E0,3.5977232E-1,1.299721E0,-1.1708982E0,1.2824167E-1,1.0833201E0,-1.2204646E0,1.5171655E0,-8.1897753E-1,-1.5991678E0,-2.1064898E-1,4.1386187E-2,-1.2293339E0,1.6110457E0,1.7725874E-1,-1.8290952E-1,8.678149E-1,1.7284735E0,-2.7704605E-1,8.634251E-1,1.5834435E0,-1.6927677E0,-1.0955896E0,-8.648974E-2,-1.3891107E0,-5.1737744E-1,5.079914E-1,-1.4948469E0,-5.0748605E-1,6.433896E-1,-4.85067E-1,1.416375E0,3.646404E-1,-1.3921295E0,-4.841138E-1,4.6847138E-1,-7.635583E-1,7.2682336E-2,-4.61016E-2,-7.377085E-2,5.4226603E-2,8.2357116E-2,5.0549358E-2,-6.277563E-2,2.4159368E-2,-6.3387685E-2,-8.2984455E-2,5.314686E-2,-4.219453E-2,-2.9417133E-2,2.7515966E-2,-6.5926164E-2,3.3887967E-2,8.544442E-2,6.494715E-2,3.8163252E-2,-3.4137644E-2,-2.9656345E-2,1.3952165E-2,5.7311993E-2,1.2598296E-2,8.6029686E-2,5.724855E-2,4.1615505E-2,-5.458785E-2,5.2253895E-2,-4.54683E-3,8.1501596E-2,4.6440497E-2,-8.4988415E-2,1.3258259E-2,-6.527389E-2,-1.9043198E-2,-3.3366628E-2,-7.856254E-2,-8.568751E-3,-4.949136E-2,3.7794586E-2,-2.2676958E-2,-6.0399298E-2,-8.42123E-2,-1.0048988E-3,-5.8378953E-2,4.9438156E-2,1.5968129E-3,-3.651822E-2,1.7939547E-2,5.5776257E-2,7.849211E-2,4.3609794E-2,-1.344909E-2,-5.3481355E-2,-7.770356E-2,7.9429294E-5,-5.7359386E-2,-1.7370797E-3,4.6353187E-2,7.4326233E-3,-5.497547E-2],"categories":[],"categories_nodes":[],"categories_segments":[],"categories_sizes":[],"default_left":[0,0,0,0,0,0,0,0,0,0,0,0,0,0,0,0,0,0,0,0,0,0,0,0,0,0,0,0,0,0,0,0,0,0,0,0,0,0,0,0,0,0,0,0,0,0,0,0,0,0,0,0,0,0,0,0,0,0,0,0,0,0,0,0,0,0,0,0,0,0,0,0,0,0,0,0,0,0,0,0,0,0,0,0,0,0,0,0,0,0,0,0,0,0,0,0,0,0,0,0,0,0,0,0,0,0,0,0,0,0,0,0,0,0,0,0,0,0,0,0,0,0,0,0,0],"id":3,"left_children":[1,3,5,7,9,11,13,15,17,19,21,23,25,27,29,31,33,35,37,39,41,43,45,47,49,51,53,55,57,59,61,63,65,67,69,71,73,75,77,79,81,83,85,87,89,91,93,95,97,-1,99,101,103,105,107,109,111,113,115,117,119,121,123,-1,-1,-1,-1,-1,-1,-1,-1,-1,-1,-1,-1,-1,-1,-1,-1,-1,-1,-1,-1,-1,-1,-1,-1,-1,-1,-1,-1,-1,-1,-1,-1,-1,-1,-1,-1,-1,-1,-1,-1,-1,-1,-1,-1,-1,-1,-1,-1,-1,-1,-1,-1,-1,-1,-1,-1,-1,-1,-1,-1,-1,-1],"loss_changes":[1.7208145E4,5.1694453E3,7.1609873E3,9.267988E2,5.874121E2,6.542051E2,1.6442333E3,2.11099E2,1.3528687E2,7.499536E2,6.3083984E1,5.7186523E1,5.850487E2,4.4000977E2,3.250082E2,4.6114887E1,4.1599792E1,3.2806152E1,1.07627655E2,4.8877808E1,1.4990018E2,1.1538086E1,8.519141E1,9.352661E1,1.447168E1,1.4719258E2,1.291582E2,2.0743143E2,1.2821631E2,8.712323E1,8.805012E1,9.8625555E0,3.013739E1,1.0367554E1,5.61857E0,1.1035034E1,1.6691933E1,3.7241634E1,3.13833E1,2.3763916E1,1.3927958E1,8.734654E1,3.350264E1,3.5107422E0,4.3758636E0,3.8007523E1,3.0066162E1,2.4495728E1,6.798462E1,0E0,1.9743256E1,7.398388E1,4.9927856E1,5.730957E1,5.0043495E1,1.389992E2,4.636692E1,4.8137207E1,4.3600292E1,2.1556885E1,4.6699486E1,4.9211777E1,2.5372768E1,0E0,0E0,0E0,0E0,0E0,0E0,0E0,0E0,0E0,0E0,0E0,0E0,0E0,0E0,0E0,0E0,0E0,0E0,0E0,0E0,0E0,0E0,0E0,0E0,0E0,0E0,0E0,0E0,0E0,0E0,0E0,0E0,0E0,0E0,0E0,0E0,0E0,0E0,0E0,0E0,0E0,0E0,0E0,0E0,0E0,0E0,0E0,0E0,0E0,0E0,0E0,0E0,0E0,0E0,0E0,0E0,0E0,0E0,0E0,0E0,0E0,0E0],"parents":[2147483647,0,0,1,1,2,2,3,3,4,4,5,5,6,6,7,7,8,8,9,9,10,10,11,11,12,12,13,13,14,14,15,15,16,16,17,17,18,18,19,19,20,20,21,21,22,22,23,23,24,24,25,25,26,26,27,27,28,28,29,29,30,30,31,31,32,32,33,33,34,34,35,35,36,36,37,37,38,38,39,39,40,40,41,41,42,42,43,43,44,44,45,45,46,46,47,47,48,48,50,50,51,51,52,52,53,53,54,54,55,55,56,56,57,57,58,58,59,59,60,60,61,61,62,62],"right_children":[2,4,6,8,10,12,14,16,18,20,22,24,26,28,30,32,34,36,38,40,42,44,46,48,50,52,54,56,58,60,62,64,66,68,70,72,74,76,78,80,82,84,86,88,90,92,94,96,98,-1,100,102,104,106,108,110,112,114,116,118,120,122,124,-1,-1,-1,-1,-1,-1,-1,-1,-1,-1,-1,-1,-1,-1,-1,-1,-1,-1,-1,-1,-1,-1,-1,-1,-1,-1,-1,-1,-1,-1,-1,-1,-1,-1,-1,-1,-1,-1,-1,-1,-1,-1,-1,-1,-1,-1,-1,-1,-1,-1,-1,-1,-1,-1,-1,-1,-1,-1,-1,-1,-1,-1],"split_conditions":[6.181818E-1,5.744681E-1,6.533333E-1,5.423729E-1,6.268657E-1,6.103896E-1,7E-1,5.185185E-1,5.522388E-1,5.753425E-1,5.92233E-1,6.5217394E-1,6.6E-1,6.9135803E-1,7.125E-1,4.909091E-1,1.2962963E-1,1.3207547E-1,5.825243E-1,1.4150943E-1,8.235294E-2,3.2544377E-1,6.5E-1,5.7272726E-1,1.6393442E-1,9.375E-2,1.4814815E-1,1.14285715E-1,1.6853933E-1,1.3461539E-1,7.5555557E-1,1.02564104E-1,9.859155E-2,5.294118E-1,6.909091E-1,5.6666666E-1,9.27835E-2,3.7383176E-2,1.4516129E-1,5.555556E-1,5.584416E-1,6.034483E-1,4.2857144E-2,2.3913044E-1,4.918033E-2,1.14285715E-1,1.5384616E-1,2.027027E-1,9.615385E-2,-8.648974E-2,6.8085104E-1,3.7037037E-2,1.1320755E-1,6.979167E-1,7.234042E-1,6.615385E-1,1.21212125E-1,7.169811E-1,3.3707865E-2,7.234042E-1,7.4603176E-1,8.3206105E-1,1.5873017E-2,7.2682336E-2,-4.61016E-2,-7.377085E-2,5.4226603E-2,8.2357116E-2,5.0549358E-2,-6.277563E-2,2.4159368E-2,-6.3387685E-2,-8.2984455E-2,5.314686E-2,-4.219453E-2,-2.9417133E-2,2.7515966E-2,-6.5926164E-2,3.3887967E-2,8.544442E-2,6.494715E-2,3.8163252E-2,-3.4137644E-2,-2.9656345E-2,1.3952165E-2,5.7311993E-2,1.2598296E-2,8.6029686E-2,5.724855E-2,4.1615505E-2,-5.458785E-2,5.2253895E-2,-4.54683E-3,8.1501596E-2,4.6440497E-2,-8.4988415E-2,1.3258259E-2,-6.527389E-2,-1.9043198E-2,-3.3366628E-2,-7.856254E-2,-8.568751E-3,-4.949136E-2,3.7794586E-2,-2.2676958E-2,-6.0399298E-2,-8.42123E-2,-1.0048988E-3,-5.8378953E-2,4.9438156E-2,1.5968129E-3,-3.651822E-2,1.7939547E-2,5.5776257E-2,7.849211E-2,4.3609794E-2,-1.344909E-2,-5.3481355E-2,-7.770356E-2,7.9429294E-5,-5.7359386E-2,-1.7370797E-3,4.6353187E-2,7.4326233E-3,-5.497547E-2],"split_indices":[94,89,89,94,89,89,94,89,89,94,94,94,94,89,89,94,96,90,94,96,90,96,89,89,90,90,90,96,96,90,94,96,90,94,86,94,95,90,90,94,94,89,91,96,95,96,96,90,90,0,94,91,96,94,94,94,90,89,95,94,94,87,95,0,0,0,0,0,0,0,0,0,0,0,0,0,0,0,0,0,0,0,0,0,0,0,0,0,0,0,0,0,0,0,0,0,0,0,0,0,0,0,0,0,0,0,0,0,0,0,0,0,0,0,0,0,0,0,0,0,0,0,0,0,0],"split_type":[0,0,0,0,0,0,0,0,0,0,0,0,0,0,0,0,0,0,0,0,0,0,0,0,0,0,0,0,0,0,0,0,0,0,0,0,0,0,0,0,0,0,0,0,0,0,0,0,0,0,0,0,0,0,0,0,0,0,0,0,0,0,0,0,0,0,0,0,0,0,0,0,0,0,0,0,0,0,0,0,0,0,0,0,0,0,0,0,0,0,0,0,0,0,0,0,0,0,0,0,0,0,0,0,0,0,0,0,0,0,0,0,0,0,0,0,0,0,0,0,0,0,0,0,0],"sum_hessian":[1.694559E4,7.393061E3,9.552528E3,1.130461E3,6.2626E3,6.6417456E3,2.910783E3,2.399592E2,8.905019E2,1.4760933E3,4.786507E3,4.7652544E3,1.8764912E3,2.0443722E3,8.664108E2,5.4896614E1,1.8506258E2,6.1637897E2,2.7412292E2,8.306946E2,6.453987E2,3.7075308E3,1.0789758E3,1.1318059E3,3.6334485E3,6.510171E2,1.2254741E3,8.630386E2,1.1813336E3,5.7856854E2,2.878423E2,9.723802E0,4.5172813E1,1.7783356E2,7.2290235E0,5.983081E2,1.8070864E1,1.1250534E2,1.6161757E2,8.0572235E2,2.4972267E1,4.5282205E2,1.9257666E2,3.7050396E3,2.4913688E0,2.0924205E2,8.697337E2,6.9039716E2,4.4140878E2,3.4808416E3,1.5260704E2,4.4892328E2,2.0209381E2,1.0722413E3,1.532327E2,6.464228E2,2.166158E2,1.0496906E3,1.3164308E2,4.366149E2,1.4195363E2,2.0882512E2,7.9017166E1,8.482566E0,1.2412359E0,4.0942757E1,4.2300544E0,1.366748E2,4.1158756E1,5.479452E0,1.7495712E0,1.11607956E2,4.8670016E2,5.706189E0,1.2364674E1,5.014114E1,6.23642E1,1.5416052E2,7.457043E0,5.897028E2,2.1601955E2,1.4979292E1,9.992975E0,2.3920137E2,2.1362068E2,1.3067224E2,6.1904427E1,3.6844739E3,2.0565569E1,9.940286E-1,1.4973402E0,1.7479509E2,3.4446957E1,7.9806384E2,7.166988E1,6.8445087E2,5.946232E0,3.3713153E2,1.04277275E2,3.3385727E1,1.1922131E2,2.6191336E2,1.8700992E2,1.6041893E2,4.1674892E1,4.5078296E2,6.2145844E2,8.932814E1,6.390456E1,4.0984445E2,2.3657832E2,1.6744226E2,4.9173542E1,3.7823343E2,6.7145715E2,7.2685585E1,5.89575E1,1.5681604E2,2.7979886E2,8.286729E1,5.908634E1,1.00590225E2,1.082349E2,2.1657497E1,5.735967E1],"tree_param":{"num_deleted":"0","num_feature":"98","num_nodes":"125","size_leaf_vector":"1"}},{"base_weights":[8.019538E-4,1.046272E0,-8.881562E-1,-3.8555685E-1,1.3697028E0,-1.4318794E0,4.015855E-2,8.914224E-1,-1.0482643E0,1.6056331E0,9.688582E-1,-1.0463489E0,-1.5882359E0,5.9693015E-1,-8.3469784E-1,-1.8195315E-1,1.2782602E0,-1.4994799E0,-6.306944E-1,1.3717456E0,1.6514885E0,9.049104E-2,1.2879807E0,-1.5227718E0,-5.365302E-1,-1.6598928E0,-1.3943821E0,1.9251917E-1,1.0215816E0,-1.0729984E0,1.19787514E-1,1.4127431E0,-7.213873E-1,1.3890494E0,4.413866E-3,-8.11636E-2,-1.302756E0,-2.1102509E-2,-9.840535E-1,1.5937624E0,9.7822195E-1,1.6525424E0,-8.619411E-3,2.913598E-1,-8.115413E-1,8.875718E-1,1.434515E0,-8.246796E-2,-1.3069329E0,-3.8141373E-1,-1.1885617E0,-1.5457171E0,-8.362654E-2,-1.125298E0,-1.5931143E0,5.10244E-1,-2.9758686E-1,1.1229539E0,2.3780729E-1,-8.426404E-1,-1.4629875E0,4.617052E-1,-8.126334E-1,7.7657014E-2,-3.728971E-2,-7.442635E-2,-1.2894517E-2,7.969236E-2,4.292705E-2,4.6724163E-2,-2.1024423E-2,-4.9026206E-2,-7.0812985E-2,1.6243715E-2,-3.7808362E-2,-3.8994677E-2,-6.784845E-2,7.9610445E-2,-2.9034367E-2,5.7757657E-2,1.3756338E-2,8.3518915E-2,7.7481054E-2,2.2189803E-2,-2.9374834E-2,-2.6787926E-2,-6.5354824E-2,5.4863684E-2,9.755022E-3,7.368168E-2,4.4420186E-2,-5.3429488E-2,-7.465391E-2,-3.4050528E-2,-1.4027399E-3,1.3889515E-2,-6.0771354E-2,-8.125235E-2,-6.3441E-2,-4.2403184E-2,-6.749379E-2,-7.210644E-2,-8.2740106E-2,3.3014566E-2,-1.03256535E-2,-7.1177835E-4,-4.1195225E-2,6.456582E-2,3.948396E-2,-6.0531656E-5,5.3425636E-2,-4.8768643E-2,-4.633921E-3,-5.550476E-2,-7.5862974E-2,4.2537723E-2,4.3588397E-3,-5.087457E-2,8.633776E-3],"categories":[],"categories_nodes":[],"categories_segments":[],"categories_sizes":[],"default_left":[0,0,0,0,0,0,0,0,0,0,0,0,0,0,0,0,0,0,0,0,0,0,0,0,0,0,0,0,0,0,0,0,0,0,0,0,0,0,0,0,0,0,0,0,0,0,0,0,0,0,0,0,0,0,0,0,0,0,0,0,0,0,0,0,0,0,0,0,0,0,0,0,0,0,0,0,0,0,0,0,0,0,0,0,0,0,0,0,0,0,0,0,0,0,0,0,0,0,0,0,0,0,0,0,0,0,0,0,0,0,0,0,0,0,0,0,0,0,0],"id":4,"left_children":[1,3,5,7,9,11,13,15,17,19,21,23,25,27,29,31,33,35,37,39,41,43,45,47,49,51,53,55,57,59,61,63,65,67,69,-1,71,73,75,77,79,81,-1,83,85,87,89,-1,91,93,95,97,-1,99,101,103,105,107,109,111,113,115,117,-1,-1,-1,-1,-1,-1,-1,-1,-1,-1,-1,-1,-1,-1,-1,-1,-1,-1,-1,-1,-1,-1,-1,-1,-1,-1,-1,-1,-1,-1,-1,-1,-1,-1,-1,-1,-1,-1,-1,-1,-1,-1,-1,-1,-1,-1,-1,-1,-1,-1,-1,-1,-1,-1,-1,-1],"loss_changes":[1.5581735E4,3.568713E3,4.5737446E3,1.203196E3,5.923867E2,3.4231348E2,1.6312759E3,2.0212549E2,1.7502246E2,3.954785E1,6.533313E2,4.0019165E2,5.351465E1,3.5112152E2,2.9648462E2,1.1259141E2,5.0283752E1,9.119934E0,1.0500264E2,5.5226196E1,6.8242188E0,1.13038155E2,9.8666504E1,2.2457153E1,8.024057E1,4.525879E0,5.673462E1,1.6366592E2,7.884595E1,9.201868E1,8.363688E1,1.2150452E1,3.4402164E1,3.524823E1,1.2425319E1,0E0,5.421417E0,4.6756325E1,2.2042603E1,8.755249E0,3.0408417E1,5.3984375E0,0E0,7.016362E1,1.4599266E1,6.867282E1,3.0893799E1,0E0,1.3160522E1,6.944789E1,8.222305E0,9.662231E0,0E0,2.8436707E1,3.4158936E0,7.0764175E1,6.2142788E1,4.97782E1,2.3297861E1,6.824573E1,6.300171E0,2.8113472E1,1.4952492E1,0E0,0E0,0E0,0E0,0E0,0E0,0E0,0E0,0E0,0E0,0E0,0E0,0E0,0E0,0E0,0E0,0E0,0E0,0E0,0E0,0E0,0E0,0E0,0E0,0E0,0E0,0E0,0E0,0E0,0E0,0E0,0E0,0E0,0E0,0E0,0E0,0E0,0E0,0E0,0E0,0E0,0E0,0E0,0E0,0E0,0E0,0E0,0E0,0E0,0E0,0E0,0E0,0E0,0E0,0E0,0E0],"parents":[2147483647,0,0,1,1,2,2,3,3,4,4,5,5,6,6,7,7,8,8,9,9,10,10,11,11,12,12,13,13,14,14,15,15,16,16,17,17,18,18,19,19,20,20,21,21,22,22,23,23,24,24,25,25,26,26,27,27,28,28,29,29,30,30,31,31,32,32,33,33,34,34,36,36,37,37,38,38,39,39,40,40,41,41,43,43,44,44,45,45,46,46,48,48,49,49,50,50,51,51,53,53,54,54,55,55,56,56,57,57,58,58,59,59,60,60,61,61,62,62],"right_children":[2,4,6,8,10,12,14,16,18,20,22,24,26,28,30,32,34,36,38,40,42,44,46,48,50,52,54,56,58,60,62,64,66,68,70,-1,72,74,76,78,80,82,-1,84,86,88,90,-1,92,94,96,98,-1,100,102,104,106,108,110,112,114,116,118,-1,-1,-1,-1,-1,-1,-1,-1,-1,-1,-1,-1,-1,-1,-1,-1,-1,-1,-1,-1,-1,-1,-1,-1,-1,-1,-1,-1,-1,-1,-1,-1,-1,-1,-1,-1,-1,-1,-1,-1,-1,-1,-1,-1,-1,-1,-1,-1,-1,-1,-1,-1,-1,-1,-1,-1],"split_conditions":[6.229508E-1,6.486486E-1,7.358491E-1,5.584416E-1,5.816327E-1,6.593407E-1,6.923077E-1,5.810811E-1,5.974026E-1,6.944444E-1,7.096774E-1,6.6071427E-1,6.9014084E-1,7.9452056E-1,8.3870965E-1,5E-1,1.0606061E-1,5.6363636E-1,5.882353E-1,5.535714E-1,3.2544377E-1,5.6338027E-2,7.5E-1,6.226415E-1,5.6603774E-2,6.756757E-1,7E-1,6.615385E-1,1.594203E-1,7.446808E-1,7.5555557E-1,1.04166664E-1,5.3125E-1,5.377358E-1,5.135135E-1,-8.11636E-2,5.825243E-1,4.1322313E-2,4.3165468E-2,2.6E-1,5.263158E-2,5.619048E-1,-8.619411E-3,1.1627907E-1,7.8431375E-2,9.259259E-2,1.5384616E-1,-8.246796E-2,2.9411765E-2,7.027027E-1,6.1538464E-1,6.617647E-1,-8.362654E-2,3.2258064E-2,7.234042E-1,5.882353E-2,4.4444446E-2,6.621622E-1,8.695652E-1,1.6883117E-1,1.5151516E-2,3.448276E-2,9.019608E-1,7.7657014E-2,-3.728971E-2,-7.442635E-2,-1.2894517E-2,7.969236E-2,4.292705E-2,4.6724163E-2,-2.1024423E-2,-4.9026206E-2,-7.0812985E-2,1.6243715E-2,-3.7808362E-2,-3.8994677E-2,-6.784845E-2,7.9610445E-2,-2.9034367E-2,5.7757657E-2,1.3756338E-2,8.3518915E-2,7.7481054E-2,2.2189803E-2,-2.9374834E-2,-2.6787926E-2,-6.5354824E-2,5.4863684E-2,9.755022E-3,7.368168E-2,4.4420186E-2,-5.3429488E-2,-7.465391E-2,-3.4050528E-2,-1.4027399E-3,1.3889515E-2,-6.0771354E-2,-8.125235E-2,-6.3441E-2,-4.2403184E-2,-6.749379E-2,-7.210644E-2,-8.2740106E-2,3.3014566E-2,-1.03256535E-2,-7.1177835E-4,-4.1195225E-2,6.456582E-2,3.948396E-2,-6.0531656E-5,5.3425636E-2,-4.8768643E-2,-4.633921E-3,-5.550476E-2,-7.5862974E-2,4.2537723E-2,4.3588397E-3,-5.087457E-2,8.633776E-3],"split_indices":[94,87,87,94,94,94,94,87,87,87,87,87,87,87,87,94,96,87,94,94,96,91,87,87,91,94,94,94,96,94,94,96,87,94,94,0,94,91,91,96,91,94,0,96,91,96,96,0,91,87,92,87,0,91,94,91,91,94,87,90,91,91,87,0,0,0,0,0,0,0,0,0,0,0,0,0,0,0,0,0,0,0,0,0,0,0,0,0,0,0,0,0,0,0,0,0,0,0,0,0,0,0,0,0,0,0,0,0,0,0,0,0,0,0,0,0,0,0,0],"split_type":[0,0,0,0,0,0,0,0,0,0,0,0,0,0,0,0,0,0,0,0,0,0,0,0,0,0,0,0,0,0,0,0,0,0,0,0,0,0,0,0,0,0,0,0,0,0,0,0,0,0,0,0,0,0,0,0,0,0,0,0,0,0,0,0,0,0,0,0,0,0,0,0,0,0,0,0,0,0,0,0,0,0,0,0,0,0,0,0,0,0,0,0,0,0,0,0,0,0,0,0,0,0,0,0,0,0,0,0,0,0,0,0,0,0,0,0,0,0,0],"sum_hessian":[1.6763477E4,7.7035454E3,9.059932E3,1.4193851E3,6.2841606E3,5.7131714E3,3.34676E3,4.847563E2,9.346289E2,3.9535334E3,2.330627E3,1.6511757E3,4.0619958E3,2.0454696E3,1.3012904E3,1.2850768E2,3.562486E2,4.4769406E2,4.8693484E2,6.5414325E2,3.2993901E3,6.2156775E2,1.7090592E3,8.5228107E2,7.9889453E2,2.9591199E3,1.1028759E3,1.0486677E3,9.9680194E2,1.0412877E3,2.600027E2,3.1972555E1,9.6535126E1,3.27575E2,2.8673586E1,2.611709E2,1.8652315E2,1.7922908E2,3.0770575E2,4.1583746E2,2.3830576E2,3.2976497E3,1.7405784E0,5.090812E2,1.1248655E2,4.6020294E2,1.2488563E3,5.1666E2,3.356211E2,6.469354E2,1.5195915E2,5.1076266E2,2.4483572E3,4.7192123E2,6.3095465E2,6.3632117E2,4.1234656E2,8.820929E2,1.14709015E2,6.570247E2,3.8426297E2,1.907392E2,6.926349E1,3.0235733E1,1.7368224E0,3.498158E1,6.1553547E1,2.3072585E2,9.684918E1,8.643906E0,2.002968E1,5.512502E1,1.3139813E2,1.2222195E2,5.700714E1,2.0453348E2,1.0317228E2,4.145913E2,1.246162E0,1.8805032E2,5.0255432E1,2.5156992E3,7.819503E2,4.335169E2,7.556431E1,7.464836E1,3.7838184E1,3.4980374E2,1.1039918E2,1.1444528E3,1.0440357E2,1.5716579E2,1.7845529E2,3.4703415E2,2.9990125E2,3.2295513E0,1.487296E2,3.7871768E2,1.3204497E2,2.203801E2,2.5154114E2,2.2077095E2,4.101837E2,5.240418E2,1.1227934E2,2.6986243E2,1.4248413E2,5.7144464E2,3.1064825E2,9.001453E1,2.4694489E1,5.5393304E2,1.0309169E2,6.3265297E1,3.2099765E2,9.199983E1,9.8739365E1,5.7100563E1,1.2162928E1],"tree_param":{"num_deleted":"0","num_feature":"98","num_nodes":"119","size_leaf_vector":"1"}},{"base_weights":[-1.7673245E-3,1.05394E0,-8.1496596E-1,-7.1522623E-1,1.3985368E0,-1.3175534E0,5.1387477E-1,9.0819E-1,-1.1615778E0,9.0886533E-1,1.5587587E0,-1.5297014E0,-7.533063E-1,9.5840967E-1,-5.33653E-1,-7.2244316E-1,1.3441159E0,-1.4546876E0,-6.118191E-1,1.4634196E0,1.5635116E-1,1.6086973E0,1.3417507E0,-1.5972636E0,-1.2950621E0,-9.936219E-2,-1.2629921E0,5.233065E-1,1.2871057E0,-1.0246855E0,1.8036045E-1,9.7637635E-1,-1.1141659E0,1.4405123E0,-3.0348116E-1,-1.5047302E0,-3.2905832E-1,2.6616925E-1,-1.0429499E0,1.4860699E0,-6.0674053E-1,-1.3803463E-1,8.206728E-1,1.6100987E0,-4.4452688E-1,9.2377925E-1,1.4803054E0,1.1374415E-1,-1.5997443E0,-7.621215E-1,-1.4909512E0,-3.49531E-1,6.487895E-1,-1.4057527E0,-5.79136E-1,7.265736E-1,-4.11878E-1,1.3627937E0,1.0345882E-2,-1.2296321E0,-2.4657778E-1,4.8105872E-1,-6.5362036E-1,7.0375055E-2,-4.865307E-2,-6.6514865E-2,4.5350593E-2,8.14154E-2,5.3071022E-2,-4.780167E-2,3.1360064E-2,-5.650734E-2,-7.841227E-2,5.87448E-2,-4.0699236E-2,2.7853636E-2,-5.040987E-2,-5.859127E-2,-5.0120284E-3,7.992049E-2,6.12016E-2,4.7307298E-2,-4.76355E-2,1.0426196E-2,-2.862755E-2,5.265159E-2,8.655505E-3,8.0389224E-2,6.702028E-2,1.8069295E-2,-4.960132E-2,5.7870086E-2,8.763578E-3,7.673323E-2,4.491374E-2,4.5431755E-2,-5.407704E-2,-7.172686E-2,-8.0617316E-2,-4.567875E-2,2.4064496E-2,-7.7524655E-2,-3.995741E-2,6.8582515E-3,-3.567027E-2,4.3475505E-2,-1.20042795E-2,-5.256143E-2,-7.602604E-2,-1.3008759E-2,-6.841945E-2,5.3213324E-2,7.289376E-3,-3.260794E-2,2.1302972E-2,7.405192E-2,5.3438794E-2,-3.1287078E-2,4.3992024E-2,-3.7334196E-2,-6.716089E-2,9.774145E-3,-4.7953673E-2,4.612475E-2,-2.0235477E-4,1.0701692E-2,-4.921712E-2],"categories":[],"categories_nodes":[],"categories_segments":[],"categories_sizes":[],"default_left":[0,0,0,0,0,0,0,0,0,0,0,0,0,0,0,0,0,0,0,0,0,0,0,0,0,0,0,0,0,0,0,0,0,0,0,0,0,0,0,0,0,0,0,0,0,0,0,0,0,0,0,0,0,0,0,0,0,0,0,0,0,0,0,0,0,0,0,0,0,0,0,0,0,0,0,0,0,0,0,0,0,0,0,0,0,0,0,0,0,0,0,0,0,0,0,0,0,0,0,0,0,0,0,0,0,0,0,0,0,0,0,0,0,0,0,0,0,0,0,0,0,0,0,0,0,0,0],"id":5,"left_children":[1,3,5,7,9,11,13,15,17,19,21,23,25,27,29,31,33,35,37,39,41,43,45,47,49,51,53,55,57,59,61,63,65,67,69,71,73,75,77,79,81,83,85,87,89,91,93,95,97,99,101,103,105,107,109,111,113,115,117,119,121,123,125,-1,-1,-1,-1,-1,-1,-1,-1,-1,-1,-1,-1,-1,-1,-1,-1,-1,-1,-1,-1,-1,-1,-1,-1,-1,-1,-1,-1,-1,-1,-1,-1,-1,-1,-1,-1,-1,-1,-1,-1,-1,-1,-1,-1,-1,-1,-1,-1,-1,-1,-1,-1,-1,-1,-1,-1,-1,-1,-1,-1,-1,-1,-1,-1],"loss_changes":[1.432766E4,4.428321E3,6.297053E3,8.595534E2,4.7503125E2,8.1732324E2,1.2056953E3,1.8315543E2,1.4858398E2,6.261179E2,4.6874023E1,7.616113E1,6.235189E2,2.589613E2,2.708452E2,3.7634254E1,3.2767456E1,3.3354004E1,1.2354849E2,4.1628418E1,1.2503689E2,1.1618164E1,4.822278E1,1.6717773E1,1.1514795E2,1.5390118E2,1.0154187E2,1.4942328E2,9.979553E1,7.2459625E1,7.940854E1,1.0896147E1,2.1897167E1,1.1868286E1,8.141467E0,1.3297363E1,2.126867E1,4.1294876E1,2.776506E1,2.4081177E1,6.5705E0,6.771108E1,2.9980713E1,4.705078E0,1.9812701E0,3.8903534E1,2.1994385E1,7.4250712E0,1.0661133E1,5.9853806E1,3.7114258E1,1.1081836E2,4.1789963E1,3.5479248E1,4.5919456E1,1.2840164E2,2.9224442E1,3.3691772E1,3.374753E1,1.9735718E1,3.1151703E1,5.0537563E1,2.4893486E1,0E0,0E0,0E0,0E0,0E0,0E0,0E0,0E0,0E0,0E0,0E0,0E0,0E0,0E0,0E0,0E0,0E0,0E0,0E0,0E0,0E0,0E0,0E0,0E0,0E0,0E0,0E0,0E0,0E0,0E0,0E0,0E0,0E0,0E0,0E0,0E0,0E0,0E0,0E0,0E0,0E0,0E0,0E0,0E0,0E0,0E0,0E0,0E0,0E0,0E0,0E0,0E0,0E0,0E0,0E0,0E0,0E0,0E0,0E0,0E0,0E0,0E0,0E0,0E0],"parents":[2147483647,0,0,1,1,2,2,3,3,4,4,5,5,6,6,7,7,8,8,9,9,10,10,11,11,12,12,13,13,14,14,15,15,16,16,17,17,18,18,19,19,20,20,21,21,22,22,23,23,24,24,25,25,26,26,27,27,28,28,29,29,30,30,31,31,32,32,33,33,34,34,35,35,36,36,37,37,38,38,39,39,40,40,41,41,42,42,43,43,44,44,45,45,46,46,47,47,48,48,49,49,50,50,51,51,52,52,53,53,54,54,55,55,56,56,57,57,58,58,59,59,60,60,61,61,62,62],"right_children":[2,4,6,8,10,12,14,16,18,20,22,24,26,28,30,32,34,36,38,40,42,44,46,48,50,52,54,56,58,60,62,64,66,68,70,72,74,76,78,80,82,84,86,88,90,92,94,96,98,100,102,104,106,108,110,112,114,116,118,120,122,124,126,-1,-1,-1,-1,-1,-1,-1,-1,-1,-1,-1,-1,-1,-1,-1,-1,-1,-1,-1,-1,-1,-1,-1,-1,-1,-1,-1,-1,-1,-1,-1,-1,-1,-1,-1,-1,-1,-1,-1,-1,-1,-1,-1,-1,-1,-1,-1,-1,-1,-1,-1,-1,-1,-1,-1,-1,-1,-1,-1,-1,-1,-1,-1,-1],"split_conditions":[6.181818E-1,5.777778E-1,6.617647E-1,5.423729E-1,6.3E-1,6.1728394E-1,6.979167E-1,5.185185E-1,5.522388E-1,5.764706E-1,5.967742E-1,5.925926E-1,6.707317E-1,7E-1,7.1153843E-1,4.909091E-1,1.125E-1,1.2328767E-1,5.753425E-1,1.827957E-1,8.3333336E-2,3.2544377E-1,6.585366E-1,2.9411765E-2,6.515151E-1,1.1111111E-1,1.3725491E-1,1.3636364E-1,2.1153846E-1,1.4516129E-1,7.5757575E-1,1.02564104E-1,1.01123594E-1,5.185185E-1,6.1728396E-2,5.652174E-1,8.695652E-2,8.695652E-2,1.02564104E-1,5.510204E-1,5.074627E-1,6E-2,8.4745765E-2,1.7105263E-1,4.918033E-2,9.259259E-2,1.4666666E-1,7.6744187E-1,6.375E-1,1.3461539E-1,1.4678898E-1,6.4E-1,1.20300755E-1,6.911765E-1,7.4603176E-1,6.6071427E-1,1.2328767E-1,9.859155E-2,7.4626863E-1,7.111111E-1,7.5E-1,3.1746034E-2,1.5873017E-2,7.0375055E-2,-4.865307E-2,-6.6514865E-2,4.5350593E-2,8.14154E-2,5.3071022E-2,-4.780167E-2,3.1360064E-2,-5.650734E-2,-7.841227E-2,5.87448E-2,-4.0699236E-2,2.7853636E-2,-5.040987E-2,-5.859127E-2,-5.0120284E-3,7.992049E-2,6.12016E-2,4.7307298E-2,-4.76355E-2,1.0426196E-2,-2.862755E-2,5.265159E-2,8.655505E-3,8.0389224E-2,6.702028E-2,1.8069295E-2,-4.960132E-2,5.7870086E-2,8.763578E-3,7.673323E-2,4.491374E-2,4.5431755E-2,-5.407704E-2,-7.172686E-2,-8.0617316E-2,-4.567875E-2,2.4064496E-2,-7.7524655E-2,-3.995741E-2,6.8582515E-3,-3.567027E-2,4.3475505E-2,-1.20042795E-2,-5.256143E-2,-7.602604E-2,-1.3008759E-2,-6.841945E-2,5.3213324E-2,7.289376E-3,-3.260794E-2,2.1302972E-2,7.405192E-2,5.3438794E-2,-3.1287078E-2,4.3992024E-2,-3.7334196E-2,-6.716089E-2,9.774145E-3,-4.7953673E-2,4.612475E-2,-2.0235477E-4,1.0701692E-2,-4.921712E-2],"split_indices":[94,89,89,94,89,89,94,89,89,94,94,89,94,89,89,94,96,90,94,96,90,96,89,95,94,90,90,96,96,90,94,96,90,94,90,94,95,96,90,94,94,96,96,96,95,96,96,92,94,90,90,94,96,94,94,94,90,96,89,94,94,95,95,0,0,0,0,0,0,0,0,0,0,0,0,0,0,0,0,0,0,0,0,0,0,0,0,0,0,0,0,0,0,0,0,0,0,0,0,0,0,0,0,0,0,0,0,0,0,0,0,0,0,0,0,0,0,0,0,0,0,0,0,0,0,0,0],"split_type":[0,0,0,0,0,0,0,0,0,0,0,0,0,0,0,0,0,0,0,0,0,0,0,0,0,0,0,0,0,0,0,0,0,0,0,0,0,0,0,0,0,0,0,0,0,0,0,0,0,0,0,0,0,0,0,0,0,0,0,0,0,0,0,0,0,0,0,0,0,0,0,0,0,0,0,0,0,0,0,0,0,0,0,0,0,0,0,0,0,0,0,0,0,0,0,0,0,0,0,0,0,0,0,0,0,0,0,0,0,0,0,0,0,0,0,0,0,0,0,0,0,0,0,0,0,0,0],"sum_hessian":[1.6686959E4,7.260631E3,9.426327E3,1.1834193E3,6.0772114E3,6.839583E3,2.5867444E3,2.549062E2,9.285131E2,1.500263E3,4.5769487E3,4.9691494E3,1.8704335E3,1.8162046E3,7.7053973E2,5.356406E1,2.0134215E2,6.0428723E2,3.2422592E2,8.630491E2,6.372138E2,3.7144617E3,8.624869E2,3.8527896E3,1.11636E3,8.199544E2,1.0504791E3,7.829846E2,1.0332201E3,4.563561E2,3.1418365E2,9.671917E0,4.3892143E1,1.9040677E2,1.093538E1,5.781139E2,2.6173355E1,1.0683931E2,2.173866E2,8.5407245E2,8.976582E0,4.420572E2,1.9515663E2,3.7122217E3,2.2400029E0,2.1706508E2,6.454218E2,5.444E0,3.8473457E3,3.016699E2,8.1469006E2,6.150364E2,2.04918E2,8.679467E2,1.8253236E2,6.43483E2,1.3950165E2,9.752485E2,5.7971546E1,3.605919E2,9.5764206E1,2.3136484E2,8.281882E1,8.19281E0,1.4791062E0,3.990736E1,3.984785E0,1.2165268E2,6.875409E1,6.4612684E0,4.474111E0,9.9433586E1,4.786803E2,5.966705E0,2.020665E1,8.7452034E1,1.9387276E1,1.8958856E2,2.7798035E1,5.724822E2,2.8159027E2,1.2449667E0,7.7316146E0,2.4659698E2,1.9546022E2,1.418523E2,5.3304344E1,3.599929E3,1.122927E2,9.913765E-1,1.2486265E0,1.635865E2,5.3478577E1,5.7913403E2,6.628774E1,3.4815607E0,1.9624393E0,4.9672812E2,3.3506174E3,2.6823138E2,3.3438507E1,7.386833E2,7.600677E1,2.648585E2,3.5017792E2,1.6352306E2,4.139494E1,2.3139316E2,6.365535E2,1.3175082E2,5.0781532E1,4.0303482E2,2.4044814E2,1.0837134E2,3.1130308E1,6.7205817E2,3.0319028E2,3.3595467E1,2.437608E1,7.507283E1,2.8551907E2,5.9640427E1,3.6123775E1,1.19967674E2,1.1139717E2,2.3162582E1,5.965623E1],"tree_param":{"num_deleted":"0","num_feature":"98","num_nodes":"127","size_leaf_vector":"1"}},{"base_weights":[2.5453532E-4,9.06909E-1,-8.882864E-1,1.6605605E-1,1.3118365E0,-1.2867707E0,-1.3439809E-1,9.804117E-1,-4.7306255E-1,1.4774846E0,9.221357E-1,-1.3648652E0,-5.1981145E-1,3.6644724E-1,-8.3100533E-1,1.3793032E0,5.4501206E-1,-7.791306E-1,3.0610678E-1,1.5618987E0,1.3394415E0,2.3472072E-1,1.1495962E0,-1.1108413E0,-1.5036261E0,3.625765E-1,-9.563315E-1,-2.0255162E-1,8.1509924E-1,-1.101957E0,9.235651E-2,1.0143188E0,1.5033517E0,-3.478463E-2,9.42819E-1,-1.3316358E0,-4.94462E-1,-5.6858426E-1,5.210977E-1,7.786179E-2,1.176541E0,1.0697335E0,1.468918E0,-5.2487113E-2,1.0443563E0,8.814091E-1,1.4178042E0,-1.3594807E0,-7.1327394E-1,-1.5535685E0,-1.3524292E0,-5.8911663E-1,7.635143E-1,-1.2074382E0,-4.8632166E-1,-5.211408E-1,4.0444997E-1,5.9649485E-1,1.290763E0,-8.204018E-1,-1.3338158E0,4.3600655E-1,-6.0079056E-1,7.333884E-2,3.1899072E-2,3.5184186E-2,7.563286E-2,-2.363567E-2,2.472074E-2,1.7450316E-2,6.158241E-2,-4.502023E-2,-6.8858504E-2,-8.617109E-3,-3.935507E-2,-3.8941897E-2,1.742599E-2,3.548473E-2,-9.167109E-3,-2.7376983E-2,6.765639E-2,3.7707586E-2,6.698792E-2,7.328564E-2,-2.593149E-2,1.0717479E-2,-3.0764252E-2,5.4946106E-2,-1.1798708E-2,2.989234E-2,6.0551748E-2,7.348872E-2,4.483016E-2,-7.024072E-2,-4.624541E-2,-5.0575923E-2,-1.2181825E-2,-7.7613585E-2,-6.961679E-2,-7.2804116E-2,-5.3074203E-2,5.310304E-3,-3.928287E-2,4.7272824E-2,1.4020899E-2,-6.436621E-2,-2.3371564E-2,-5.429752E-3,-5.7741173E-2,-9.661979E-3,-3.763919E-2,3.701537E-2,1.0291362E-3,1.632924E-2,5.4376848E-2,6.82605E-2,3.4227535E-2,-5.1740408E-2,-1.2617851E-2,-7.136994E-2,-5.3309474E-2,7.722387E-3,4.986115E-2,-5.092152E-2,-3.8786735E-3],"categories":[],"categories_nodes":[],"categories_segments":[],"categories_sizes":[],"default_left":[0,0,0,0,0,0,0,0,0,0,0,0,0,0,0,0,0,0,0,0,0,0,0,0,0,0,0,0,0,0,0,0,0,0,0,0,0,0,0,0,0,0,0,0,0,0,0,0,0,0,0,0,0,0,0,0,0,0,0,0,0,0,0,0,0,0,0,0,0,0,0,0,0,0,0,0,0,0,0,0,0,0,0,0,0,0,0,0,0,0,0,0,0,0,0,0,0,0,0,0,0,0,0,0,0,0,0,0,0,0,0,0,0,0,0,0,0,0,0,0,0,0,0,0,0],"id":6,"left_children":[1,3,5,7,9,11,13,15,17,19,21,23,25,27,29,31,33,35,37,39,41,43,45,47,49,51,53,55,57,59,61,63,65,67,69,71,73,75,77,-1,79,81,83,85,87,89,91,93,95,97,99,101,103,105,107,109,111,113,115,117,119,121,123,-1,-1,-1,-1,-1,-1,-1,-1,-1,-1,-1,-1,-1,-1,-1,-1,-1,-1,-1,-1,-1,-1,-1,-1,-1,-1,-1,-1,-1,-1,-1,-1,-1,-1,-1,-1,-1,-1,-1,-1,-1,-1,-1,-1,-1,-1,-1,-1,-1,-1,-1,-1,-1,-1,-1,-1,-1,-1,-1,-1,-1,-1],"loss_changes":[1.3212313E4,2.434817E3,2.4879688E3,1.4944313E3,3.370254E2,3.235498E2,1.0001631E3,2.1822375E2,3.8398596E2,4.0234375E1,2.4483398E2,1.7116406E2,1.9407858E2,4.2598633E2,3.0018762E2,2.78125E1,1.3981683E2,1.8080554E2,8.578732E1,2.055664E0,4.7034912E1,9.121306E1,8.310669E1,1.7085303E2,2.1315918E1,6.4290215E1,3.8900665E1,1.4258849E2,9.592981E1,5.906787E1,6.529736E1,2.8033295E1,5.829712E0,5.8325645E1,6.23779E1,7.3779297E0,7.2773544E1,1.8171717E1,4.997622E1,0E0,1.1845966E1,3.8451904E1,1.2122192E1,4.425888E1,8.4683E0,5.487317E1,1.6751465E1,2.3090942E1,9.5482666E1,2.65625E-1,2.3547485E1,7.1892185E0,1.0250992E1,1.3290466E1,3.0112762E1,3.705002E1,3.3070923E1,8.496947E1,1.3328735E1,5.2340515E1,1.154718E1,2.8878891E1,1.992949E1,0E0,0E0,0E0,0E0,0E0,0E0,0E0,0E0,0E0,0E0,0E0,0E0,0E0,0E0,0E0,0E0,0E0,0E0,0E0,0E0,0E0,0E0,0E0,0E0,0E0,0E0,0E0,0E0,0E0,0E0,0E0,0E0,0E0,0E0,0E0,0E0,0E0,0E0,0E0,0E0,0E0,0E0,0E0,0E0,0E0,0E0,0E0,0E0,0E0,0E0,0E0,0E0,0E0,0E0,0E0,0E0,0E0,0E0,0E0,0E0,0E0,0E0],"parents":[2147483647,0,0,1,1,2,2,3,3,4,4,5,5,6,6,7,7,8,8,9,9,10,10,11,11,12,12,13,13,14,14,15,15,16,16,17,17,18,18,19,19,20,20,21,21,22,22,23,23,24,24,25,25,26,26,27,27,28,28,29,29,30,30,31,31,32,32,33,33,34,34,35,35,36,36,37,37,38,38,40,40,41,41,42,42,43,43,44,44,45,45,46,46,47,47,48,48,49,49,50,50,51,51,52,52,53,53,54,54,55,55,56,56,57,57,58,58,59,59,60,60,61,61,62,62],"right_children":[2,4,6,8,10,12,14,16,18,20,22,24,26,28,30,32,34,36,38,40,42,44,46,48,50,52,54,56,58,60,62,64,66,68,70,72,74,76,78,-1,80,82,84,86,88,90,92,94,96,98,100,102,104,106,108,110,112,114,116,118,120,122,124,-1,-1,-1,-1,-1,-1,-1,-1,-1,-1,-1,-1,-1,-1,-1,-1,-1,-1,-1,-1,-1,-1,-1,-1,-1,-1,-1,-1,-1,-1,-1,-1,-1,-1,-1,-1,-1,-1,-1,-1,-1,-1,-1,-1,-1,-1,-1,-1,-1,-1,-1,-1,-1,-1,-1,-1,-1,-1,-1,-1,-1,-1],"split_conditions":[6.3076925E-1,5E-1,5.3061223E-1,5.744681E-1,5.942029E-1,1.4678898E-1,6.923077E-1,5.394737E-1,8.235294E-2,5.584416E-1,3.821656E-2,6.730769E-1,6.721311E-1,6.849315E-2,1.3461539E-1,2.7777778E-2,4.225352E-2,4E-1,3.8709676E-1,1.971831E-1,5.483871E-1,6.1290324E-1,5.8064514E-1,4.680851E-1,4.8E-1,4.318182E-1,4.8101267E-1,6.097561E-1,1.4814815E-1,7.234042E-1,7.5E-1,5E-1,3E-1,4.375E-1,4.1379312E-1,1.2987013E-2,6.041667E-1,1.5789473E-1,1.01123594E-1,7.786179E-2,1.3888889E-2,5.7471264E-2,2.9508197E-1,8.396947E-2,1.9354838E-1,9.090909E-2,1.5E-1,1.04347825E-1,6.849315E-2,1.2328767E-1,8.108108E-2,3.3333335E-2,1E-1,2.5E-1,7.4285716E-1,6.097561E-2,6.5753424E-1,6.2068963E-1,1.5E-1,6.1904764E-1,6.1702126E-1,2.1212122E-1,6.052632E-1,7.333884E-2,3.1899072E-2,3.5184186E-2,7.563286E-2,-2.363567E-2,2.472074E-2,1.7450316E-2,6.158241E-2,-4.502023E-2,-6.8858504E-2,-8.617109E-3,-3.935507E-2,-3.8941897E-2,1.742599E-2,3.548473E-2,-9.167109E-3,-2.7376983E-2,6.765639E-2,3.7707586E-2,6.698792E-2,7.328564E-2,-2.593149E-2,1.0717479E-2,-3.0764252E-2,5.4946106E-2,-1.1798708E-2,2.989234E-2,6.0551748E-2,7.348872E-2,4.483016E-2,-7.024072E-2,-4.624541E-2,-5.0575923E-2,-1.2181825E-2,-7.7613585E-2,-6.961679E-2,-7.2804116E-2,-5.3074203E-2,5.310304E-3,-3.928287E-2,4.7272824E-2,1.4020899E-2,-6.436621E-2,-2.3371564E-2,-5.429752E-3,-5.7741173E-2,-9.661979E-3,-3.763919E-2,3.701537E-2,1.0291362E-3,1.632924E-2,5.4376848E-2,6.82605E-2,3.4227535E-2,-5.1740408E-2,-1.2617851E-2,-7.136994E-2,-5.3309474E-2,7.722387E-3,4.986115E-2,-5.092152E-2,-3.8786735E-3],"split_indices":[94,88,88,94,94,90,94,94,90,94,90,94,94,90,90,90,90,88,88,96,88,88,88,88,88,88,88,88,90,94,94,94,88,88,88,96,94,90,96,0,90,90,96,96,96,90,96,90,90,90,90,96,96,90,94,96,94,88,96,88,88,90,88,0,0,0,0,0,0,0,0,0,0,0,0,0,0,0,0,0,0,0,0,0,0,0,0,0,0,0,0,0,0,0,0,0,0,0,0,0,0,0,0,0,0,0,0,0,0,0,0,0,0,0,0,0,0,0,0,0,0,0,0,0,0],"split_type":[0,0,0,0,0,0,0,0,0,0,0,0,0,0,0,0,0,0,0,0,0,0,0,0,0,0,0,0,0,0,0,0,0,0,0,0,0,0,0,0,0,0,0,0,0,0,0,0,0,0,0,0,0,0,0,0,0,0,0,0,0,0,0,0,0,0,0,0,0,0,0,0,0,0,0,0,0,0,0,0,0,0,0,0,0,0,0,0,0,0,0,0,0,0,0,0,0,0,0,0,0,0,0,0,0,0,0,0,0,0,0,0,0,0,0,0,0,0,0,0,0,0,0,0,0],"sum_hessian":[1.6398342E4,8.1164873E3,8.281854E3,2.8690808E3,5.2474067E3,5.4174214E3,2.864432E3,1.2613933E3,1.6076875E3,3.6798293E3,1.5675775E3,4.915858E3,5.015636E2,1.6665809E3,1.1978508E3,6.5689636E2,6.044969E2,1.1543695E3,4.5331793E2,2.275796E3,1.4040333E3,3.9042114E2,1.1771564E3,1.7404974E3,3.1753606E3,1.6598706E2,3.3557654E2,7.34916E2,9.316649E2,9.260155E2,2.718354E2,1.6946388E2,4.874325E2,2.4629384E2,3.5820306E2,3.9099323E2,7.6337634E2,8.897715E1,3.6434076E2,2.2427664E3,3.3029648E1,4.5904617E2,9.449872E2,2.888721E2,1.0154904E2,5.912094E2,5.85947E2,1.0689727E3,6.715247E2,2.3785557E3,7.9680475E2,4.896704E1,1.1702002E2,2.17426E2,1.1815056E2,4.821743E2,2.5274171E2,6.402008E2,2.914641E2,4.2070184E2,5.0531363E2,1.8211444E2,8.9720955E1,7.4050705E1,9.541317E1,1.2346962E1,4.7508554E2,1.3488643E2,1.1140742E2,1.2052261E2,2.3768044E2,4.6573E1,3.4442023E2,3.682107E2,3.9516562E2,7.233151E1,1.6645634E1,2.861865E2,7.8154274E1,2.9252646E0,3.0104385E1,2.190169E2,2.4002927E2,9.425272E2,2.4599774E0,1.9642352E2,9.244858E1,9.713154E1,4.4175034E0,3.2495328E2,2.6625613E2,5.217857E2,6.416126E1,9.4673865E2,1.2223401E2,4.0590836E2,2.6561636E2,2.2443293E3,1.3422641E2,5.6698517E2,2.2981958E2,1.099369E1,3.7973354E1,8.322721E1,3.3792805E1,1.9337094E2,2.4055042E1,7.677263E1,4.137793E1,2.0343932E2,2.78735E2,1.3321585E2,1.19525856E2,4.1757916E2,2.2262164E2,2.5474307E2,3.6721035E1,3.018799E2,1.1882193E2,3.5891794E2,1.4639569E2,1.2293875E2,5.917569E1,4.8832504E1,4.088845E1],"tree_param":{"num_deleted":"0","num_feature":"98","num_nodes":"125","size_leaf_vector":"1"}},{"base_weights":[1.5094235E-3,-8.7100327E-1,8.543786E-1,4.6904734E-1,-1.1856486E0,1.3055224E0,-3.6725968E-2,-8.3181226E-1,1.0027946E0,-1.4218262E0,-7.171248E-1,8.941601E-1,1.4317639E0,-5.512797E-1,6.5493536E-1,1.14766866E-1,-1.194732E0,4.0225488E-1,1.2403916E0,-1.4761214E0,-1.0903022E0,-1.1547157E0,5.4062583E-2,1.13187574E-1,1.1754388E0,1.238901E0,1.5026755E0,-1.0494542E0,4.7712196E-2,-3.7861383E-1,9.4646096E-1,-1.0674968E0,7.6062024E-1,-1.2923254E0,-2.182378E-1,-1.825024E-1,8.595143E-1,1.471871E0,9.553258E-1,-1.5203875E0,-1.3093587E0,-1.4788116E0,-6.444901E-1,-6.8739927E-1,-1.35779E0,3.392276E-1,-5.466414E-1,8.3522004E-1,-1.9664212E-1,8.442966E-1,1.3664387E0,1.4176612E0,8.176897E-1,1.530113E0,1.3645396E0,-1.4239833E0,-8.407565E-1,-2.8372556E-1,3.835021E-1,2.3238166E-1,-7.6840794E-1,5.501632E-1,1.1717216E0,-6.353082E-2,5.2140675E-2,-3.4099787E-2,5.42689E-2,-7.1274824E-2,-3.9334547E-2,-3.264244E-2,2.8736167E-2,3.459778E-2,-2.523642E-2,5.1983792E-2,6.391891E-3,7.364411E-2,-0E0,2.7573377E-2,5.9072733E-2,-7.562245E-2,7.0157796E-3,-5.0791245E-2,-7.302517E-2,-4.769233E-2,-7.548201E-2,-9.947983E-3,-4.6030454E-2,-4.285874E-2,2.52903E-2,-7.385956E-2,-5.6428533E-2,2.8577266E-2,-1.2964207E-2,-4.6327926E-2,-4.6790247E-3,5.5051208E-2,-8.94127E-3,-4.537233E-2,3.2050973E-3,5.1651403E-2,1.8210284E-3,6.0053512E-2,7.556064E-2,7.5628474E-2,6.2720254E-2,5.438147E-2,2.5805375E-2,7.6049685E-2,1.7055444E-2,5.7327803E-2,7.236896E-2,-7.5912744E-2,-5.065085E-2,-5.187174E-2,-1.374327E-2,-2.2754114E-2,2.1175435E-2,2.8428292E-2,-1.1512308E-2,-8.051164E-3,3.927189E-2,-1.0966959E-2,-5.2512042E-2,4.1661143E-2,1.8399328E-3,4.469246E-2,6.8475656E-2],"categories":[],"categories_nodes":[],"categories_segments":[],"categories_sizes":[],"default_left":[0,0,0,0,0,0,0,0,0,0,0,0,0,0,0,0,0,0,0,0,0,0,0,0,0,0,0,0,0,0,0,0,0,0,0,0,0,0,0,0,0,0,0,0,0,0,0,0,0,0,0,0,0,0,0,0,0,0,0,0,0,0,0,0,0,0,0,0,0,0,0,0,0,0,0,0,0,0,0,0,0,0,0,0,0,0,0,0,0,0,0,0,0,0,0,0,0,0,0,0,0,0,0,0,0,0,0,0,0,0,0,0,0,0,0,0,0,0,0,0,0,0,0,0,0,0,0],"id":7,"left_children":[1,3,5,7,9,11,13,15,17,19,21,23,25,27,29,31,33,35,37,39,41,43,45,47,49,51,53,55,57,59,61,63,65,67,69,71,73,75,77,79,81,83,85,87,89,91,93,95,97,99,101,103,105,107,109,111,113,115,117,119,121,123,125,-1,-1,-1,-1,-1,-1,-1,-1,-1,-1,-1,-1,-1,-1,-1,-1,-1,-1,-1,-1,-1,-1,-1,-1,-1,-1,-1,-1,-1,-1,-1,-1,-1,-1,-1,-1,-1,-1,-1,-1,-1,-1,-1,-1,-1,-1,-1,-1,-1,-1,-1,-1,-1,-1,-1,-1,-1,-1,-1,-1,-1,-1,-1,-1],"loss_changes":[1.2055066E4,3.3770845E3,3.29362E3,1.0587262E3,7.1627344E2,2.8076172E2,9.807256E2,1.5271863E2,1.5348047E2,7.551074E1,7.345017E2,2.809748E2,5.4506836E1,4.7169257E2,3.5463953E2,9.551788E1,3.0112732E1,8.2648926E1,4.921985E1,2.4779785E1,1.04565186E2,1.3049377E2,1.3529456E2,7.6396614E1,5.799402E1,8.3174194E1,8.852539E0,6.585791E1,8.009453E1,6.202149E1,8.097858E1,2.127869E1,3.9675068E1,1.9221527E1,1.1133909E1,3.9282364E1,2.33573E1,6.5E0,3.1811798E1,7.5629883E0,3.4168457E1,4.8980103E0,3.557921E1,8.915045E1,2.5442627E1,7.602481E1,4.4156906E1,2.8697807E1,4.4868523E1,5.4604935E1,1.2126343E1,1.0327637E1,2.7101608E1,2.7001953E-1,7.791748E0,1.0864502E1,6.337506E1,4.4994476E1,4.166757E1,2.2604937E1,2.4668945E1,4.9382133E1,3.115857E1,0E0,0E0,0E0,0E0,0E0,0E0,0E0,0E0,0E0,0E0,0E0,0E0,0E0,0E0,0E0,0E0,0E0,0E0,0E0,0E0,0E0,0E0,0E0,0E0,0E0,0E0,0E0,0E0,0E0,0E0,0E0,0E0,0E0,0E0,0E0,0E0,0E0,0E0,0E0,0E0,0E0,0E0,0E0,0E0,0E0,0E0,0E0,0E0,0E0,0E0,0E0,0E0,0E0,0E0,0E0,0E0,0E0,0E0,0E0,0E0,0E0,0E0,0E0,0E0],"parents":[2147483647,0,0,1,1,2,2,3,3,4,4,5,5,6,6,7,7,8,8,9,9,10,10,11,11,12,12,13,13,14,14,15,15,16,16,17,17,18,18,19,19,20,20,21,21,22,22,23,23,24,24,25,25,26,26,27,27,28,28,29,29,30,30,31,31,32,32,33,33,34,34,35,35,36,36,37,37,38,38,39,39,40,40,41,41,42,42,43,43,44,44,45,45,46,46,47,47,48,48,49,49,50,50,51,51,52,52,53,53,54,54,55,55,56,56,57,57,58,58,59,59,60,60,61,61,62,62],"right_children":[2,4,6,8,10,12,14,16,18,20,22,24,26,28,30,32,34,36,38,40,42,44,46,48,50,52,54,56,58,60,62,64,66,68,70,72,74,76,78,80,82,84,86,88,90,92,94,96,98,100,102,104,106,108,110,112,114,116,118,120,122,124,126,-1,-1,-1,-1,-1,-1,-1,-1,-1,-1,-1,-1,-1,-1,-1,-1,-1,-1,-1,-1,-1,-1,-1,-1,-1,-1,-1,-1,-1,-1,-1,-1,-1,-1,-1,-1,-1,-1,-1,-1,-1,-1,-1,-1,-1,-1,-1,-1,-1,-1,-1,-1,-1,-1,-1,-1,-1,-1,-1,-1,-1,-1,-1,-1],"split_conditions":[6.3076925E-1,6.486486E-1,7.446808E-1,5.555556E-1,5.925926E-1,7.777778E-2,6.9135803E-1,5.833333E-1,1.0309278E-1,1.0465116E-1,8.080808E-2,6.5789473E-1,6.625E-1,5.4945055E-2,2.9411765E-2,5.0769234E-1,1.0526316E-1,5.970149E-1,5.970149E-1,5.744681E-1,5.483871E-1,7.413793E-1,7.368421E-1,6.792453E-1,6.904762E-1,6.792453E-1,7.037037E-1,2.2988506E-2,7.317073E-2,2.6666667E-2,7.169811E-1,6.4102566E-1,1.0869565E-1,5.3968257E-1,1.18644066E-1,6E-1,5.050505E-2,1.14285715E-1,5.9090906E-1,3.265306E-1,7.419355E-1,9.4339624E-2,2.8571429E-2,1.3207547E-1,5.0632913E-2,4.6875E-2,6.666667E-2,5.172414E-2,4.6153847E-2,5.5045873E-2,7.303371E-1,6.2903225E-1,3.076923E-2,1.764706E-1,6.904762E-1,1.3592233E-1,1.1764706E-1,1.0204082E-1,5.5555556E-2,1.5E-1,8.113208E-1,8.035714E-1,6.0606062E-2,-6.353082E-2,5.2140675E-2,-3.4099787E-2,5.42689E-2,-7.1274824E-2,-3.9334547E-2,-3.264244E-2,2.8736167E-2,3.459778E-2,-2.523642E-2,5.1983792E-2,6.391891E-3,7.364411E-2,-0E0,2.7573377E-2,5.9072733E-2,-7.562245E-2,7.0157796E-3,-5.0791245E-2,-7.302517E-2,-4.769233E-2,-7.548201E-2,-9.947983E-3,-4.6030454E-2,-4.285874E-2,2.52903E-2,-7.385956E-2,-5.6428533E-2,2.8577266E-2,-1.2964207E-2,-4.6327926E-2,-4.6790247E-3,5.5051208E-2,-8.94127E-3,-4.537233E-2,3.2050973E-3,5.1651403E-2,1.8210284E-3,6.0053512E-2,7.556064E-2,7.5628474E-2,6.2720254E-2,5.438147E-2,2.5805375E-2,7.6049685E-2,1.7055444E-2,5.7327803E-2,7.236896E-2,-7.5912744E-2,-5.065085E-2,-5.187174E-2,-1.374327E-2,-2.2754114E-2,2.1175435E-2,2.8428292E-2,-1.1512308E-2,-8.051164E-3,3.927189E-2,-1.0966959E-2,-5.2512042E-2,4.1661143E-2,1.8399328E-3,4.469246E-2,6.8475656E-2],"split_indices":[89,92,92,89,89,97,89,92,97,97,97,89,89,97,97,89,90,89,92,89,89,92,92,92,89,92,92,97,90,95,89,87,97,89,97,92,91,91,89,90,92,95,91,90,97,91,90,91,97,91,89,92,91,95,89,90,90,97,91,90,92,92,97,0,0,0,0,0,0,0,0,0,0,0,0,0,0,0,0,0,0,0,0,0,0,0,0,0,0,0,0,0,0,0,0,0,0,0,0,0,0,0,0,0,0,0,0,0,0,0,0,0,0,0,0,0,0,0,0,0,0,0,0,0,0,0,0],"split_type":[0,0,0,0,0,0,0,0,0,0,0,0,0,0,0,0,0,0,0,0,0,0,0,0,0,0,0,0,0,0,0,0,0,0,0,0,0,0,0,0,0,0,0,0,0,0,0,0,0,0,0,0,0,0,0,0,0,0,0,0,0,0,0,0,0,0,0,0,0,0,0,0,0,0,0,0,0,0,0,0,0,0,0,0,0,0,0,0,0,0,0,0,0,0,0,0,0,0,0,0,0,0,0,0,0,0,0,0,0,0,0,0,0,0,0,0,0,0,0,0,0,0,0,0,0,0,0],"sum_hessian":[1.6197766E4,8.006605E3,8.191161E3,1.5223114E3,6.4842935E3,5.437755E3,2.7534062E3,4.4265048E2,1.0796609E3,4.3094385E3,2.174855E3,1.2792385E3,4.1585166E3,1.5790608E3,1.1743455E3,1.2281179E2,3.1983868E2,3.0704898E2,7.726119E2,3.6993726E3,6.100658E2,1.3872627E3,7.875923E2,3.392522E2,9.399863E2,1.1239393E3,3.0345771E3,8.61712E2,7.173488E2,2.5821146E2,9.1613403E2,4.307126E1,7.974053E1,2.903494E2,2.9489279E1,1.3493672E2,1.7211227E2,4.2359167E2,3.490202E2,2.9156616E3,7.83711E2,3.2446365E2,2.8560214E2,4.218802E2,9.6538257E2,5.3451306E2,2.5307925E2,1.0139225E2,2.3785994E2,3.4628055E2,5.937058E2,7.8701984E2,3.3691956E2,2.521614E3,5.1296313E2,3.0582333E2,5.558887E2,3.6094568E2,3.5640314E2,1.00642944E2,1.575685E2,3.3359137E2,5.8254266E2,3.961695E1,3.454311E0,1.4581596E1,6.5158936E1,2.2438693E2,6.596246E1,1.9228085E1,1.0261195E1,3.6027744E1,9.890898E1,1.3660152E2,3.5510757E1,4.2073407E2,2.8576097E0,1.30119E2,2.1890121E2,2.9132227E3,2.4389553E0,2.8387268E2,4.9983832E2,2.5540874E1,2.989228E2,1.1174756E2,1.7385458E2,3.6836325E2,5.3516945E1,6.071151E2,3.5826743E2,3.838593E2,1.5065375E2,1.3585399E2,1.17225266E2,7.9924995E1,2.1467257E1,6.2894283E1,1.7496567E2,2.7852405E2,6.775648E1,2.9858292E2,2.951229E2,4.6461478E2,3.2240506E2,1.7306285E2,1.638567E2,2.52045E3,1.1639235E0,1.6063812E2,3.5232504E2,2.4073227E2,6.509106E1,4.0788318E2,1.480055E2,2.9026578E2,7.0679924E1,2.7296487E2,8.343828E1,5.9321598E1,4.1321346E1,5.5157875E1,1.0241062E2,2.1301512E2,1.2057623E2,2.5393564E2,3.2860706E2],"tree_param":{"num_deleted":"0","num_feature":"98","num_nodes":"127","size_leaf_vector":"1"}},{"base_weights":[-1.09344866E-4,-8.440301E-1,8.2352287E-1,8.360143E-1,-1.1970401E0,1.2668045E0,-3.7331066E-1,-8.6572665E-1,1.1778976E0,-6.4965785E-1,-1.3861462E0,1.4340487E0,8.3366734E-1,-7.238494E-1,6.021344E-1,5.7130355E-1,-1.2587374E0,1.4079316E0,7.49139E-1,-1.3170756E0,2.5438663E-2,-1.477287E0,-1.1432685E0,1.4564382E0,1.0354313E0,2.85132E-1,1.1966608E0,-3.9455444E-1,-1.2184837E0,1.0203606E0,-4.358177E-2,-6.263742E-1,1.1279465E0,-6.702432E-2,-1.3556038E0,1.4405328E0,5.561972E-1,-1.1553887E-2,1.1202124E0,-1.4612043E0,-1.0428984E0,3.9192316E-1,-3.0398422E-1,2.4738425E-2,-1.4793987E0,-7.84596E-1,-1.3757774E0,1.4894012E0,1.3015394E0,1.3121551E0,4.4904807E-1,6.3317823E-1,-3.1771728E-1,1.2802261E0,2.9245287E-1,-6.798819E-1,8.509807E-2,-5.365912E-1,-1.2759769E0,1.1212035E0,-1.2023971E-1,-2.2840272E-1,1.0188265E0,2.2739382E-2,-5.1318754E-2,4.2410493E-3,6.8952575E-2,-5.1310603E-2,2.6187006E-2,-7.450565E-2,-5.0608244E-2,5.717328E-2,7.411942E-2,-6.0823085E-3,5.513267E-2,1.4287029E-2,-5.5275433E-2,6.013569E-2,-5.2232025E-3,-5.4813955E-2,-7.4211955E-2,-3.851522E-2,-6.53542E-2,2.8037371E-2,-1.6232358E-2,-4.6020642E-2,-4.1880463E-3,-3.260407E-2,4.070577E-2,-6.97608E-2,-7.4867316E-2,-5.1709123E-2,-2.4835674E-2,9.927007E-3,-6.876131E-2,7.0564605E-2,7.477549E-2,4.8037644E-2,7.1027555E-2,6.9858446E-3,6.716045E-2,-1.9132016E-2,4.8213255E-2,-2.1120403E-3,3.69669E-2,-3.703925E-2,-5.95186E-4,4.830775E-2,6.958816E-2,3.770248E-2,-3.0481143E-2,-4.682542E-2,-2.0244403E-2,1.806213E-2,-3.0946778E-2,-5.2229118E-2,1.2366258E-2,-7.399975E-2,-5.718451E-2,6.813788E-2,4.4608675E-2,-4.5997627E-2,9.556009E-3,-2.180322E-3,-6.525483E-2,6.0187377E-2,-3.441385E-2],"categories":[],"categories_nodes":[],"categories_segments":[],"categories_sizes":[],"default_left":[0,0,0,0,0,0,0,0,0,0,0,0,0,0,0,0,0,0,0,0,0,0,0,0,0,0,0,0,0,0,0,0,0,0,0,0,0,0,0,0,0,0,0,0,0,0,0,0,0,0,0,0,0,0,0,0,0,0,0,0,0,0,0,0,0,0,0,0,0,0,0,0,0,0,0,0,0,0,0,0,0,0,0,0,0,0,0,0,0,0,0,0,0,0,0,0,0,0,0,0,0,0,0,0,0,0,0,0,0,0,0,0,0,0,0,0,0,0,0,0,0,0,0,0,0,0,0],"id":8,"left_children":[1,3,5,7,9,11,13,15,17,19,21,23,25,27,29,31,33,35,37,39,41,43,45,47,49,51,53,55,57,59,61,63,65,67,69,71,73,75,77,79,81,83,85,87,89,91,93,95,97,99,101,103,105,107,109,111,113,115,117,119,121,123,125,-1,-1,-1,-1,-1,-1,-1,-1,-1,-1,-1,-1,-1,-1,-1,-1,-1,-1,-1,-1,-1,-1,-1,-1,-1,-1,-1,-1,-1,-1,-1,-1,-1,-1,-1,-1,-1,-1,-1,-1,-1,-1,-1,-1,-1,-1,-1,-1,-1,-1,-1,-1,-1,-1,-1,-1,-1,-1,-1,-1,-1,-1,-1,-1],"loss_changes":[1.1128788E4,4.691218E3,4.2994033E3,8.004129E2,6.7528125E2,4.267588E2,7.495963E2,1.3101167E2,1.1146265E2,7.572911E2,1.05322266E2,3.609961E1,3.280072E2,2.6188745E2,1.5670053E2,3.4315445E1,2.0682678E1,1.9531738E1,1.1365367E2,3.1417358E1,1.0112034E2,1.1379883E1,1.0950488E2,1.8125E1,3.6622833E1,1.384627E2,7.440686E1,1.3283246E2,2.427472E1,4.0739594E1,4.511636E1,7.9020257E0,9.117378E0,9.210568E0,6.140747E0,8.38501E0,1.1279313E1,4.4196213E1,3.007721E1,4.241211E0,2.017389E1,4.933763E1,6.008089E1,3.8626385E0,4.565918E0,3.7608246E1,1.0604614E1,8.3496094E-1,2.8902954E1,6.8430176E0,3.346441E1,3.139798E1,3.1519285E1,3.1845093E1,3.6666977E1,4.292453E1,7.167329E1,2.1446964E1,1.3612427E1,1.6457153E1,7.7091966E0,3.9017166E1,1.2206829E1,0E0,0E0,0E0,0E0,0E0,0E0,0E0,0E0,0E0,0E0,0E0,0E0,0E0,0E0,0E0,0E0,0E0,0E0,0E0,0E0,0E0,0E0,0E0,0E0,0E0,0E0,0E0,0E0,0E0,0E0,0E0,0E0,0E0,0E0,0E0,0E0,0E0,0E0,0E0,0E0,0E0,0E0,0E0,0E0,0E0,0E0,0E0,0E0,0E0,0E0,0E0,0E0,0E0,0E0,0E0,0E0,0E0,0E0,0E0,0E0,0E0,0E0,0E0,0E0],"parents":[2147483647,0,0,1,1,2,2,3,3,4,4,5,5,6,6,7,7,8,8,9,9,10,10,11,11,12,12,13,13,14,14,15,15,16,16,17,17,18,18,19,19,20,20,21,21,22,22,23,23,24,24,25,25,26,26,27,27,28,28,29,29,30,30,31,31,32,32,33,33,34,34,35,35,36,36,37,37,38,38,39,39,40,40,41,41,42,42,43,43,44,44,45,45,46,46,47,47,48,48,49,49,50,50,51,51,52,52,53,53,54,54,55,55,56,56,57,57,58,58,59,59,60,60,61,61,62,62],"right_children":[2,4,6,8,10,12,14,16,18,20,22,24,26,28,30,32,34,36,38,40,42,44,46,48,50,52,54,56,58,60,62,64,66,68,70,72,74,76,78,80,82,84,86,88,90,92,94,96,98,100,102,104,106,108,110,112,114,116,118,120,122,124,126,-1,-1,-1,-1,-1,-1,-1,-1,-1,-1,-1,-1,-1,-1,-1,-1,-1,-1,-1,-1,-1,-1,-1,-1,-1,-1,-1,-1,-1,-1,-1,-1,-1,-1,-1,-1,-1,-1,-1,-1,-1,-1,-1,-1,-1,-1,-1,-1,-1,-1,-1,-1,-1,-1,-1,-1,-1,-1,-1,-1,-1,-1,-1,-1],"split_conditions":[6.3076925E-1,5.764706E-1,6.615385E-1,5.3968257E-1,6.2903225E-1,6.1702126E-1,7.125E-1,5.185185E-1,5.510204E-1,5.777778E-1,5.970149E-1,1.5517241E-1,6.730769E-1,7.1666664E-1,7.121212E-1,5.6E-1,9.243698E-2,1.2962963E-1,5.833333E-1,5.510204E-1,6.041667E-1,2.9411765E-2,6.730769E-1,5.967742E-1,5.92233E-1,8.77193E-2,1.7391305E-1,6.7391306E-1,2.4691358E-2,2.173913E-1,7.8846157E-1,1.4285714E-2,1.1764706E-1,6.056338E-1,5.185185E-1,5.6666666E-1,1.05882354E-1,8.256881E-2,1.2962963E-1,9.27835E-2,5.882353E-2,1E-1,6.511628E-1,7.704918E-1,6.6292137E-1,7.037037E-1,2E-2,6.54321E-1,6.617647E-1,6.3829786E-1,6.779661E-1,6.363636E-1,6.4761907E-1,6.9491524E-1,4.918033E-2,7.4025977E-1,1.20300755E-1,6.603774E-1,7.307692E-1,2.6666667E-2,6.09375E-1,7.878788E-1,8.947368E-1,2.2739382E-2,-5.1318754E-2,4.2410493E-3,6.8952575E-2,-5.1310603E-2,2.6187006E-2,-7.450565E-2,-5.0608244E-2,5.717328E-2,7.411942E-2,-6.0823085E-3,5.513267E-2,1.4287029E-2,-5.5275433E-2,6.013569E-2,-5.2232025E-3,-5.4813955E-2,-7.4211955E-2,-3.851522E-2,-6.53542E-2,2.8037371E-2,-1.6232358E-2,-4.6020642E-2,-4.1880463E-3,-3.260407E-2,4.070577E-2,-6.97608E-2,-7.4867316E-2,-5.1709123E-2,-2.4835674E-2,9.927007E-3,-6.876131E-2,7.0564605E-2,7.477549E-2,4.8037644E-2,7.1027555E-2,6.9858446E-3,6.716045E-2,-1.9132016E-2,4.8213255E-2,-2.1120403E-3,3.69669E-2,-3.703925E-2,-5.95186E-4,4.830775E-2,6.958816E-2,3.770248E-2,-3.0481143E-2,-4.682542E-2,-2.0244403E-2,1.806213E-2,-3.0946778E-2,-5.2229118E-2,1.2366258E-2,-7.399975E-2,-5.718451E-2,6.813788E-2,4.4608675E-2,-4.5997627E-2,9.556009E-3,-2.180322E-3,-6.525483E-2,6.0187377E-2,-3.441385E-2],"split_indices":[89,94,94,89,94,94,89,94,94,89,89,96,89,94,94,87,95,96,89,89,94,95,94,94,94,96,96,89,95,96,89,96,97,87,89,89,97,96,96,95,96,96,87,87,94,87,95,89,89,89,89,89,89,89,95,87,96,86,87,95,86,94,92,0,0,0,0,0,0,0,0,0,0,0,0,0,0,0,0,0,0,0,0,0,0,0,0,0,0,0,0,0,0,0,0,0,0,0,0,0,0,0,0,0,0,0,0,0,0,0,0,0,0,0,0,0,0,0,0,0,0,0,0,0,0,0,0],"split_type":[0,0,0,0,0,0,0,0,0,0,0,0,0,0,0,0,0,0,0,0,0,0,0,0,0,0,0,0,0,0,0,0,0,0,0,0,0,0,0,0,0,0,0,0,0,0,0,0,0,0,0,0,0,0,0,0,0,0,0,0,0,0,0,0,0,0,0,0,0,0,0,0,0,0,0,0,0,0,0,0,0,0,0,0,0,0,0,0,0,0,0,0,0,0,0,0,0,0,0,0,0,0,0,0,0,0,0,0,0,0,0,0,0,0,0,0,0,0,0,0,0,0,0,0,0,0,0],"sum_hessian":[1.6008539E4,7.9069336E3,8.101606E3,1.372604E3,6.5343296E3,5.9119624E3,2.1896436E3,2.2928682E2,1.1433171E3,1.6792261E3,4.8551035E3,4.2630557E3,1.6489065E3,1.6110789E3,5.7856464E2,4.907386E1,1.8021295E2,7.422669E2,4.0105026E2,8.439544E2,8.352717E2,3.5258574E3,1.329246E3,4.0332654E3,2.2979042E2,6.575508E2,9.913557E2,9.685305E2,6.4254834E2,3.5083737E2,2.2772725E2,1.5466889E1,3.360697E1,1.3771263E1,1.664417E2,7.1403534E2,2.8231615E1,1.3175851E2,2.6929175E2,5.497218E2,2.942326E2,3.954426E2,4.3982913E2,4.863859E0,3.5209934E3,5.2490027E2,8.0434576E2,3.3170151E3,7.162502E2,1.5504865E2,7.474178E1,4.169481E2,2.4060274E2,9.06953E2,8.440267E1,6.071228E2,3.614077E2,5.1009216E1,5.915391E2,3.2244022E2,2.8397154E1,1.9481815E2,3.2909107E1,4.108827E0,1.1358063E1,7.080096E0,2.6526876E1,4.9953027E0,8.77596E0,1.1373939E2,5.2702312E1,1.11238655E2,6.0279663E2,1.2989742E1,1.5241873E1,1.0418991E2,2.7568607E1,2.5095946E2,1.8332283E1,4.8996952E1,5.0072485E2,1.5072713E2,1.435055E2,3.1926953E2,7.617307E1,1.137137E2,3.2611542E2,2.654097E0,2.209762E0,9.51126E2,2.5698674E3,2.7464102E2,2.5025925E2,3.8682156E0,8.0047754E2,6.2397876E2,2.6930364E3,2.0082881E2,5.154214E2,5.3005004E0,1.4974814E2,2.8780697E1,4.5961082E1,5.8688858E1,3.5825922E2,9.9482254E1,1.4112047E2,2.5768228E2,6.4927075E2,5.5917435E1,2.8485237E1,3.0763843E2,2.9948434E2,2.5989346E2,1.0151426E2,3.0670742E1,2.0338476E1,2.1394496E2,3.7759418E2,1.4922441E2,1.732158E2,7.414304E0,2.098285E1,1.6758109E2,2.7237059E1,2.993361E1,2.9754965E0],"tree_param":{"num_deleted":"0","num_feature":"98","num_nodes":"127","size_leaf_vector":"1"}},{"base_weights":[-8.4572646E-4,8.324625E-1,-7.8398484E-1,-5.6835604E-1,1.2260542E0,-1.2158412E0,3.5983023E-1,9.330198E-1,-9.407419E-1,1.391682E0,8.4961575E-1,-1.3947135E0,-7.528348E-1,7.2353864E-1,-5.8001953E-1,-6.292974E-1,1.2553164E0,-1.2896159E0,-4.134412E-1,1.1789076E0,1.4400555E0,1.9536039E-1,1.2479807E0,-1.4173173E0,-9.85271E-1,-2.801535E-1,-1.1817633E0,3.4585038E-1,1.096093E0,-9.5981157E-1,2.7141726E-2,7.358301E-1,-1.0410793E0,1.3166344E0,4.4775035E-2,-1.3632356E0,-6.968674E-1,2.1260339E-1,-8.193373E-1,1.3895693E0,7.5587565E-1,1.4415118E0,-4.833865E-1,-1.8777046E-1,5.5200744E-1,1.3269888E0,5.3293014E-1,-1.4509772E0,-1.2626671E0,-1.335115E0,-5.508765E-1,-5.525982E-1,3.4183562E-1,-1.2703689E0,-2.4893841E-1,5.329524E-1,-4.927302E-1,1.2367369E0,4.1519406E-1,-1.0614322E0,1.0850329E-1,3.2595006E-1,-6.079046E-1,5.0912645E-2,-4.6949573E-2,-6.1956618E-2,4.6982765E-2,7.196141E-2,5.333708E-2,-2.8745493E-2,3.2589797E-2,-4.806175E-2,-7.0570715E-2,8.350461E-3,-5.08525E-2,2.3418522E-2,-3.159203E-2,-5.127563E-2,1.5140545E-2,6.968213E-2,-4.147848E-2,4.5216907E-2,-3.490956E-3,7.187683E-2,5.0438907E-2,-4.462665E-2,4.0799514E-3,7.23913E-3,-3.1997796E-2,3.4531597E-2,-3.402304E-2,5.5118773E-2,7.0270546E-2,-2.5500287E-3,5.773802E-2,-6.9103286E-2,-7.3186554E-2,-4.238442E-2,-6.822941E-2,-9.50406E-3,-6.754555E-2,-3.7300007E-3,-6.315728E-2,-1.3506276E-2,-4.8096787E-2,2.8730834E-2,-1.9736124E-2,-5.1323745E-2,-6.906716E-2,9.636681E-3,-5.074634E-2,4.051702E-2,4.0827203E-3,-3.8221344E-2,2.1045808E-2,7.215319E-2,5.4647036E-2,5.363719E-4,4.5997053E-2,-6.1629787E-2,-3.713826E-2,2.029733E-2,-5.082508E-2,2.6753603E-3,4.828345E-2,-3.677116E-2,5.2387323E-2],"categories":[],"categories_nodes":[],"categories_segments":[],"categories_sizes":[],"default_left":[0,0,0,0,0,0,0,0,0,0,0,0,0,0,0,0,0,0,0,0,0,0,0,0,0,0,0,0,0,0,0,0,0,0,0,0,0,0,0,0,0,0,0,0,0,0,0,0,0,0,0,0,0,0,0,0,0,0,0,0,0,0,0,0,0,0,0,0,0,0,0,0,0,0,0,0,0,0,0,0,0,0,0,0,0,0,0,0,0,0,0,0,0,0,0,0,0,0,0,0,0,0,0,0,0,0,0,0,0,0,0,0,0,0,0,0,0,0,0,0,0,0,0,0,0,0,0],"id":9,"left_children":[1,3,5,7,9,11,13,15,17,19,21,23,25,27,29,31,33,35,37,39,41,43,45,47,49,51,53,55,57,59,61,63,65,67,69,71,73,75,77,79,81,83,85,87,89,91,93,95,97,99,101,103,105,107,109,111,113,115,117,119,121,123,125,-1,-1,-1,-1,-1,-1,-1,-1,-1,-1,-1,-1,-1,-1,-1,-1,-1,-1,-1,-1,-1,-1,-1,-1,-1,-1,-1,-1,-1,-1,-1,-1,-1,-1,-1,-1,-1,-1,-1,-1,-1,-1,-1,-1,-1,-1,-1,-1,-1,-1,-1,-1,-1,-1,-1,-1,-1,-1,-1,-1,-1,-1,-1,-1],"loss_changes":[1.0275201E4,4.206642E3,4.0100674E3,9.3685004E2,3.697461E2,4.8661523E2,7.612267E2,1.6871844E2,2.4607031E2,4.0361816E1,4.7464185E2,3.75E1,3.3293237E2,2.2527924E2,1.4343703E2,3.3314518E1,2.0325348E1,3.3927002E1,1.3648007E2,6.742053E1,1.0304199E1,9.460941E1,6.2996704E1,1.8600098E1,3.3356186E1,1.3309569E2,7.0715576E1,1.2564056E2,7.6569275E1,4.1750366E1,4.576276E1,7.876827E0,1.9685974E1,6.408203E0,5.990151E0,1.4366699E1,2.615337E1,4.6769028E1,7.8212616E1,1.5959656E1,3.317935E1,5.222168E0,9.4977075E-1,5.095603E1,6.389151E1,1.7313965E1,4.2338673E1,1.7426758E0,3.1405273E1,2.9901733E0,3.5035805E1,6.3221832E1,4.2093884E1,2.0471313E1,2.6392931E1,8.306854E1,3.7438908E1,1.765271E1,2.8801464E1,1.8374237E1,1.1997244E1,2.8676851E1,1.7779554E1,0E0,0E0,0E0,0E0,0E0,0E0,0E0,0E0,0E0,0E0,0E0,0E0,0E0,0E0,0E0,0E0,0E0,0E0,0E0,0E0,0E0,0E0,0E0,0E0,0E0,0E0,0E0,0E0,0E0,0E0,0E0,0E0,0E0,0E0,0E0,0E0,0E0,0E0,0E0,0E0,0E0,0E0,0E0,0E0,0E0,0E0,0E0,0E0,0E0,0E0,0E0,0E0,0E0,0E0,0E0,0E0,0E0,0E0,0E0,0E0,0E0,0E0,0E0,0E0],"parents":[2147483647,0,0,1,1,2,2,3,3,4,4,5,5,6,6,7,7,8,8,9,9,10,10,11,11,12,12,13,13,14,14,15,15,16,16,17,17,18,18,19,19,20,20,21,21,22,22,23,23,24,24,25,25,26,26,27,27,28,28,29,29,30,30,31,31,32,32,33,33,34,34,35,35,36,36,37,37,38,38,39,39,40,40,41,41,42,42,43,43,44,44,45,45,46,46,47,47,48,48,49,49,50,50,51,51,52,52,53,53,54,54,55,55,56,56,57,57,58,58,59,59,60,60,61,61,62,62],"right_children":[2,4,6,8,10,12,14,16,18,20,22,24,26,28,30,32,34,36,38,40,42,44,46,48,50,52,54,56,58,60,62,64,66,68,70,72,74,76,78,80,82,84,86,88,90,92,94,96,98,100,102,104,106,108,110,112,114,116,118,120,122,124,126,-1,-1,-1,-1,-1,-1,-1,-1,-1,-1,-1,-1,-1,-1,-1,-1,-1,-1,-1,-1,-1,-1,-1,-1,-1,-1,-1,-1,-1,-1,-1,-1,-1,-1,-1,-1,-1,-1,-1,-1,-1,-1,-1,-1,-1,-1,-1,-1,-1,-1,-1,-1,-1,-1,-1,-1,-1,-1,-1,-1,-1,-1,-1,-1],"split_conditions":[6.2903225E-1,5.9090906E-1,6.617647E-1,5.423729E-1,5.9322035E-1,6.1728394E-1,7.083333E-1,5.2238804E-1,5.588235E-1,6.268657E-1,6.4761907E-1,1.5555556E-1,6.8085104E-1,7.051282E-1,7.1428573E-1,5E-1,1.14285715E-1,9.375E-2,5.875E-1,5.6666666E-1,3.2544377E-1,5.7471264E-2,1.4814815E-1,5.970149E-1,5.8181816E-1,9.859155E-2,1.7391305E-1,1.4035088E-1,1.5E-1,2.1212122E-1,7.5757575E-1,9.859155E-2,1.0606061E-1,5.185185E-1,4.761905E-2,5.632184E-1,5.7746476E-1,8.256881E-2,1.02564104E-1,1.971831E-1,1.02564104E-1,2.1153846E-1,1E0,6.521739E-2,1.388889E-1,6.75E-1,7.1014494E-1,6.6292137E-1,6.5217394E-1,3.1746034E-2,7.1666664E-1,8.77193E-2,1.14285715E-1,7.058824E-1,7.4603176E-1,6.691176E-1,1.2328767E-1,2.2222223E-2,7.4626863E-1,9.7087376E-2,7.878788E-1,1.5789473E-1,8.108108E-1,5.0912645E-2,-4.6949573E-2,-6.1956618E-2,4.6982765E-2,7.196141E-2,5.333708E-2,-2.8745493E-2,3.2589797E-2,-4.806175E-2,-7.0570715E-2,8.350461E-3,-5.08525E-2,2.3418522E-2,-3.159203E-2,-5.127563E-2,1.5140545E-2,6.968213E-2,-4.147848E-2,4.5216907E-2,-3.490956E-3,7.187683E-2,5.0438907E-2,-4.462665E-2,4.0799514E-3,7.23913E-3,-3.1997796E-2,3.4531597E-2,-3.402304E-2,5.5118773E-2,7.0270546E-2,-2.5500287E-3,5.773802E-2,-6.9103286E-2,-7.3186554E-2,-4.238442E-2,-6.822941E-2,-9.50406E-3,-6.754555E-2,-3.7300007E-3,-6.315728E-2,-1.3506276E-2,-4.8096787E-2,2.8730834E-2,-1.9736124E-2,-5.1323745E-2,-6.906716E-2,9.636681E-3,-5.074634E-2,4.051702E-2,4.0827203E-3,-3.8221344E-2,2.1045808E-2,7.215319E-2,5.4647036E-2,5.363719E-4,4.5997053E-2,-6.1629787E-2,-3.713826E-2,2.029733E-2,-5.082508E-2,2.6753603E-3,4.828345E-2,-3.677116E-2,5.2387323E-2],"split_indices":[94,89,89,94,94,89,94,89,89,89,89,90,94,89,89,94,96,90,94,94,96,90,96,89,89,90,90,96,96,90,94,96,90,94,90,94,94,96,90,96,96,96,84,96,96,89,89,94,94,95,94,96,96,94,94,94,90,95,89,90,94,90,89,0,0,0,0,0,0,0,0,0,0,0,0,0,0,0,0,0,0,0,0,0,0,0,0,0,0,0,0,0,0,0,0,0,0,0,0,0,0,0,0,0,0,0,0,0,0,0,0,0,0,0,0,0,0,0,0,0,0,0,0,0,0,0,0],"split_type":[0,0,0,0,0,0,0,0,0,0,0,0,0,0,0,0,0,0,0,0,0,0,0,0,0,0,0,0,0,0,0,0,0,0,0,0,0,0,0,0,0,0,0,0,0,0,0,0,0,0,0,0,0,0,0,0,0,0,0,0,0,0,0,0,0,0,0,0,0,0,0,0,0,0,0,0,0,0,0,0,0,0,0,0,0,0,0,0,0,0,0,0,0,0,0,0,0,0,0,0,0,0,0,0,0,0,0,0,0,0,0,0,0,0,0,0,0,0,0,0,0,0,0,0,0,0,0],"sum_hessian":[1.5742867E4,7.6270317E3,8.1158354E3,1.6727699E3,5.9542617E3,5.8914805E3,2.2243547E3,3.3204874E2,1.3407211E3,4.132641E3,1.8216205E3,4.247905E3,1.643576E3,1.6039999E3,6.2035486E2,5.6546432E1,2.7550232E2,8.057758E2,5.349453E2,7.711991E2,3.3614421E3,6.90128E2,1.1314926E3,4.0227952E3,2.251093E2,7.829102E2,8.606658E2,7.977294E2,8.062705E2,3.8133762E2,2.3901726E2,1.2840057E1,4.3706375E1,2.620441E2,1.3458223E1,7.152958E2,9.0480095E1,2.1052153E2,3.2442377E2,5.1294354E2,2.5825552E2,3.3592354E3,2.2069297E0,3.328271E2,3.5730087E2,1.0179108E3,1.13581696E2,3.2954233E3,7.27372E2,1.23262924E2,1.01846375E2,5.446395E2,2.382707E2,7.855318E2,7.513398E1,6.526471E2,1.4508228E2,6.6735236E2,1.3891814E2,3.483103E2,3.3027317E1,1.6302255E2,7.5994705E1,1.138553E1,1.4545273E0,4.0031754E1,3.674622E0,1.661676E2,9.587649E1,6.6080103E0,6.850213E0,9.273483E1,6.225609E2,2.4858755E1,6.562134E1,1.6180739E2,4.871414E1,2.7298547E2,5.1438282E1,5.1047986E2,2.4636936E0,2.1766684E2,4.0588688E1,3.3175732E3,4.1662193E1,9.9732876E-1,1.2096009E0,1.9258693E2,1.4024017E2,3.2080344E2,3.649746E1,2.95773E2,7.221378E2,5.933705E1,5.4244644E1,8.9767377E2,2.3977495E3,1.5670543E2,5.7066656E2,2.8517501E0,1.2041117E2,6.2162487E1,3.968389E1,3.2621216E2,2.1842737E2,1.8082387E2,5.7446827E1,2.669831E2,5.185487E2,4.8201782E1,2.6932198E1,4.0054816E2,2.5209895E2,1.11680435E2,3.3401836E1,2.5499269E2,4.1235968E2,7.826823E1,6.0649906E1,2.1959929E2,1.2871101E2,2.6747131E1,6.280186E0,1.1566383E2,4.735872E1,7.103675E1,4.957953E0],"tree_param":{"num_deleted":"0","num_feature":"98","num_nodes":"127","size_leaf_vector":"1"}},{"base_weights":[6.798018E-4,9.0005755E-1,-6.8588805E-1,-6.470394E-1,1.204171E0,-1.1953518E0,3.0344316E-1,7.264775E-1,-1.0181473E0,6.8932796E-1,1.3344654E0,-1.3678585E0,-8.2806575E-1,7.760639E-1,-4.2104387E-1,-5.7175344E-1,1.1499673E0,-1.3601427E0,-6.228093E-1,1.245752E0,4.4005882E-2,1.3998325E0,1.1124109E0,-1.4249697E0,-1.2357625E0,-1.4582366E-1,-1.0954162E0,3.5719067E-1,1.1297723E0,-7.894855E-1,3.1573886E-1,8.1605506E-1,-9.1996497E-1,1.2525983E0,-5.1896703E-1,-6.77417E-1,-1.398821E0,7.996143E-2,-9.622846E-1,1.2805216E0,-3.0900633E-1,-3.396533E-1,4.356343E-1,1.403661E0,3.5030055E-1,6.3114834E-1,1.2896147E0,-1.4267938E0,1.8429431E-1,-9.710482E-1,-1.3833338E0,-5.8546376E-1,1.7820016E-1,-1.19551E0,-3.0622727E-1,5.77439E-1,-2.805072E-1,1.2254856E0,2.4497637E-1,-9.965628E-1,-1.6173774E-1,5.953791E-1,-3.579371E-1,6.094093E-2,-4.975484E-2,-5.5897016E-2,5.6234844E-2,6.551234E-2,1.870405E-2,1.0649092E-2,-6.4341865E-2,-5.445977E-2,2.1974154E-2,-2.3564087E-2,-6.989216E-2,-1.829099E-2,3.387103E-2,-5.4769E-2,-3.536718E-3,6.951475E-2,5.1837586E-2,5.5506825E-2,-3.7367757E-2,-2.5061849E-3,-4.388685E-2,3.4621365E-2,-1.1749324E-2,6.427268E-2,7.086505E-2,-3.153896E-2,4.40549E-2,4.3442592E-2,-3.304132E-3,6.6469505E-2,2.5066987E-2,6.3263867E-3,-7.094356E-2,4.504541E-2,-3.7916936E-2,-5.663779E-2,-2.1274311E-2,-7.001665E-2,-3.7749656E-2,-2.0322327E-2,-6.487267E-2,1.9354062E-2,-2.1108735E-2,-4.9605276E-2,-6.908517E-2,8.868447E-3,-5.0408956E-2,3.4786735E-2,-1.8872794E-2,-2.6420973E-2,2.6475523E-2,5.2046645E-2,6.965174E-2,-1.3614165E-2,3.9610006E-2,-3.562028E-2,-6.330595E-2,8.488906E-3,-4.4373237E-2,4.8010185E-2,8.459601E-3,-3.4465615E-2,1.4874202E-2],"categories":[],"categories_nodes":[],"categories_segments":[],"categories_sizes":[],"default_left":[0,0,0,0,0,0,0,0,0,0,0,0,0,0,0,0,0,0,0,0,0,0,0,0,0,0,0,0,0,0,0,0,0,0,0,0,0,0,0,0,0,0,0,0,0,0,0,0,0,0,0,0,0,0,0,0,0,0,0,0,0,0,0,0,0,0,0,0,0,0,0,0,0,0,0,0,0,0,0,0,0,0,0,0,0,0,0,0,0,0,0,0,0,0,0,0,0,0,0,0,0,0,0,0,0,0,0,0,0,0,0,0,0,0,0,0,0,0,0,0,0,0,0,0,0,0,0],"id":10,"left_children":[1,3,5,7,9,11,13,15,17,19,21,23,25,27,29,31,33,35,37,39,41,43,45,47,49,51,53,55,57,59,61,63,65,67,69,71,73,75,77,79,81,83,85,87,89,91,93,95,97,99,101,103,105,107,109,111,113,115,117,119,121,123,125,-1,-1,-1,-1,-1,-1,-1,-1,-1,-1,-1,-1,-1,-1,-1,-1,-1,-1,-1,-1,-1,-1,-1,-1,-1,-1,-1,-1,-1,-1,-1,-1,-1,-1,-1,-1,-1,-1,-1,-1,-1,-1,-1,-1,-1,-1,-1,-1,-1,-1,-1,-1,-1,-1,-1,-1,-1,-1,-1,-1,-1,-1,-1,-1],"loss_changes":[9.503948E3,3.1358809E3,4.3997964E3,5.591526E2,3.723252E2,3.6355176E2,1.016569E3,1.2922018E2,1.1549646E2,4.045573E2,6.2472656E1,2.7300781E1,3.3609888E2,2.6556274E2,3.18564E2,2.8955137E1,3.1050797E1,1.0903931E1,9.618556E1,3.3261658E1,7.878409E1,1.3036621E1,8.5552246E1,8.433105E0,4.4798462E1,7.433223E1,1.0408215E2,1.1598527E2,8.194055E1,1.0134042E2,7.402054E1,1.0504561E1,2.1225216E1,8.877716E0,6.664205E0,1.3301677E1,2.1651611E0,3.590477E1,3.364447E1,1.4746338E1,9.802831E0,4.1475967E1,4.5776142E1,6.0932617E0,8.086243E0,4.6937263E1,2.7026367E1,4.2109375E0,3.5453928E0,3.8741425E1,1.0795898E1,2.7346169E1,3.8466694E1,4.3338013E1,5.2039433E1,7.230965E1,4.368174E1,2.564209E1,2.796096E1,4.436664E1,4.7772774E1,4.3394592E1,2.574355E1,0E0,0E0,0E0,0E0,0E0,0E0,0E0,0E0,0E0,0E0,0E0,0E0,0E0,0E0,0E0,0E0,0E0,0E0,0E0,0E0,0E0,0E0,0E0,0E0,0E0,0E0,0E0,0E0,0E0,0E0,0E0,0E0,0E0,0E0,0E0,0E0,0E0,0E0,0E0,0E0,0E0,0E0,0E0,0E0,0E0,0E0,0E0,0E0,0E0,0E0,0E0,0E0,0E0,0E0,0E0,0E0,0E0,0E0,0E0,0E0,0E0,0E0,0E0,0E0],"parents":[2147483647,0,0,1,1,2,2,3,3,4,4,5,5,6,6,7,7,8,8,9,9,10,10,11,11,12,12,13,13,14,14,15,15,16,16,17,17,18,18,19,19,20,20,21,21,22,22,23,23,24,24,25,25,26,26,27,27,28,28,29,29,30,30,31,31,32,32,33,33,34,34,35,35,36,36,37,37,38,38,39,39,40,40,41,41,42,42,43,43,44,44,45,45,46,46,47,47,48,48,49,49,50,50,51,51,52,52,53,53,54,54,55,55,56,56,57,57,58,58,59,59,60,60,61,61,62,62],"right_children":[2,4,6,8,10,12,14,16,18,20,22,24,26,28,30,32,34,36,38,40,42,44,46,48,50,52,54,56,58,60,62,64,66,68,70,72,74,76,78,80,82,84,86,88,90,92,94,96,98,100,102,104,106,108,110,112,114,116,118,120,122,124,126,-1,-1,-1,-1,-1,-1,-1,-1,-1,-1,-1,-1,-1,-1,-1,-1,-1,-1,-1,-1,-1,-1,-1,-1,-1,-1,-1,-1,-1,-1,-1,-1,-1,-1,-1,-1,-1,-1,-1,-1,-1,-1,-1,-1,-1,-1,-1,-1,-1,-1,-1,-1,-1,-1,-1,-1,-1,-1,-1,-1,-1,-1,-1,-1],"split_conditions":[6.181818E-1,5.769231E-1,6.4835167E-1,5.423729E-1,6.2E-1,6.041667E-1,6.849315E-1,5.2238804E-1,5.409836E-1,5.744681E-1,5.9322035E-1,5.744681E-1,6.515151E-1,6.9135803E-1,7.1153843E-1,4.909091E-1,1.125E-1,9.090909E-2,5.753425E-1,1.5517241E-1,5.4054055E-2,2.6E-1,6.516854E-1,3.265306E-1,6.6292137E-1,5.4054055E-2,1.5E-1,1.1320755E-1,1.7391305E-1,1.3333334E-1,1.5E-1,1.02564104E-1,1.0606061E-1,6.8627454E-2,5.16129E-1,9.195402E-2,2.8947368E-1,4.8780486E-2,1.02564104E-1,5.494506E-1,5.074627E-1,4.1322313E-2,4.819277E-2,6.451613E-1,6.760563E-1,9.4736844E-2,1.7391305E-1,2.1276595E-2,7.1666664E-1,9.52381E-2,1.764706E-1,5.6338027E-2,1E-1,6.989247E-1,7.1910113E-1,6.7961164E-2,1.21212125E-1,7.288136E-1,7.352941E-1,3.508772E-2,7.5E-1,7.173913E-1,7.6363635E-1,6.094093E-2,-4.975484E-2,-5.5897016E-2,5.6234844E-2,6.551234E-2,1.870405E-2,1.0649092E-2,-6.4341865E-2,-5.445977E-2,2.1974154E-2,-2.3564087E-2,-6.989216E-2,-1.829099E-2,3.387103E-2,-5.4769E-2,-3.536718E-3,6.951475E-2,5.1837586E-2,5.5506825E-2,-3.7367757E-2,-2.5061849E-3,-4.388685E-2,3.4621365E-2,-1.1749324E-2,6.427268E-2,7.086505E-2,-3.153896E-2,4.40549E-2,4.3442592E-2,-3.304132E-3,6.6469505E-2,2.5066987E-2,6.3263867E-3,-7.094356E-2,4.504541E-2,-3.7916936E-2,-5.663779E-2,-2.1274311E-2,-7.001665E-2,-3.7749656E-2,-2.0322327E-2,-6.487267E-2,1.9354062E-2,-2.1108735E-2,-4.9605276E-2,-6.908517E-2,8.868447E-3,-5.0408956E-2,3.4786735E-2,-1.8872794E-2,-2.6420973E-2,2.6475523E-2,5.2046645E-2,6.965174E-2,-1.3614165E-2,3.9610006E-2,-3.562028E-2,-6.330595E-2,8.488906E-3,-4.4373237E-2,4.8010185E-2,8.459601E-3,-3.4465615E-2,1.4874202E-2],"split_indices":[94,89,89,94,89,89,94,89,89,94,94,89,94,89,89,94,96,95,94,96,90,96,89,90,94,90,90,96,96,90,96,96,90,91,94,90,93,90,90,94,94,91,91,89,89,96,96,95,94,90,90,91,96,94,94,91,90,89,89,91,94,94,89,0,0,0,0,0,0,0,0,0,0,0,0,0,0,0,0,0,0,0,0,0,0,0,0,0,0,0,0,0,0,0,0,0,0,0,0,0,0,0,0,0,0,0,0,0,0,0,0,0,0,0,0,0,0,0,0,0,0,0,0,0,0,0,0],"split_type":[0,0,0,0,0,0,0,0,0,0,0,0,0,0,0,0,0,0,0,0,0,0,0,0,0,0,0,0,0,0,0,0,0,0,0,0,0,0,0,0,0,0,0,0,0,0,0,0,0,0,0,0,0,0,0,0,0,0,0,0,0,0,0,0,0,0,0,0,0,0,0,0,0,0,0,0,0,0,0,0,0,0,0,0,0,0,0,0,0,0,0,0,0,0,0,0,0,0,0,0,0,0,0,0,0,0,0,0,0,0,0,0,0,0,0,0,0,0,0,0,0,0,0,0,0,0,0],"sum_hessian":[1.5389121E4,6.6619814E3,8.727141E3,1.0941528E3,5.5678286E3,5.760564E3,2.9665764E3,2.3245363E2,8.616992E2,1.1260923E3,4.4417363E3,3.917325E3,1.843239E3,1.795404E3,1.1711722E3,5.701886E1,1.7543477E2,4.6040457E2,4.0129468E2,6.040475E2,5.2204486E2,3.4265916E3,1.0151444E3,2.7266553E3,1.1906697E3,5.1954944E2,1.3236895E3,8.2315497E2,9.722491E2,7.807865E2,3.903857E2,1.1073307E1,4.5945553E1,1.6559492E2,9.839839E0,2.594719E1,4.344574E2,1.3088824E2,2.704064E2,5.910943E2,1.2953183E1,2.636466E2,2.5839825E2,3.4136597E3,1.293188E1,2.747325E2,7.404119E2,2.7237605E3,2.8948681E0,4.294907E2,7.61179E2,2.2019649E2,2.9935297E2,1.174069E3,1.4962056E2,6.1203864E2,2.1111635E2,8.768445E2,9.540459E1,5.86491E2,1.9429546E2,2.7607404E2,1.1431169E2,9.379102E0,1.6942049E0,4.228167E1,3.6638849E0,1.5338698E2,1.2207949E1,5.4089108E0,4.430928E0,1.897172E1,6.9754705E0,4.295104E0,4.301623E2,7.5172585E1,5.5715668E1,2.333788E2,3.7027615E1,3.903409E2,2.0075337E2,2.6082118E0,1.0344972E1,1.7301149E2,9.06351E1,1.8618062E2,7.2217636E1,5.900436E2,2.8236162E3,4.417374E0,8.514505E0,2.0363422E2,7.109829E1,6.968372E2,4.357472E1,1.4423006E0,2.722318E3,1.7325667E0,1.1623013E0,3.2655267E2,1.0293801E2,7.2950684E2,3.167218E1,1.783857E2,4.1810787E1,2.2210078E2,7.725219E1,5.870936E2,5.8697534E2,8.924097E1,6.0379593E1,5.4290137E2,6.91373E1,1.6169333E2,4.942302E1,4.403232E2,4.365213E2,4.93762E1,4.6028385E1,2.9424316E2,2.922479E2,1.3405031E2,6.024516E1,1.4656253E2,1.2951149E2,7.573187E1,3.857982E1],"tree_param":{"num_deleted":"0","num_feature":"98","num_nodes":"127","size_leaf_vector":"1"}},{"base_weights":[-2.153096E-3,-6.872944E-1,5.6069463E-1,-1.0488551E0,2.2521462E-1,-3.8051522E-1,9.299871E-1,-1.2628982E0,-6.254224E-1,-4.4770452E-1,8.270656E-1,-9.735974E-1,1.3450834E-1,3.904014E-1,1.1832651E0,-1.361466E0,-1.0478299E0,-1.2136127E0,-1.9623783E-1,-9.3311435E-1,7.4926764E-2,-1.7505212E-1,1.0113369E0,-7.015398E-2,-1.0539817E0,-6.075607E-1,4.27388E-1,-1.69857E-2,1.0145749E0,9.2524195E-1,1.3378943E0,-1.3994485E0,-1.2780361E0,-1.2675785E0,-7.2320926E-1,-1.3586497E0,-9.8599035E-1,-9.4600606E-1,1.91367E-1,-1.095904E0,-2.7655458E-1,-2.5588158E-1,7.450197E-1,-6.3955903E-1,6.6903275E-1,7.5617266E-1,1.2628042E0,-5.048759E-1,5.1108617E-1,-1.2346745E0,-7.0707875E-1,-1.1044061E0,-8.940186E-2,-6.78061E-2,8.030878E-1,3.2487053E-1,-3.9938593E-1,7.5556237E-1,1.2136658E0,7.313831E-1,1.2484405E0,1.3825992E0,1.243296E0,3.5010243E-3,-6.959854E-2,-6.763538E-2,-5.5270843E-2,-6.813362E-2,-5.5897575E-2,-6.261951E-2,-2.3409689E-2,-6.768504E-2,-4.4504265E-4,-6.6744894E-2,-3.6989532E-2,-5.1892366E-2,-4.6806475E-3,-9.4784435E-4,3.5451252E-2,-3.8139924E-2,-6.40764E-2,-5.685956E-2,1.3351503E-2,-3.0473059E-2,7.6065916E-3,3.0418672E-3,4.776117E-2,-4.830859E-2,-2.5165183E-3,-1.8622112E-2,4.1664142E-2,2.5577104E-2,5.767563E-2,6.3306905E-2,-1.6639858E-2,-4.6249274E-2,1.2735837E-3,-2.129772E-3,4.506372E-2,-6.490027E-2,-4.5632273E-2,-4.927113E-2,-1.5422735E-2,-5.660236E-2,2.555282E-2,-2.529279E-2,1.6477583E-2,-1.2234236E-2,3.2282397E-2,2.4825212E-2,5.3632494E-2,7.815437E-3,4.580827E-2,-4.226341E-2,-4.257328E-3,1.2274465E-2,4.6763845E-2,4.2174358E-2,6.359979E-2,2.088147E-2,4.9541518E-2,6.482787E-2,4.938611E-2,6.9020666E-2,5.7564016E-2,6.4688124E-2,5.2741613E-2],"categories":[],"categories_nodes":[],"categories_segments":[],"categories_sizes":[],"default_left":[0,0,0,0,0,0,0,0,0,0,0,0,0,0,0,0,0,0,0,0,0,0,0,0,0,0,0,0,0,0,0,0,0,0,0,0,0,0,0,0,0,0,0,0,0,0,0,0,0,0,0,0,0,0,0,0,0,0,0,0,0,0,0,0,0,0,0,0,0,0,0,0,0,0,0,0,0,0,0,0,0,0,0,0,0,0,0,0,0,0,0,0,0,0,0,0,0,0,0,0,0,0,0,0,0,0,0,0,0,0,0,0,0,0,0,0,0,0,0,0,0,0,0,0,0,0,0],"id":11,"left_children":[1,3,5,7,9,11,13,15,17,19,21,23,25,27,29,31,33,35,37,39,41,43,45,47,49,51,53,55,57,59,61,63,65,67,69,71,73,75,77,79,81,83,85,87,89,91,93,95,97,99,101,103,105,107,109,111,113,115,117,119,121,123,125,-1,-1,-1,-1,-1,-1,-1,-1,-1,-1,-1,-1,-1,-1,-1,-1,-1,-1,-1,-1,-1,-1,-1,-1,-1,-1,-1,-1,-1,-1,-1,-1,-1,-1,-1,-1,-1,-1,-1,-1,-1,-1,-1,-1,-1,-1,-1,-1,-1,-1,-1,-1,-1,-1,-1,-1,-1,-1,-1,-1,-1,-1,-1,-1],"loss_changes":[5.843099E3,2.25498E3,2.8917573E3,4.425332E2,7.86209E2,7.1645154E2,8.158462E2,6.70376E1,4.1507172E2,2.3271072E2,1.8949634E2,7.8960815E1,2.7322137E2,4.8590186E2,1.605708E2,4.7558594E0,7.199231E1,2.1158325E1,2.772368E2,5.033014E1,9.831928E1,6.3219666E1,5.4264526E1,2.3125624E1,6.154651E1,9.135388E1,1.6780785E2,1.5139719E2,3.7673645E1,9.445752E1,8.529297E0,2.9040527E0,7.8115234E0,7.024048E0,5.5631973E1,1.8200684E0,2.2345032E1,2.6989502E1,6.920136E1,2.2857422E1,4.5901154E1,4.3542477E1,2.1493874E1,2.0185757E1,1.0531441E1,4.1416656E1,8.3602295E0,1.1953677E1,8.712663E0,1.3244751E1,3.8518646E1,1.091185E1,3.1207249E1,5.002054E1,4.220761E1,6.0888535E1,7.71999E1,3.0860184E1,8.819214E0,7.852307E1,6.465454E0,3.8452148E-1,6.9990234E0,0E0,0E0,0E0,0E0,0E0,0E0,0E0,0E0,0E0,0E0,0E0,0E0,0E0,0E0,0E0,0E0,0E0,0E0,0E0,0E0,0E0,0E0,0E0,0E0,0E0,0E0,0E0,0E0,0E0,0E0,0E0,0E0,0E0,0E0,0E0,0E0,0E0,0E0,0E0,0E0,0E0,0E0,0E0,0E0,0E0,0E0,0E0,0E0,0E0,0E0,0E0,0E0,0E0,0E0,0E0,0E0,0E0,0E0,0E0,0E0,0E0,0E0,0E0,0E0],"parents":[2147483647,0,0,1,1,2,2,3,3,4,4,5,5,6,6,7,7,8,8,9,9,10,10,11,11,12,12,13,13,14,14,15,15,16,16,17,17,18,18,19,19,20,20,21,21,22,22,23,23,24,24,25,25,26,26,27,27,28,28,29,29,30,30,31,31,32,32,33,33,34,34,35,35,36,36,37,37,38,38,39,39,40,40,41,41,42,42,43,43,44,44,45,45,46,46,47,47,48,48,49,49,50,50,51,51,52,52,53,53,54,54,55,55,56,56,57,57,58,58,59,59,60,60,61,61,62,62],"right_children":[2,4,6,8,10,12,14,16,18,20,22,24,26,28,30,32,34,36,38,40,42,44,46,48,50,52,54,56,58,60,62,64,66,68,70,72,74,76,78,80,82,84,86,88,90,92,94,96,98,100,102,104,106,108,110,112,114,116,118,120,122,124,126,-1,-1,-1,-1,-1,-1,-1,-1,-1,-1,-1,-1,-1,-1,-1,-1,-1,-1,-1,-1,-1,-1,-1,-1,-1,-1,-1,-1,-1,-1,-1,-1,-1,-1,-1,-1,-1,-1,-1,-1,-1,-1,-1,-1,-1,-1,-1,-1,-1,-1,-1,-1,-1,-1,-1,-1,-1,-1,-1,-1,-1,-1,-1,-1],"split_conditions":[7.0731705E-1,1.0309278E-1,5.7471264E-2,5.16129E-1,4.9056605E-1,5.1111114E-1,5E-1,7.317073E-2,5.5555556E-2,6.3829786E-1,5.952381E-1,3.2967035E-2,2.5641026E-2,1.097561E-1,9.195402E-2,6.6071427E-1,6.5217394E-1,6.5957445E-1,6.3076925E-1,1.4893617E-1,1.4035088E-1,1.4285715E-1,1.3207547E-1,8.3870965E-1,4.2857144E-2,7.846154E-1,7.741935E-1,8.196721E-2,1.3114753E-1,6.052632E-1,6.122449E-2,2.5E1,5.4054055E-2,6.09375E-1,4.1025642E-1,7.894737E-1,3.0303031E-2,6.551724E-1,6.111111E-1,1.2903225E-1,5.6363636E-1,4.3589744E-1,3.8709676E-1,5.714286E-1,5.263158E-1,5.9090906E-1,3.61E1,6.619718E-1,8.91E2,4.827586E-1,7.735849E-1,7.5E-1,5.9090906E-1,6.4E-1,5.925926E-1,8.3206105E-1,4.117647E-1,5.540541E-1,5.2747256E-1,7.714286E-1,1.3333334E-1,1.5517241E-1,7.608695E-2,3.5010243E-3,-6.959854E-2,-6.763538E-2,-5.5270843E-2,-6.813362E-2,-5.5897575E-2,-6.261951E-2,-2.3409689E-2,-6.768504E-2,-4.4504265E-4,-6.6744894E-2,-3.6989532E-2,-5.1892366E-2,-4.6806475E-3,-9.4784435E-4,3.5451252E-2,-3.8139924E-2,-6.40764E-2,-5.685956E-2,1.3351503E-2,-3.0473059E-2,7.6065916E-3,3.0418672E-3,4.776117E-2,-4.830859E-2,-2.5165183E-3,-1.8622112E-2,4.1664142E-2,2.5577104E-2,5.767563E-2,6.3306905E-2,-1.6639858E-2,-4.6249274E-2,1.2735837E-3,-2.129772E-3,4.506372E-2,-6.490027E-2,-4.5632273E-2,-4.927113E-2,-1.5422735E-2,-5.660236E-2,2.555282E-2,-2.529279E-2,1.6477583E-2,-1.2234236E-2,3.2282397E-2,2.4825212E-2,5.3632494E-2,7.815437E-3,4.580827E-2,-4.226341E-2,-4.257328E-3,1.2274465E-2,4.6763845E-2,4.2174358E-2,6.359979E-2,2.088147E-2,4.9541518E-2,6.482787E-2,4.938611E-2,6.9020666E-2,5.7564016E-2,6.4688124E-2,5.2741613E-2],"split_indices":[87,97,97,88,88,88,88,97,97,87,87,95,97,97,97,87,87,87,87,97,97,97,97,87,97,87,87,95,97,88,95,79,97,87,88,88,97,88,88,95,87,88,88,88,87,88,85,86,73,88,87,88,88,88,88,87,88,86,86,87,96,96,96,0,0,0,0,0,0,0,0,0,0,0,0,0,0,0,0,0,0,0,0,0,0,0,0,0,0,0,0,0,0,0,0,0,0,0,0,0,0,0,0,0,0,0,0,0,0,0,0,0,0,0,0,0,0,0,0,0,0,0,0,0,0,0,0],"split_type":[0,0,0,0,0,0,0,0,0,0,0,0,0,0,0,0,0,0,0,0,0,0,0,0,0,0,0,0,0,0,0,0,0,0,0,0,0,0,0,0,0,0,0,0,0,0,0,0,0,0,0,0,0,0,0,0,0,0,0,0,0,0,0,0,0,0,0,0,0,0,0,0,0,0,0,0,0,0,0,0,0,0,0,0,0,0,0,0,0,0,0,0,0,0,0,0,0,0,0,0,0,0,0,0,0,0,0,0,0,0,0,0,0,0,0,0,0,0,0,0,0,0,0,0,0,0,0],"sum_hessian":[1.5149792E4,6.832584E3,8.317208E3,4.893567E3,1.9390171E3,2.3436553E3,5.973553E3,3.2488232E3,1.6447437E3,9.155131E2,1.02350397E3,1.0889082E3,1.2547471E3,1.9092799E3,4.064273E3,2.2233518E3,1.0254714E3,6.9287244E2,9.518713E2,4.7430374E2,4.412094E2,1.5889272E2,8.6461127E2,8.924818E1,9.9966E2,3.5463718E2,9.001099E2,1.1558232E3,7.534567E2,1.5261653E3,2.5381077E3,1.5147363E3,7.0861554E2,6.093711E2,4.1610037E2,4.1951196E2,2.7336044E2,3.2392636E2,6.279449E2,3.793372E2,9.496654E1,2.957471E2,1.4546231E2,1.0274671E2,5.614601E1,4.3159686E2,4.330144E2,5.1246822E1,3.8001354E1,6.552002E2,3.4445978E2,1.8028877E2,1.743484E2,3.88582E2,5.1152792E2,6.102088E2,5.4561444E2,3.300256E2,4.2343112E2,9.5646326E2,5.69702E2,1.7124209E3,8.2568677E2,1.1027467E0,1.5136335E3,4.661471E2,2.4246843E2,3.4700262E2,2.623685E2,1.31367E2,2.8473337E2,4.1834525E2,1.166733E0,1.080417E2,1.6531874E2,2.9007306E2,3.3853317E1,4.4817593E2,1.7976895E2,1.4297737E2,2.3635983E2,3.6242733E1,5.8723804E1,1.576633E2,1.380838E2,3.5400257E1,1.1006205E2,6.507897E1,3.7667736E1,7.5648265E0,4.8581184E1,2.7204233E2,1.5955455E2,4.3028622E2,2.7281857E0,2.8064413E1,2.318241E1,1.614567E1,2.1855682E1,5.3138654E2,1.2381365E2,1.9946745E2,1.4499232E2,1.7689557E2,3.3932145E0,8.732559E1,8.702281E1,3.119097E2,7.667231E1,2.4542944E2,2.6609848E2,4.7770612E2,1.325027E2,2.2285956E2,3.2275485E2,8.907302E1,2.4095258E2,6.7693306E1,3.557378E2,4.419963E2,5.14467E2,4.6254672E2,1.0715532E2,1.6586615E3,5.3759487E1,6.190136E2,2.0667317E2],"tree_param":{"num_deleted":"0","num_feature":"98","num_nodes":"127","size_leaf_vector":"1"}},{"base_weights":[-1.3277046E-3,8.1932765E-1,-6.816693E-1,-4.8034504E-1,1.1564902E0,-1.132544E0,2.9120043E-1,8.4538734E-1,-8.4829974E-1,7.9580665E-1,1.3029917E0,-1.3066776E0,-7.3455024E-1,7.611426E-1,-3.5532567E-1,-6.0179245E-1,1.1723939E0,-1.2323917E0,-3.8838932E-1,1.2499138E0,2.816525E-1,1.3564781E0,1.118434E0,-1.3303412E0,-9.458363E-1,-1.5081926E-1,-1.0340419E0,4.9529588E-1,1.1400007E0,-7.054961E-1,2.733053E-1,6.909473E-1,-9.8330295E-1,1.3120885E0,5.870362E-1,-1.2496275E0,8.509202E-1,2.2727372E-1,-7.845431E-1,1.3456801E0,9.6602696E-1,7.618673E-2,7.367554E-1,1.3782384E0,1.2850213E0,