{"learner":{"attributes":{"best_iteration":"1709","best_score":"0.17768888786789092"},"feature_names":["year","tourney_level_ATP 250/500","tourney_level_Grand Slam","tourney_level_Masters","tourney_level_Year End Final","surface_Clay","surface_Grass","surface_Hard","draw_size_12","draw_size_128","draw_size_16","draw_size_18","draw_size_24","draw_size_28","draw_size_32","draw_size_48","draw_size_56","draw_size_64","draw_size_8","draw_size_96","best_of_3","best_of_5","round_BR","round_F","round_QF","round_R128","round_R16","round_R32","round_R64","round_SF","seed_1","seed_10","seed_11","seed_12","seed_13","seed_14","seed_15","seed_16","seed_17","seed_18","seed_19","seed_2","seed_20","seed_21","seed_22","seed_23","seed_24","seed_25","seed_26","seed_27","seed_28","seed_29","seed_3","seed_30","seed_31","seed_32","seed_33","seed_35","seed_4","seed_5","seed_6","seed_7","seed_8","seed_9","seed_Unseeded","entry_ALT","entry_Alt","entry_LL","entry_NA","entry_PR","entry_Q","entry_SE","entry_WC","rank_points","rank_bin_Outside Top 100","rank_bin_Top 10","rank_bin_Top 100","rank_bin_Top 25","rank_bin_Top 50","opp_rank_points","opp_rank_bin_Outside Top 100","opp_rank_bin_Top 10","opp_rank_bin_Top 100","opp_rank_bin_Top 25","opp_rank_bin_Top 50","age","first_in_per","first_won_per","second_won_per","rally_svptw_per","ace_per","df_per","first_rpw_per","second_rpw_per","rally_rpw_per","bp_face_freq","ace_per_against","bp_create_freq"],"feature_types":["int","int","int","int","int","int","int","int","int","int","int","int","int","int","int","int","int","int","int","int","int","int","int","int","int","int","int","int","int","int","int","int","int","int","int","int","int","int","int","int","int","int","int","int","int","int","int","int","int","int","int","int","int","int","int","int","int","int","int","int","int","int","int","int","int","int","int","int","int","int","int","int","int","float","int","int","int","int","int","float","int","int","int","int","int","float","float","float","float","float","float","float","float","float","float","float","float","float"],"gradient_booster":{"model":{"gbtree_model_param":{"num_parallel_tree":"1","num_trees":"1760"},"iteration_indptr":[0,1,2,3,4,5,6,7,8,9,10,11,12,13,14,15,16,17,18,19,20,21,22,23,24,25,26,27,28,29,30,31,32,33,34,35,36,37,38,39,40,41,42,43,44,45,46,47,48,49,50,51,52,53,54,55,56,57,58,59,60,61,62,63,64,65,66,67,68,69,70,71,72,73,74,75,76,77,78,79,80,81,82,83,84,85,86,87,88,89,90,91,92,93,94,95,96,97,98,99,100,101,102,103,104,105,106,107,108,109,110,111,112,113,114,115,116,117,118,119,120,121,122,123,124,125,126,127,128,129,130,131,132,133,134,135,136,137,138,139,140,141,142,143,144,145,146,147,148,149,150,151,152,153,154,155,156,157,158,159,160,161,162,163,164,165,166,167,168,169,170,171,172,173,174,175,176,177,178,179,180,181,182,183,184,185,186,187,188,189,190,191,192,193,194,195,196,197,198,199,200,201,202,203,204,205,206,207,208,209,210,211,212,213,214,215,216,217,218,219,220,221,222,223,224,225,226,227,228,229,230,231,232,233,234,235,236,237,238,239,240,241,242,243,244,245,246,247,248,249,250,251,252,253,254,255,256,257,258,259,260,261,262,263,264,265,266,267,268,269,270,271,272,273,274,275,276,277,278,279,280,281,282,283,284,285,286,287,288,289,290,291,292,293,294,295,296,297,298,299,300,301,302,303,304,305,306,307,308,309,310,311,312,313,314,315,316,317,318,319,320,321,322,323,324,325,326,327,328,329,330,331,332,333,334,335,336,337,338,339,340,341,342,343,344,345,346,347,348,349,350,351,352,353,354,355,356,357,358,359,360,361,362,363,364,365,366,367,368,369,370,371,372,373,374,375,376,377,378,379,380,381,382,383,384,385,386,387,388,389,390,391,392,393,394,395,396,397,398,399,400,401,402,403,404,405,406,407,408,409,410,411,412,413,414,415,416,417,418,419,420,421,422,423,424,425,426,427,428,429,430,431,432,433,434,435,436,437,438,439,440,441,442,443,444,445,446,447,448,449,450,451,452,453,454,455,456,457,458,459,460,461,462,463,464,465,466,467,468,469,470,471,472,473,474,475,476,477,478,479,480,481,482,483,484,485,486,487,488,489,490,491,492,493,494,495,496,497,498,499,500,501,502,503,504,505,506,507,508,509,510,511,512,513,514,515,516,517,518,519,520,521,522,523,524,525,526,527,528,529,530,531,532,533,534,535,536,537,538,539,540,541,542,543,544,545,546,547,548,549,550,551,552,553,554,555,556,557,558,559,560,561,562,563,564,565,566,567,568,569,570,571,572,573,574,575,576,577,578,579,580,581,582,583,584,585,586,587,588,589,590,591,592,593,594,595,596,597,598,599,600,601,602,603,604,605,606,607,608,609,610,611,612,613,614,615,616,617,618,619,620,621,622,623,624,625,626,627,628,629,630,631,632,633,634,635,636,637,638,639,640,641,642,643,644,645,646,647,648,649,650,651,652,653,654,655,656,657,658,659,660,661,662,663,664,665,666,667,668,669,670,671,672,673,674,675,676,677,678,679,680,681,682,683,684,685,686,687,688,689,690,691,692,693,694,695,696,697,698,699,700,701,702,703,704,705,706,707,708,709,710,711,712,713,714,715,716,717,718,719,720,721,722,723,724,725,726,727,728,729,730,731,732,733,734,735,736,737,738,739,740,741,742,743,744,745,746,747,748,749,750,751,752,753,754,755,756,757,758,759,760,761,762,763,764,765,766,767,768,769,770,771,772,773,774,775,776,777,778,779,780,781,782,783,784,785,786,787,788,789,790,791,792,793,794,795,796,797,798,799,800,801,802,803,804,805,806,807,808,809,810,811,812,813,814,815,816,817,818,819,820,821,822,823,824,825,826,827,828,829,830,831,832,833,834,835,836,837,838,839,840,841,842,843,844,845,846,847,848,849,850,851,852,853,854,855,856,857,858,859,860,861,862,863,864,865,866,867,868,869,870,871,872,873,874,875,876,877,878,879,880,881,882,883,884,885,886,887,888,889,890,891,892,893,894,895,896,897,898,899,900,901,902,903,904,905,906,907,908,909,910,911,912,913,914,915,916,917,918,919,920,921,922,923,924,925,926,927,928,929,930,931,932,933,934,935,936,937,938,939,940,941,942,943,944,945,946,947,948,949,950,951,952,953,954,955,956,957,958,959,960,961,962,963,964,965,966,967,968,969,970,971,972,973,974,975,976,977,978,979,980,981,982,983,984,985,986,987,988,989,990,991,992,993,994,995,996,997,998,999,1000,1001,1002,1003,1004,1005,1006,1007,1008,1009,1010,1011,1012,1013,1014,1015,1016,1017,1018,1019,1020,1021,1022,1023,1024,1025,1026,1027,1028,1029,1030,1031,1032,1033,1034,1035,1036,1037,1038,1039,1040,1041,1042,1043,1044,1045,1046,1047,1048,1049,1050,1051,1052,1053,1054,1055,1056,1057,1058,1059,1060,1061,1062,1063,1064,1065,1066,1067,1068,1069,1070,1071,1072,1073,1074,1075,1076,1077,1078,1079,1080,1081,1082,1083,1084,1085,1086,1087,1088,1089,1090,1091,1092,1093,1094,1095,1096,1097,1098,1099,1100,1101,1102,1103,1104,1105,1106,1107,1108,1109,1110,1111,1112,1113,1114,1115,1116,1117,1118,1119,1120,1121,1122,1123,1124,1125,1126,1127,1128,1129,1130,1131,1132,1133,1134,1135,1136,1137,1138,1139,1140,1141,1142,1143,1144,1145,1146,1147,1148,1149,1150,1151,1152,1153,1154,1155,1156,1157,1158,1159,1160,1161,1162,1163,1164,1165,1166,1167,1168,1169,1170,1171,1172,1173,1174,1175,1176,1177,1178,1179,1180,1181,1182,1183,1184,1185,1186,1187,1188,1189,1190,1191,1192,1193,1194,1195,1196,1197,1198,1199,1200,1201,1202,1203,1204,1205,1206,1207,1208,1209,1210,1211,1212,1213,1214,1215,1216,1217,1218,1219,1220,1221,1222,1223,1224,1225,1226,1227,1228,1229,1230,1231,1232,1233,1234,1235,1236,1237,1238,1239,1240,1241,1242,1243,1244,1245,1246,1247,1248,1249,1250,1251,1252,1253,1254,1255,1256,1257,1258,1259,1260,1261,1262,1263,1264,1265,1266,1267,1268,1269,1270,1271,1272,1273,1274,1275,1276,1277,1278,1279,1280,1281,1282,1283,1284,1285,1286,1287,1288,1289,1290,1291,1292,1293,1294,1295,1296,1297,1298,1299,1300,1301,1302,1303,1304,1305,1306,1307,1308,1309,1310,1311,1312,1313,1314,1315,1316,1317,1318,1319,1320,1321,1322,1323,1324,1325,1326,1327,1328,1329,1330,1331,1332,1333,1334,1335,1336,1337,1338,1339,1340,1341,1342,1343,1344,1345,1346,1347,1348,1349,1350,1351,1352,1353,1354,1355,1356,1357,1358,1359,1360,1361,1362,1363,1364,1365,1366,1367,1368,1369,1370,1371,1372,1373,1374,1375,1376,1377,1378,1379,1380,1381,1382,1383,1384,1385,1386,1387,1388,1389,1390,1391,1392,1393,1394,1395,1396,1397,1398,1399,1400,1401,1402,1403,1404,1405,1406,1407,1408,1409,1410,1411,1412,1413,1414,1415,1416,1417,1418,1419,1420,1421,1422,1423,1424,1425,1426,1427,1428,1429,1430,1431,1432,1433,1434,1435,1436,1437,1438,1439,1440,1441,1442,1443,1444,1445,1446,1447,1448,1449,1450,1451,1452,1453,1454,1455,1456,1457,1458,1459,1460,1461,1462,1463,1464,1465,1466,1467,1468,1469,1470,1471,1472,1473,1474,1475,1476,1477,1478,1479,1480,1481,1482,1483,1484,1485,1486,1487,1488,1489,1490,1491,1492,1493,1494,1495,1496,1497,1498,1499,1500,1501,1502,1503,1504,1505,1506,1507,1508,1509,1510,1511,1512,1513,1514,1515,1516,1517,1518,1519,1520,1521,1522,1523,1524,1525,1526,1527,1528,1529,1530,1531,1532,1533,1534,1535,1536,1537,1538,1539,1540,1541,1542,1543,1544,1545,1546,1547,1548,1549,1550,1551,1552,1553,1554,1555,1556,1557,1558,1559,1560,1561,1562,1563,1564,1565,1566,1567,1568,1569,1570,1571,1572,1573,1574,1575,1576,1577,1578,1579,1580,1581,1582,1583,1584,1585,1586,1587,1588,1589,1590,1591,1592,1593,1594,1595,1596,1597,1598,1599,1600,1601,1602,1603,1604,1605,1606,1607,1608,1609,1610,1611,1612,1613,1614,1615,1616,1617,1618,1619,1620,1621,1622,1623,1624,1625,1626,1627,1628,1629,1630,1631,1632,1633,1634,1635,1636,1637,1638,1639,1640,1641,1642,1643,1644,1645,1646,1647,1648,1649,1650,1651,1652,1653,1654,1655,1656,1657,1658,1659,1660,1661,1662,1663,1664,1665,1666,1667,1668,1669,1670,1671,1672,1673,1674,1675,1676,1677,1678,1679,1680,1681,1682,1683,1684,1685,1686,1687,1688,1689,1690,1691,1692,1693,1694,1695,1696,1697,1698,1699,1700,1701,1702,1703,1704,1705,1706,1707,1708,1709,1710,1711,1712,1713,1714,1715,1716,1717,1718,1719,1720,1721,1722,1723,1724,1725,1726,1727,1728,1729,1730,1731,1732,1733,1734,1735,1736,1737,1738,1739,1740,1741,1742,1743,1744,1745,1746,1747,1748,1749,1750,1751,1752,1753,1754,1755,1756,1757,1758,1759,1760],"tree_info":[0,0,0,0,0,0,0,0,0,0,0,0,0,0,0,0,0,0,0,0,0,0,0,0,0,0,0,0,0,0,0,0,0,0,0,0,0,0,0,0,0,0,0,0,0,0,0,0,0,0,0,0,0,0,0,0,0,0,0,0,0,0,0,0,0,0,0,0,0,0,0,0,0,0,0,0,0,0,0,0,0,0,0,0,0,0,0,0,0,0,0,0,0,0,0,0,0,0,0,0,0,0,0,0,0,0,0,0,0,0,0,0,0,0,0,0,0,0,0,0,0,0,0,0,0,0,0,0,0,0,0,0,0,0,0,0,0,0,0,0,0,0,0,0,0,0,0,0,0,0,0,0,0,0,0,0,0,0,0,0,0,0,0,0,0,0,0,0,0,0,0,0,0,0,0,0,0,0,0,0,0,0,0,0,0,0,0,0,0,0,0,0,0,0,0,0,0,0,0,0,0,0,0,0,0,0,0,0,0,0,0,0,0,0,0,0,0,0,0,0,0,0,0,0,0,0,0,0,0,0,0,0,0,0,0,0,0,0,0,0,0,0,0,0,0,0,0,0,0,0,0,0,0,0,0,0,0,0,0,0,0,0,0,0,0,0,0,0,0,0,0,0,0,0,0,0,0,0,0,0,0,0,0,0,0,0,0,0,0,0,0,0,0,0,0,0,0,0,0,0,0,0,0,0,0,0,0,0,0,0,0,0,0,0,0,0,0,0,0,0,0,0,0,0,0,0,0,0,0,0,0,0,0,0,0,0,0,0,0,0,0,0,0,0,0,0,0,0,0,0,0,0,0,0,0,0,0,0,0,0,0,0,0,0,0,0,0,0,0,0,0,0,0,0,0,0,0,0,0,0,0,0,0,0,0,0,0,0,0,0,0,0,0,0,0,0,0,0,0,0,0,0,0,0,0,0,0,0,0,0,0,0,0,0,0,0,0,0,0,0,0,0,0,0,0,0,0,0,0,0,0,0,0,0,0,0,0,0,0,0,0,0,0,0,0,0,0,0,0,0,0,0,0,0,0,0,0,0,0,0,0,0,0,0,0,0,0,0,0,0,0,0,0,0,0,0,0,0,0,0,0,0,0,0,0,0,0,0,0,0,0,0,0,0,0,0,0,0,0,0,0,0,0,0,0,0,0,0,0,0,0,0,0,0,0,0,0,0,0,0,0,0,0,0,0,0,0,0,0,0,0,0,0,0,0,0,0,0,0,0,0,0,0,0,0,0,0,0,0,0,0,0,0,0,0,0,0,0,0,0,0,0,0,0,0,0,0,0,0,0,0,0,0,0,0,0,0,0,0,0,0,0,0,0,0,0,0,0,0,0,0,0,0,0,0,0,0,0,0,0,0,0,0,0,0,0,0,0,0,0,0,0,0,0,0,0,0,0,0,0,0,0,0,0,0,0,0,0,0,0,0,0,0,0,0,0,0,0,0,0,0,0,0,0,0,0,0,0,0,0,0,0,0,0,0,0,0,0,0,0,0,0,0,0,0,0,0,0,0,0,0,0,0,0,0,0,0,0,0,0,0,0,0,0,0,0,0,0,0,0,0,0,0,0,0,0,0,0,0,0,0,0,0,0,0,0,0,0,0,0,0,0,0,0,0,0,0,0,0,0,0,0,0,0,0,0,0,0,0,0,0,0,0,0,0,0,0,0,0,0,0,0,0,0,0,0,0,0,0,0,0,0,0,0,0,0,0,0,0,0,0,0,0,0,0,0,0,0,0,0,0,0,0,0,0,0,0,0,0,0,0,0,0,0,0,0,0,0,0,0,0,0,0,0,0,0,0,0,0,0,0,0,0,0,0,0,0,0,0,0,0,0,0,0,0,0,0,0,0,0,0,0,0,0,0,0,0,0,0,0,0,0,0,0,0,0,0,0,0,0,0,0,0,0,0,0,0,0,0,0,0,0,0,0,0,0,0,0,0,0,0,0,0,0,0,0,0,0,0,0,0,0,0,0,0,0,0,0,0,0,0,0,0,0,0,0,0,0,0,0,0,0,0,0,0,0,0,0,0,0,0,0,0,0,0,0,0,0,0,0,0,0,0,0,0,0,0,0,0,0,0,0,0,0,0,0,0,0,0,0,0,0,0,0,0,0,0,0,0,0,0,0,0,0,0,0,0,0,0,0,0,0,0,0,0,0,0,0,0,0,0,0,0,0,0,0,0,0,0,0,0,0,0,0,0,0,0,0,0,0,0,0,0,0,0,0,0,0,0,0,0,0,0,0,0,0,0,0,0,0,0,0,0,0,0,0,0,0,0,0,0,0,0,0,0,0,0,0,0,0,0,0,0,0,0,0,0,0,0,0,0,0,0,0,0,0,0,0,0,0,0,0,0,0,0,0,0,0,0,0,0,0,0,0,0,0,0,0,0,0,0,0,0,0,0,0,0,0,0,0,0,0,0,0,0,0,0,0,0,0,0,0,0,0,0,0,0,0,0,0,0,0,0,0,0,0,0,0,0,0,0,0,0,0,0,0,0,0,0,0,0,0,0,0,0,0,0,0,0,0,0,0,0,0,0,0,0,0,0,0,0,0,0,0,0,0,0,0,0,0,0,0,0,0,0,0,0,0,0,0,0,0,0,0,0,0,0,0,0,0,0,0,0,0,0,0,0,0,0,0,0,0,0,0,0,0,0,0,0,0,0,0,0,0,0,0,0,0,0,0,0,0,0,0,0,0,0,0,0,0,0,0,0,0,0,0,0,0,0,0,0,0,0,0,0,0,0,0,0,0,0,0,0,0,0,0,0,0,0,0,0,0,0,0,0,0,0,0,0,0,0,0,0,0,0,0,0,0,0,0,0,0,0,0,0,0,0,0,0,0,0,0,0,0,0,0,0,0,0,0,0,0,0,0,0,0,0,0,0,0,0,0,0,0,0,0,0,0,0,0,0,0,0,0,0,0,0,0,0,0,0,0,0,0,0,0,0,0,0,0,0,0,0,0,0,0,0,0,0,0,0,0,0,0,0,0,0,0,0,0,0,0,0,0,0,0,0,0,0,0,0,0,0,0,0,0,0,0,0,0,0,0,0,0,0,0,0,0,0,0,0,0,0,0,0,0,0,0,0,0,0,0,0,0,0,0,0,0,0,0,0,0,0,0,0,0,0,0,0,0,0,0,0,0,0,0,0,0,0,0,0,0,0,0,0,0,0,0,0,0,0,0,0,0,0,0,0,0,0,0,0,0,0,0,0,0,0,0,0,0,0,0,0,0,0,0,0,0,0,0,0,0,0,0,0,0,0,0,0,0,0,0,0,0,0,0,0,0,0,0,0,0,0,0,0,0,0,0,0,0,0,0,0,0,0,0,0,0,0,0,0,0,0,0,0,0,0,0,0,0,0,0,0,0,0,0,0,0,0,0,0,0,0,0,0,0,0,0,0,0,0,0,0,0,0,0,0,0,0,0,0,0,0,0,0,0,0,0,0,0,0,0,0,0,0,0,0,0,0,0,0,0,0,0,0,0,0,0,0,0,0,0,0,0,0,0,0,0,0,0,0,0,0,0,0,0,0,0,0,0,0,0,0,0,0,0,0,0,0,0,0,0,0,0,0,0,0,0,0,0,0,0,0,0,0,0,0,0,0,0,0,0,0,0,0,0,0,0,0,0,0,0,0,0,0,0,0,0,0,0,0,0,0,0,0,0,0,0,0,0,0,0,0,0,0,0,0,0,0,0,0,0,0,0,0,0,0,0,0,0,0,0,0,0,0,0,0,0,0,0,0,0,0,0,0,0,0,0,0,0,0,0,0,0,0,0,0,0,0,0,0,0,0,0,0,0,0,0,0,0,0,0,0,0,0,0,0,0,0,0,0,0,0,0,0,0,0,0,0,0,0,0,0,0,0,0,0,0,0,0,0,0,0,0,0,0,0,0,0,0,0,0,0,0,0,0,0,0,0,0,0,0,0,0,0,0,0,0,0,0,0,0,0,0,0,0,0,0,0,0],"trees":[{"base_weights":[-1.9139309E-3,-1.1447961E0,1.1200935E0,-1.6983044E0,-5.002109E-1,1.3633895E0,2.3390149E-1,-3.036757E-2,-2.2710271E-2,-6.456221E-4,-2.0388585E-2,1.4301646E-2,2.738946E-2,-5.893311E-3,1.7728928E-2],"categories":[],"categories_nodes":[],"categories_segments":[],"categories_sizes":[],"default_left":[0,0,0,0,0,0,0,0,0,0,0,0,0,0,0],"id":0,"left_children":[1,3,5,7,9,11,13,-1,-1,-1,-1,-1,-1,-1,-1],"loss_changes":[1.701153E4,2.3446914E3,1.4432725E3,1.9364551E2,1.0749753E3,8.502285E2,7.542745E2,0E0,0E0,0E0,0E0,0E0,0E0,0E0,0E0],"parents":[2147483647,0,0,1,1,2,2,3,3,4,4,5,5,6,6],"right_children":[2,4,6,8,10,12,14,-1,-1,-1,-1,-1,-1,-1,-1],"split_conditions":[6.3076925E-1,5.777778E-1,1.14285715E-1,5.4545456E-1,8.196721E-2,6.779661E-1,7.037037E-1,-3.036757E-2,-2.2710271E-2,-6.456221E-4,-2.0388585E-2,1.4301646E-2,2.738946E-2,-5.893311E-3,1.7728928E-2],"split_indices":[89,89,96,89,96,89,89,0,0,0,0,0,0,0,0],"split_type":[0,0,0,0,0,0,0,0,0,0,0,0,0,0,0],"sum_hessian":[1.326613E4,6.5719404E3,6.6941895E3,3.535718E3,3.0362224E3,5.2522026E3,1.4419869E3,2.103731E3,1.431987E3,1.9004828E3,1.1357397E3,2.20723E3,3.0449724E3,8.5299225E2,5.889947E2],"tree_param":{"num_deleted":"0","num_feature":"98","num_nodes":"15","size_leaf_vector":"1"}},{"base_weights":[7.192806E-3,-1.1081672E0,1.1001232E0,6.1905175E-1,-1.5073116E0,1.6549678E0,-3.847942E-2,-1.5515083E-2,2.1409871E-2,-2.9200481E-2,-1.5215602E-2,2.9391477E-2,1.9425781E-2,-1.1296378E-2,1.3702996E-2],"categories":[],"categories_nodes":[],"categories_segments":[],"categories_sizes":[],"default_left":[0,0,0,0,0,0,0,0,0,0,0,0,0,0,0],"id":1,"left_children":[1,3,5,7,9,11,13,-1,-1,-1,-1,-1,-1,-1,-1],"loss_changes":[1.6207557E4,4.536571E3,4.2424556E3,1.3991924E3,9.31458E2,3.5287598E2,1.3053448E3,0E0,0E0,0E0,0E0,0E0,0E0,0E0,0E0],"parents":[2147483647,0,0,1,1,2,2,3,3,4,4,5,5,6,6],"right_children":[2,4,6,8,10,12,14,-1,-1,-1,-1,-1,-1,-1,-1],"split_conditions":[6.3076925E-1,6.486486E-1,7.446808E-1,5.588235E-1,5.888889E-1,6.956522E-1,6.9135803E-1,-1.5515083E-2,2.1409871E-2,-2.9200481E-2,-1.5215602E-2,2.9391477E-2,1.9425781E-2,-1.1296378E-2,1.3702996E-2],"split_indices":[89,92,92,89,89,92,89,0,0,0,0,0,0,0,0],"split_type":[0,0,0,0,0,0,0,0,0,0,0,0,0,0,0],"sum_hessian":[1.32956045E4,6.5802695E3,6.7153345E3,1.2351829E3,5.3450864E3,4.5151133E3,2.2002212E3,3.837002E2,8.514827E2,3.4338896E3,1.9111969E3,3.2370857E3,1.2780277E3,1.2604067E3,9.3981445E2],"tree_param":{"num_deleted":"0","num_feature":"98","num_nodes":"15","size_leaf_vector":"1"}},{"base_weights":[4.1313297E-3,1.1886108E0,-1.0281839E0,-9.441298E-1,1.6164138E0,-1.6027224E0,5.425193E-1,1.6671943E-2,-2.2848718E-2,1.4515912E-2,2.8863057E-2,-2.9593024E-2,-1.6242063E-2,1.7260084E-2,-1.0576849E-2],"categories":[],"categories_nodes":[],"categories_segments":[],"categories_sizes":[],"default_left":[0,0,0,0,0,0,0,0,0,0,0,0,0,0,0],"id":2,"left_children":[1,3,5,7,9,11,13,-1,-1,-1,-1,-1,-1,-1,-1],"loss_changes":[1.627061E4,5.6537695E3,6.4162607E3,9.832228E2,6.664961E2,7.3984863E2,1.2181862E3,0E0,0E0,0E0,0E0,0E0,0E0,0E0,0E0],"parents":[2147483647,0,0,1,1,2,2,3,3,4,4,5,5,6,6],"right_children":[2,4,6,8,10,12,14,-1,-1,-1,-1,-1,-1,-1,-1],"split_conditions":[6.25E-1,5.777778E-1,6.617647E-1,5.423729E-1,6.226415E-1,6.1403507E-1,7E-1,1.6671943E-2,-2.2848718E-2,1.4515912E-2,2.8863057E-2,-2.9593024E-2,-1.6242063E-2,1.7260084E-2,-1.0576849E-2],"split_indices":[94,89,89,94,89,89,94,0,0,0,0,0,0,0,0],"split_type":[0,0,0,0,0,0,0,0,0,0,0,0,0,0,0],"sum_hessian":[1.3306443E4,6.196543E3,7.1099004E3,1.0352728E3,5.16127E3,5.205738E3,1.9041622E3,2.0144228E2,8.338305E2,1.047339E3,4.113931E3,3.7002139E3,1.5055239E3,1.3193347E3,5.848276E2],"tree_param":{"num_deleted":"0","num_feature":"98","num_nodes":"15","size_leaf_vector":"1"}},{"base_weights":[-9.220084E-4,1.2241985E0,-9.6967113E-1,-9.3544084E-1,1.61427E0,-1.590139E0,4.7812214E-1,1.54377455E-2,-2.2949664E-2,1.603627E-2,2.8974006E-2,-2.9042033E-2,-1.6728569E-2,1.610094E-2,-1.2424271E-2],"categories":[],"categories_nodes":[],"categories_segments":[],"categories_sizes":[],"default_left":[0,0,0,0,0,0,0,0,0,0,0,0,0,0,0],"id":3,"left_children":[1,3,5,7,9,11,13,-1,-1,-1,-1,-1,-1,-1,-1],"loss_changes":[1.570977E4,4.923911E3,6.640146E3,8.3798615E2,5.7995215E2,6.203594E2,1.4567968E3,0E0,0E0,0E0,0E0,0E0,0E0,0E0,0E0],"parents":[2147483647,0,0,1,1,2,2,3,3,4,4,5,5,6,6],"right_children":[2,4,6,8,10,12,14,-1,-1,-1,-1,-1,-1,-1,-1],"split_conditions":[6.1904764E-1,5.744681E-1,6.54321E-1,5.423729E-1,6.268657E-1,6.103896E-1,7E-1,1.54377455E-2,-2.2949664E-2,1.603627E-2,2.8974006E-2,-2.9042033E-2,-1.6728569E-2,1.610094E-2,-1.2424271E-2],"split_indices":[94,89,89,94,89,89,94,0,0,0,0,0,0,0,0],"split_type":[0,0,0,0,0,0,0,0,0,0,0,0,0,0,0],"sum_hessian":[1.32366455E4,5.8449043E3,7.391741E3,8.941762E2,4.950728E3,5.1742656E3,2.2174756E3,1.8472398E2,7.094522E2,1.169689E3,3.781039E3,3.6983972E3,1.4758684E3,1.5625878E3,6.5488794E2],"tree_param":{"num_deleted":"0","num_feature":"98","num_nodes":"15","size_leaf_vector":"1"}},{"base_weights":[2.2930803E-3,1.1641155E0,-9.926073E-1,-3.149247E-1,1.5498911E0,-1.5575972E0,1.2306093E-1,1.7636891E-2,-1.7195493E-2,2.886737E-2,1.7967544E-2,-1.7412836E-2,-2.805711E-2,1.1650126E-2,-1.3959017E-2],"categories":[],"categories_nodes":[],"categories_segments":[],"categories_sizes":[],"default_left":[0,0,0,0,0,0,0,0,0,0,0,0,0,0,0],"id":4,"left_children":[1,3,5,7,9,11,13,-1,-1,-1,-1,-1,-1,-1,-1],"loss_changes":[1.5294878E4,3.482835E3,4.493149E3,1.3495265E3,5.173203E2,4.250293E2,1.4330969E3,0E0,0E0,0E0,0E0,0E0,0E0,0E0,0E0],"parents":[2147483647,0,0,1,1,2,2,3,3,4,4,5,5,6,6],"right_children":[2,4,6,8,10,12,14,-1,-1,-1,-1,-1,-1,-1,-1],"split_conditions":[6.229508E-1,6.5753424E-1,7.446808E-1,5.584416E-1,5.816327E-1,6.593407E-1,6.935484E-1,1.7636891E-2,-1.7195493E-2,2.886737E-2,1.7967544E-2,-1.7412836E-2,-2.805711E-2,1.1650126E-2,-1.3959017E-2],"split_indices":[94,87,87,94,94,94,94,0,0,0,0,0,0,0,0],"split_type":[0,0,0,0,0,0,0,0,0,0,0,0,0,0,0],"sum_hessian":[1.3231973E4,6.103943E3,7.12803E3,1.262715E3,4.841228E3,4.7317935E3,2.396236E3,4.4004868E2,8.2266626E2,3.0718208E3,1.7694073E3,1.3557382E3,3.3760554E3,1.4910306E3,9.052054E2],"tree_param":{"num_deleted":"0","num_feature":"98","num_nodes":"15","size_leaf_vector":"1"}},{"base_weights":[7.1059926E-3,1.0613042E0,-1.0470759E0,-7.696619E-1,1.5464185E0,-1.5761056E0,4.436206E-1,1.0648268E-2,-2.2525756E-2,1.4721154E-2,2.7692296E-2,-2.8548164E-2,-1.6346361E-2,1.4989694E-2,-1.204278E-2],"categories":[],"categories_nodes":[],"categories_segments":[],"categories_sizes":[],"default_left":[0,0,0,0,0,0,0,0,0,0,0,0,0,0,0],"id":5,"left_children":[1,3,5,7,9,11,13,-1,-1,-1,-1,-1,-1,-1,-1],"loss_changes":[1.4692842E4,5.8716987E3,5.213315E3,1.2566235E3,5.867803E2,5.498545E2,1.0128544E3,0E0,0E0,0E0,0E0,0E0,0E0,0E0,0E0],"parents":[2147483647,0,0,1,1,2,2,3,3,4,4,5,5,6,6],"right_children":[2,4,6,8,10,12,14,-1,-1,-1,-1,-1,-1,-1,-1],"split_conditions":[6.315789E-1,5.888889E-1,6.617647E-1,5.641026E-1,6.3076925E-1,6.1728394E-1,7.0731705E-1,1.0648268E-2,-2.2525756E-2,1.4721154E-2,2.7692296E-2,-2.8548164E-2,-1.6346361E-2,1.4989694E-2,-1.204278E-2],"split_indices":[94,89,89,94,89,89,94,0,0,0,0,0,0,0,0],"split_type":[0,0,0,0,0,0,0,0,0,0,0,0,0,0,0],"sum_hessian":[1.3221055E4,6.610487E3,6.6105674E3,1.3845848E3,5.2259023E3,4.8790625E3,1.7315048E3,4.2439798E2,9.601869E2,1.1540242E3,4.071878E3,3.5820442E3,1.2970183E3,1.2276029E3,5.039018E2],"tree_param":{"num_deleted":"0","num_feature":"98","num_nodes":"15","size_leaf_vector":"1"}},{"base_weights":[-5.649429E-3,1.0532126E0,-1.0447049E0,1.9171189E-1,1.5179054E0,-1.4903684E0,-1.8222821E-1,1.869269E-2,-9.23096E-3,2.7449263E-2,1.7056618E-2,-2.5407782E-2,-9.814491E-3,6.417503E-3,-1.5782304E-2],"categories":[],"categories_nodes":[],"categories_segments":[],"categories_sizes":[],"default_left":[0,0,0,0,0,0,0,0,0,0,0,0,0,0,0],"id":6,"left_children":[1,3,5,7,9,11,13,-1,-1,-1,-1,-1,-1,-1,-1],"loss_changes":[1.4528493E4,2.6182148E3,2.5617725E3,1.7088018E3,3.710293E2,3.5590918E2,1.0581744E3,0E0,0E0,0E0,0E0,0E0,0E0,0E0,0E0],"parents":[2147483647,0,0,1,1,2,2,3,3,4,4,5,5,6,6],"right_children":[2,4,6,8,10,12,14,-1,-1,-1,-1,-1,-1,-1,-1],"split_conditions":[6.3076925E-1,5E-1,5.3061223E-1,5.744681E-1,5.942029E-1,1.4516129E-1,6.923077E-1,1.869269E-2,-9.23096E-3,2.7449263E-2,1.7056618E-2,-2.5407782E-2,-9.814491E-3,6.417503E-3,-1.5782304E-2],"split_indices":[94,88,88,94,94,90,94,0,0,0,0,0,0,0,0],"split_type":[0,0,0,0,0,0,0,0,0,0,0,0,0,0,0],"sum_hessian":[1.3205065E4,6.540186E3,6.664879E3,2.2916868E3,4.2484995E3,4.3942236E3,2.2706553E3,1.0101982E3,1.2814886E3,2.9897273E3,1.2587722E3,3.9772236E3,4.1700006E2,1.3149976E3,9.556577E2],"tree_param":{"num_deleted":"0","num_feature":"98","num_nodes":"15","size_leaf_vector":"1"}},{"base_weights":[9.870469E-4,-1.0326174E0,1.021728E0,5.6195027E-1,-1.3998048E0,1.5404105E0,-4.81269E-2,-1.7510865E-2,1.9027267E-2,-2.707954E-2,-1.4232616E-2,1.7586717E-2,2.712659E-2,-1.1066441E-2,1.2520453E-2],"categories":[],"categories_nodes":[],"categories_segments":[],"categories_sizes":[],"default_left":[0,0,0,0,0,0,0,0,0,0,0,0,0,0,0],"id":7,"left_children":[1,3,5,7,9,11,13,-1,-1,-1,-1,-1,-1,-1,-1],"loss_changes":[1.3899672E4,3.8327588E3,3.6782998E3,1.261857E3,7.8335645E2,2.962334E2,1.1489398E3,0E0,0E0,0E0,0E0,0E0,0E0,0E0,0E0],"parents":[2147483647,0,0,1,1,2,2,3,3,4,4,5,5,6,6],"right_children":[2,4,6,8,10,12,14,-1,-1,-1,-1,-1,-1,-1,-1],"split_conditions":[6.315789E-1,6.486486E-1,7.4545455E-1,5.522388E-1,5.888889E-1,8E-2,6.9135803E-1,-1.7510865E-2,1.9027267E-2,-2.707954E-2,-1.4232616E-2,1.7586717E-2,2.712659E-2,-1.1066441E-2,1.2520453E-2],"split_indices":[89,92,92,89,89,97,89,0,0,0,0,0,0,0,0],"split_type":[0,0,0,0,0,0,0,0,0,0,0,0,0,0,0],"sum_hessian":[1.3174456E4,6.5459697E3,6.628486E3,1.2252131E3,5.3207563E3,4.4641875E3,2.1642983E3,3.3547687E2,8.897363E2,3.4132954E3,1.9074612E3,1.1208292E3,3.3433584E3,1.2197778E3,9.4452057E2],"tree_param":{"num_deleted":"0","num_feature":"98","num_nodes":"15","size_leaf_vector":"1"}},{"base_weights":[-5.3003745E-4,1.1542891E0,-9.003236E-1,-8.97174E-1,1.520072E0,-1.4520139E0,5.7441604E-1,1.5018032E-2,-2.1843111E-2,1.562894E-2,2.7384985E-2,-2.7356487E-2,-1.4534047E-2,1.9517705E-2,-5.3142817E-3],"categories":[],"categories_nodes":[],"categories_segments":[],"categories_sizes":[],"default_left":[0,0,0,0,0,0,0,0,0,0,0,0,0,0,0],"id":8,"left_children":[1,3,5,7,9,11,13,-1,-1,-1,-1,-1,-1,-1,-1],"loss_changes":[1.3681948E4,4.3270903E3,6.0212935E3,7.409442E2,4.9639062E2,7.416543E2,1.1698401E3,0E0,0E0,0E0,0E0,0E0,0E0,0E0,0E0],"parents":[2147483647,0,0,1,1,2,2,3,3,4,4,5,5,6,6],"right_children":[2,4,6,8,10,12,14,-1,-1,-1,-1,-1,-1,-1,-1],"split_conditions":[6.181818E-1,5.744681E-1,6.617647E-1,5.423729E-1,6.3E-1,6.103896E-1,6.8E-1,1.5018032E-2,-2.1843111E-2,1.562894E-2,2.7384985E-2,-2.7356487E-2,-1.4534047E-2,1.9517705E-2,-5.3142817E-3],"split_indices":[94,89,89,94,89,89,94,0,0,0,0,0,0,0,0],"split_type":[0,0,0,0,0,0,0,0,0,0,0,0,0,0,0],"sum_hessian":[1.3167076E4,5.7663516E3,7.4007246E3,8.7256067E2,4.893791E3,5.385909E3,2.0148157E3,1.7607138E2,6.9648926E2,1.2405496E3,3.6532415E3,3.687164E3,1.698745E3,1.1794834E3,8.353323E2],"tree_param":{"num_deleted":"0","num_feature":"98","num_nodes":"15","size_leaf_vector":"1"}},{"base_weights":[5.4786913E-3,1.015183E0,-9.922782E-1,-9.7750974E-1,1.4291663E0,-1.499785E0,4.2279628E-1,1.6838197E-2,-2.1979395E-2,1.2956163E-2,2.6136873E-2,-2.7112184E-2,-1.5388671E-2,1.4324232E-2,-1.2295351E-2],"categories":[],"categories_nodes":[],"categories_segments":[],"categories_sizes":[],"default_left":[0,0,0,0,0,0,0,0,0,0,0,0,0,0,0],"id":9,"left_children":[1,3,5,7,9,11,13,-1,-1,-1,-1,-1,-1,-1,-1],"loss_changes":[1.3243115E4,5.389853E3,4.7483496E3,8.9155566E2,6.689404E2,4.974912E2,9.73781E2,0E0,0E0,0E0,0E0,0E0,0E0,0E0,0E0],"parents":[2147483647,0,0,1,1,2,2,3,3,4,4,5,5,6,6],"right_children":[2,4,6,8,10,12,14,-1,-1,-1,-1,-1,-1,-1,-1],"split_conditions":[6.3076925E-1,5.769231E-1,6.617647E-1,5.394737E-1,6.282051E-1,6.1904764E-1,7.083333E-1,1.6838197E-2,-2.1979395E-2,1.2956163E-2,2.6136873E-2,-2.7112184E-2,-1.5388671E-2,1.4324232E-2,-1.2295351E-2],"split_indices":[94,89,89,94,89,89,94,0,0,0,0,0,0,0,0],"split_type":[0,0,0,0,0,0,0,0,0,0,0,0,0,0,0],"sum_hessian":[1.3145263E4,6.5335264E3,6.611737E3,1.1238448E3,5.409681E3,4.8664375E3,1.7452993E3,1.8195291E2,9.4189197E2,1.3098529E3,4.0998286E3,3.6074348E3,1.2590026E3,1.2512152E3,4.9408408E2],"tree_param":{"num_deleted":"0","num_feature":"98","num_nodes":"15","size_leaf_vector":"1"}},{"base_weights":[-1.7407624E-4,1.1234132E0,-8.695078E-1,-8.635111E-1,1.4909818E0,-1.4178791E0,5.8278435E-1,1.3788965E-2,-2.124268E-2,1.4638261E-2,2.6427014E-2,-2.6208036E-2,-1.35936495E-2,1.7929327E-2,-7.6349718E-3],"categories":[],"categories_nodes":[],"categories_segments":[],"categories_sizes":[],"default_left":[0,0,0,0,0,0,0,0,0,0,0,0,0,0,0],"id":10,"left_children":[1,3,5,7,9,11,13,-1,-1,-1,-1,-1,-1,-1,-1],"loss_changes":[1.2742742E4,4.156143E3,5.8575913E3,7.0328644E2,4.3112988E2,6.5402734E2,1.1392489E3,0E0,0E0,0E0,0E0,0E0,0E0,0E0,0E0],"parents":[2147483647,0,0,1,1,2,2,3,3,4,4,5,5,6,6],"right_children":[2,4,6,8,10,12,14,-1,-1,-1,-1,-1,-1,-1,-1],"split_conditions":[6.181818E-1,5.7575756E-1,6.617647E-1,5.423729E-1,6.226415E-1,6.1728394E-1,6.923077E-1,1.3788965E-2,-2.124268E-2,1.4638261E-2,2.6427014E-2,-2.6208036E-2,-1.35936495E-2,1.7929327E-2,-7.6349718E-3],"split_indices":[94,89,89,94,89,89,94,0,0,0,0,0,0,0,0],"split_type":[0,0,0,0,0,0,0,0,0,0,0,0,0,0,0],"sum_hessian":[1.3045712E4,5.690665E3,7.355047E3,8.8837463E2,4.8022905E3,5.3390796E3,2.0159669E3,1.8710487E2,7.012697E2,1.01399207E3,3.7882986E3,3.881459E3,1.4576207E3,1.3399569E3,6.7601E2],"tree_param":{"num_deleted":"0","num_feature":"98","num_nodes":"15","size_leaf_vector":"1"}},{"base_weights":[4.668174E-4,-9.147405E-1,7.0577276E-1,-1.342166E0,2.6054528E-1,-5.1851195E-1,1.1674902E0,-2.4613475E-2,-1.0611746E-2,-9.629657E-3,1.7075682E-2,-1.6768837E-2,6.7991773E-3,7.916175E-3,2.3682851E-2],"categories":[],"categories_nodes":[],"categories_segments":[],"categories_sizes":[],"default_left":[0,0,0,0,0,0,0,0,0,0,0,0,0,0,0],"id":11,"left_children":[1,3,5,7,9,11,13,-1,-1,-1,-1,-1,-1,-1,-1],"loss_changes":[8.455505E3,2.864019E3,4.1818916E3,5.4356055E2,1.0504487E3,1.00375006E3,1.1143726E3,0E0,0E0,0E0,0E0,0E0,0E0,0E0,0E0],"parents":[2147483647,0,0,1,1,2,2,3,3,4,4,5,5,6,6],"right_children":[2,4,6,8,10,12,14,-1,-1,-1,-1,-1,-1,-1,-1],"split_conditions":[7.027027E-1,1.0465116E-1,5.7471264E-2,5.483871E-1,5E-1,5.588235E-1,5E-1,-2.4613475E-2,-1.0611746E-2,-9.629657E-3,1.7075682E-2,-1.6768837E-2,6.7991773E-3,7.916175E-3,2.3682851E-2],"split_indices":[87,97,97,88,88,88,88,0,0,0,0,0,0,0,0],"split_type":[0,0,0,0,0,0,0,0,0,0,0,0,0,0,0],"sum_hessian":[1.3099081E4,5.701175E3,7.3979062E3,4.180746E3,1.5204288E3,2.0259269E3,5.3719795E3,3.2656038E3,9.1514233E2,7.340087E2,7.864201E2,1.300086E3,7.258408E2,1.6826963E3,3.689283E3],"tree_param":{"num_deleted":"0","num_feature":"98","num_nodes":"15","size_leaf_vector":"1"}},{"base_weights":[-3.1008192E-3,1.052097E0,-8.920729E-1,-8.4988576E-1,1.4289355E0,-1.4113123E0,5.0046796E-1,1.4822669E-2,-2.0313174E-2,1.4347116E-2,2.5910856E-2,-2.5970489E-2,-1.3600063E-2,1.5006892E-2,-1.1586883E-2],"categories":[],"categories_nodes":[],"categories_segments":[],"categories_sizes":[],"default_left":[0,0,0,0,0,0,0,0,0,0,0,0,0,0,0],"id":12,"left_children":[1,3,5,7,9,11,13,-1,-1,-1,-1,-1,-1,-1,-1],"loss_changes":[1.2240085E4,4.276439E3,5.120851E3,7.266263E2,4.9287207E2,6.002588E2,1.02084454E3,0E0,0E0,0E0,0E0,0E0,0E0,0E0,0E0],"parents":[2147483647,0,0,1,1,2,2,3,3,4,4,5,5,6,6],"right_children":[2,4,6,8,10,12,14,-1,-1,-1,-1,-1,-1,-1,-1],"split_conditions":[6.229508E-1,5.769231E-1,6.617647E-1,5.409836E-1,6.3076925E-1,6.181818E-1,7.083333E-1,1.4822669E-2,-2.0313174E-2,1.4347116E-2,2.5910856E-2,-2.5970489E-2,-1.3600063E-2,1.5006892E-2,-1.1586883E-2],"split_indices":[94,89,89,94,89,89,94,0,0,0,0,0,0,0,0],"split_type":[0,0,0,0,0,0,0,0,0,0,0,0,0,0,0],"sum_hessian":[1.30485E4,5.9664146E3,7.0820854E3,9.8662286E2,4.979792E3,5.1586035E3,1.9234818E3,1.8722351E2,7.9939935E2,1.2786398E3,3.701152E3,3.777572E3,1.3810316E3,1.419245E3,5.0423685E2],"tree_param":{"num_deleted":"0","num_feature":"98","num_nodes":"15","size_leaf_vector":"1"}},{"base_weights":[4.1027498E-3,8.9786464E-1,-6.783211E-1,1.3122685E0,-2.275202E-1,4.4378328E-1,-1.1651495E0,2.4088753E-2,9.969936E-3,9.90777E-3,-1.6212838E-2,1.6633406E-2,-6.431165E-3,-7.7735153E-3,-2.3634197E-2],"categories":[],"categories_nodes":[],"categories_segments":[],"categories_sizes":[],"default_left":[0,0,0,0,0,0,0,0,0,0,0,0,0,0,0],"id":13,"left_children":[1,3,5,7,9,11,13,-1,-1,-1,-1,-1,-1,-1,-1],"loss_changes":[7.9323057E3,2.6260415E3,4.028555E3,5.350586E2,1.00134753E3,1.1158309E3,1.0748462E3,0E0,0E0,0E0,0E0,0E0,0E0,0E0,0E0],"parents":[2147483647,0,0,1,1,2,2,3,3,4,4,5,5,6,6],"right_children":[2,4,6,8,10,12,14,-1,-1,-1,-1,-1,-1,-1,-1],"split_conditions":[7.0149255E-1,1.04477614E-1,6.122449E-2,5.4901963E-1,5E-1,5.3968257E-1,5E-1,2.4088753E-2,9.969936E-3,9.90777E-3,-1.6212838E-2,1.6633406E-2,-6.431165E-3,-7.7735153E-3,-2.3634197E-2],"split_indices":[92,95,95,93,93,93,93,0,0,0,0,0,0,0,0],"split_type":[0,0,0,0,0,0,0,0,0,0,0,0,0,0,0],"sum_hessian":[1.3005322E4,5.630783E3,7.3745396E3,4.1153804E3,1.5154026E3,2.2313625E3,5.143177E3,3.2350503E3,8.803302E2,7.2866144E2,7.8674115E2,1.311496E3,9.198667E2,1.5978898E3,3.545287E3],"tree_param":{"num_deleted":"0","num_feature":"98","num_nodes":"15","size_leaf_vector":"1"}},{"base_weights":[-6.0456027E-3,-9.903825E-1,9.05795E-1,9.2958033E-1,-1.3809578E0,1.4094213E0,-4.7487995E-1,-1.6290778E-2,2.1549305E-2,-1.3381223E-2,-2.5347007E-2,2.5575362E-2,1.4966001E-2,-1.4509905E-2,1.2818239E-2],"categories":[],"categories_nodes":[],"categories_segments":[],"categories_sizes":[],"default_left":[0,0,0,0,0,0,0,0,0,0,0,0,0,0,0],"id":14,"left_children":[1,3,5,7,9,11,13,-1,-1,-1,-1,-1,-1,-1,-1],"loss_changes":[1.1715872E4,4.707114E3,4.7117217E3,8.5128284E2,5.6472754E2,4.3481738E2,9.8898865E2,0E0,0E0,0E0,0E0,0E0,0E0,0E0,0E0],"parents":[2147483647,0,0,1,1,2,2,3,3,4,4,5,5,6,6],"right_children":[2,4,6,8,10,12,14,-1,-1,-1,-1,-1,-1,-1,-1],"split_conditions":[6.27451E-1,5.764706E-1,6.615385E-1,5.3968257E-1,6.3235295E-1,6.1702126E-1,7.125E-1,-1.6290778E-2,2.1549305E-2,-1.3381223E-2,-2.5347007E-2,2.5575362E-2,1.4966001E-2,-1.4509905E-2,1.2818239E-2],"split_indices":[89,94,94,89,94,94,89,0,0,0,0,0,0,0,0],"split_type":[0,0,0,0,0,0,0,0,0,0,0,0,0,0,0],"sum_hessian":[1.3052988E4,6.2769785E3,6.7760093E3,1.0610486E3,5.21593E3,4.9649644E3,1.8110446E3,1.8574104E2,8.753076E2,1.3842568E3,3.831673E3,3.5858352E3,1.3791293E3,1.3547537E3,4.5629092E2],"tree_param":{"num_deleted":"0","num_feature":"98","num_nodes":"15","size_leaf_vector":"1"}},{"base_weights":[5.959752E-3,-9.35247E-1,9.237493E-1,4.0895033E-1,-1.3229325E0,1.4029526E0,-4.2755216E-2,-1.7420538E-2,1.6059153E-2,-1.2623304E-2,-2.5022078E-2,2.4638176E-2,1.1882735E-2,1.3342045E-2,-1.1778956E-2],"categories":[],"categories_nodes":[],"categories_segments":[],"categories_sizes":[],"default_left":[0,0,0,0,0,0,0,0,0,0,0,0,0,0,0],"id":15,"left_children":[1,3,5,7,9,11,13,-1,-1,-1,-1,-1,-1,-1,-1],"loss_changes":[1.1162807E4,3.324731E3,3.0302676E3,1.2616377E3,6.259414E2,3.8156152E2,1.309206E3,0E0,0E0,0E0,0E0,0E0,0E0,0E0,0E0],"parents":[2147483647,0,0,1,1,2,2,3,3,4,4,5,5,6,6],"right_children":[2,4,6,8,10,12,14,-1,-1,-1,-1,-1,-1,-1,-1],"split_conditions":[6.3076925E-1,6.603774E-1,7.4545455E-1,5.522388E-1,5E-1,5.681818E-1,5.121951E-1,-1.7420538E-2,1.6059153E-2,-1.2623304E-2,-2.5022078E-2,2.4638176E-2,1.1882735E-2,1.3342045E-2,-1.1778956E-2],"split_indices":[89,92,92,89,93,93,93,0,0,0,0,0,0,0,0],"split_type":[0,0,0,0,0,0,0,0,0,0,0,0,0,0,0],"sum_hessian":[1.2922403E4,6.379799E3,6.542604E3,1.428117E3,4.9516816E3,4.37396E3,2.1686443E3,4.049328E2,1.0231842E3,1.5105275E3,3.4411543E3,3.6491682E3,7.247916E2,9.575758E2,1.2110685E3],"tree_param":{"num_deleted":"0","num_feature":"98","num_nodes":"15","size_leaf_vector":"1"}},{"base_weights":[-3.698972E-4,-1.0513417E0,8.069858E-1,-1.380126E0,-1.980632E-3,-4.199396E-1,1.2183038E0,-2.5184317E-2,-1.6060295E-2,-1.898537E-2,9.522929E-3,-1.5831493E-2,9.456947E-3,2.3243647E-2,1.161481E-2],"categories":[],"categories_nodes":[],"categories_segments":[],"categories_sizes":[],"default_left":[0,0,0,0,0,0,0,0,0,0,0,0,0,0,0],"id":16,"left_children":[1,3,5,7,9,11,13,-1,-1,-1,-1,-1,-1,-1,-1],"loss_changes":[1.0974952E4,1.9387363E3,3.6915977E3,3.061958E2,9.41921E2,1.0490979E3,6.219287E2,0E0,0E0,0E0,0E0,0E0,0E0,0E0,0E0],"parents":[2147483647,0,0,1,1,2,2,3,3,4,4,5,5,6,6],"right_children":[2,4,6,8,10,12,14,-1,-1,-1,-1,-1,-1,-1,-1],"split_conditions":[6.181818E-1,1.0465116E-1,5.6603774E-2,5.833333E-1,5.5E-1,6.923077E-1,5.1111114E-1,-2.5184317E-2,-1.6060295E-2,-1.898537E-2,9.522929E-3,-1.5831493E-2,9.456947E-3,2.3243647E-2,1.161481E-2],"split_indices":[89,97,97,89,89,89,93,0,0,0,0,0,0,0,0],"split_type":[0,0,0,0,0,0,0,0,0,0,0,0,0,0,0],"sum_hessian":[1.2934346E4,5.619373E3,7.314973E3,4.278734E3,1.340639E3,1.8365746E3,5.4783984E3,2.8595337E3,1.4192002E3,4.49327E2,8.91312E2,1.1764812E3,6.6009344E2,3.743004E3,1.7353947E3],"tree_param":{"num_deleted":"0","num_feature":"98","num_nodes":"15","size_leaf_vector":"1"}},{"base_weights":[8.114635E-4,9.3684113E-1,-9.152684E-1,-5.019595E-1,1.2728777E0,-1.3975508E0,4.3414384E-2,1.40796E-2,-1.8161751E-2,2.4609495E-2,1.277575E-2,-2.4440361E-2,-1.368078E-2,-1.2882084E-2,1.0838431E-2],"categories":[],"categories_nodes":[],"categories_segments":[],"categories_sizes":[],"default_left":[0,0,0,0,0,0,0,0,0,0,0,0,0,0,0],"id":17,"left_children":[1,3,5,7,9,11,13,-1,-1,-1,-1,-1,-1,-1,-1],"loss_changes":[1.105939E4,3.0843813E3,3.0137803E3,1.0480383E3,6.4128906E2,2.9491406E2,1.1655275E3,0E0,0E0,0E0,0E0,0E0,0E0,0E0,0E0],"parents":[2147483647,0,0,1,1,2,2,3,3,4,4,5,5,6,6],"right_children":[2,4,6,8,10,12,14,-1,-1,-1,-1,-1,-1,-1,-1],"split_conditions":[6.3076925E-1,6.486486E-1,7.446808E-1,5.584416E-1,5.8947366E-1,5.609756E-1,5.121951E-1,1.40796E-2,-1.8161751E-2,2.4609495E-2,1.277575E-2,-2.4440361E-2,-1.368078E-2,-1.2882084E-2,1.0838431E-2],"split_indices":[94,87,87,94,94,88,88,0,0,0,0,0,0,0,0],"split_type":[0,0,0,0,0,0,0,0,0,0,0,0,0,0,0],"sum_hessian":[1.28975205E4,6.379311E3,6.51821E3,1.2078027E3,5.1715083E3,4.336612E3,2.181598E3,3.7844415E2,8.293585E2,3.3477007E3,1.8238075E3,3.529479E3,8.0713275E2,9.326949E2,1.2489031E3],"tree_param":{"num_deleted":"0","num_feature":"98","num_nodes":"15","size_leaf_vector":"1"}},{"base_weights":[-1.5426338E-4,9.330084E-1,-8.8665307E-1,-3.6968678E-1,1.303938E0,-1.3730038E0,6.925882E-2,1.5351825E-2,-1.6646463E-2,2.5014095E-2,1.487265E-2,-1.5920524E-2,-2.4544507E-2,1.0040783E-2,-1.1441177E-2],"categories":[],"categories_nodes":[],"categories_segments":[],"categories_sizes":[],"default_left":[0,0,0,0,0,0,0,0,0,0,0,0,0,0,0],"id":18,"left_children":[1,3,5,7,9,11,13,-1,-1,-1,-1,-1,-1,-1,-1],"loss_changes":[1.0587766E4,3.0129712E3,3.0514688E3,1.2224248E3,4.6550195E2,2.5831152E2,9.624168E2,0E0,0E0,0E0,0E0,0E0,0E0,0E0,0E0],"parents":[2147483647,0,0,1,1,2,2,3,3,4,4,5,5,6,6],"right_children":[2,4,6,8,10,12,14,-1,-1,-1,-1,-1,-1,-1,-1],"split_conditions":[6.2903225E-1,6.6071427E-1,7.446808E-1,5.595238E-1,5.816327E-1,6.6292137E-1,6.923077E-1,1.5351825E-2,-1.6646463E-2,2.5014095E-2,1.487265E-2,-1.5920524E-2,-2.4544507E-2,1.0040783E-2,-1.1441177E-2],"split_indices":[94,87,87,94,94,94,94,0,0,0,0,0,0,0,0],"split_type":[0,0,0,0,0,0,0,0,0,0,0,0,0,0,0],"sum_hessian":[1.279873E4,6.2352446E3,6.5634863E3,1.3819188E3,4.853326E3,4.3501963E3,2.2132898E3,4.6256537E2,9.193534E2,2.901129E3,1.9521973E3,1.2615034E3,3.088693E3,1.2933734E3,9.199163E2],"tree_param":{"num_deleted":"0","num_feature":"98","num_nodes":"15","size_leaf_vector":"1"}},{"base_weights":[-1.2250764E-3,-1.0331448E0,7.8383195E-1,3.797839E-1,-1.3144201E0,1.262733E0,-2.7964807E-1,-1.8624669E-2,1.4568741E-2,-9.393346E-3,-2.333825E-2,2.3135776E-2,1.044814E-2,-1.4347105E-2,9.249757E-3],"categories":[],"categories_nodes":[],"categories_segments":[],"categories_sizes":[],"default_left":[0,0,0,0,0,0,0,0,0,0,0,0,0,0,0],"id":19,"left_children":[1,3,5,7,9,11,13,-1,-1,-1,-1,-1,-1,-1,-1],"loss_changes":[1.0403193E4,2.2051152E3,3.7144463E3,7.4844086E2,4.697339E2,5.485635E2,1.18981E3,0E0,0E0,0E0,0E0,0E0,0E0,0E0,0E0],"parents":[2147483647,0,0,1,1,2,2,3,3,4,4,5,5,6,6],"right_children":[2,4,6,8,10,12,14,-1,-1,-1,-1,-1,-1,-1,-1],"split_conditions":[6.1728394E-1,6.4285713E-1,7.536232E-1,5.3968257E-1,4.4444445E-1,5.4901963E-1,6.851852E-1,-1.8624669E-2,1.4568741E-2,-9.393346E-3,-2.333825E-2,2.3135776E-2,1.044814E-2,-1.4347105E-2,9.249757E-3],"split_indices":[89,92,92,89,93,93,89,0,0,0,0,0,0,0,0],"split_type":[0,0,0,0,0,0,0,0,0,0,0,0,0,0,0],"sum_hessian":[1.2841546E4,5.548427E3,7.293119E3,9.211456E2,4.6272812E3,5.0286567E3,2.2644626E3,2.3506345E2,6.860822E2,7.416683E2,3.885613E3,3.8941318E3,1.1345249E3,1.318527E3,9.4593567E2],"tree_param":{"num_deleted":"0","num_feature":"98","num_nodes":"15","size_leaf_vector":"1"}},{"base_weights":[2.5508432E-3,-8.897504E-1,8.7099606E-1,5.0099134E-1,-1.2160175E0,1.299187E0,-2.053318E-1,-1.468286E-2,1.6653676E-2,-7.5826542E-3,-2.2317905E-2,2.2917556E-2,8.74837E-3,1.2688912E-2,-1.1586738E-2],"categories":[],"categories_nodes":[],"categories_segments":[],"categories_sizes":[],"default_left":[0,0,0,0,0,0,0,0,0,0,0,0,0,0,0],"id":20,"left_children":[1,3,5,7,9,11,13,-1,-1,-1,-1,-1,-1,-1,-1],"loss_changes":[9.914966E3,2.863564E3,2.9884067E3,9.103507E2,6.616333E2,4.4862158E2,9.487609E2,0E0,0E0,0E0,0E0,0E0,0E0,0E0,0E0],"parents":[2147483647,0,0,1,1,2,2,3,3,4,4,5,5,6,6],"right_children":[2,4,6,8,10,12,14,-1,-1,-1,-1,-1,-1,-1,-1],"split_conditions":[6.3076925E-1,6.486486E-1,7.590361E-1,5.522388E-1,4.5454547E-1,5.8064514E-1,4.883721E-1,-1.468286E-2,1.6653676E-2,-7.5826542E-3,-2.2317905E-2,2.2917556E-2,8.74837E-3,1.2688912E-2,-1.1586738E-2],"split_indices":[89,92,92,89,93,93,93,0,0,0,0,0,0,0,0],"split_type":[0,0,0,0,0,0,0,0,0,0,0,0,0,0,0],"sum_hessian":[1.2794853E4,6.310735E3,6.4841177E3,1.1991527E3,5.111582E3,4.6387285E3,1.8453894E3,3.294662E2,8.696866E2,9.694384E2,4.1421436E3,3.9646558E3,6.740725E2,6.3017615E2,1.2152133E3],"tree_param":{"num_deleted":"0","num_feature":"98","num_nodes":"15","size_leaf_vector":"1"}},{"base_weights":[7.999164E-3,-1.0605311E0,7.1418935E-1,2.8928882E-1,-1.3290948E0,1.2329012E0,-2.5392374E-1,-1.8006314E-2,1.3256488E-2,-2.420368E-2,-1.5741851E-2,1.2063194E-2,2.287776E-2,-1.2477364E-2,1.1272832E-2],"categories":[],"categories_nodes":[],"categories_segments":[],"categories_sizes":[],"default_left":[0,0,0,0,0,0,0,0,0,0,0,0,0,0,0],"id":21,"left_children":[1,3,5,7,9,11,13,-1,-1,-1,-1,-1,-1,-1,-1],"loss_changes":[9.615889E3,1.8382451E3,3.8529631E3,6.368076E2,2.6297656E2,4.619131E2,1.3390187E3,0E0,0E0,0E0,0E0,0E0,0E0,0E0,0E0],"parents":[2147483647,0,0,1,1,2,2,3,3,4,4,5,5,6,6],"right_children":[2,4,6,8,10,12,14,-1,-1,-1,-1,-1,-1,-1,-1],"split_conditions":[6.103896E-1,6.4444447E-1,7.4418604E-1,5.3968257E-1,5.769231E-1,6.5E-1,6.9135803E-1,-1.8006314E-2,1.3256488E-2,-2.420368E-2,-1.5741851E-2,1.2063194E-2,2.287776E-2,-1.2477364E-2,1.1272832E-2],"split_indices":[89,92,92,89,89,89,89,0,0,0,0,0,0,0,0],"split_type":[0,0,0,0,0,0,0,0,0,0,0,0,0,0,0],"sum_hessian":[1.2743224E4,5.070717E3,7.6725063E3,8.414481E2,4.2292686E3,4.995793E3,2.6767136E3,2.3177083E2,6.096773E2,2.797326E3,1.4319429E3,1.424393E3,3.5714E3,1.7299661E3,9.4674744E2],"tree_param":{"num_deleted":"0","num_feature":"98","num_nodes":"15","size_leaf_vector":"1"}},{"base_weights":[-3.278792E-3,7.823932E-1,-6.5029085E-1,-5.3519696E-1,1.1543808E0,-1.1894977E0,2.5403106E-1,7.226088E-3,-1.778311E-2,6.7848633E-3,2.2307983E-2,-7.646849E-3,-2.2451375E-2,-1.144094E-2,1.1631645E-2],"categories":[],"categories_nodes":[],"categories_segments":[],"categories_sizes":[],"default_left":[0,0,0,0,0,0,0,0,0,0,0,0,0,0,0],"id":22,"left_children":[1,3,5,7,9,11,13,-1,-1,-1,-1,-1,-1,-1,-1],"loss_changes":[6.4690225E3,2.816824E3,3.402981E3,7.1366187E2,7.709092E2,6.5127783E2,1.1854547E3,0E0,0E0,0E0,0E0,0E0,0E0,0E0,0E0],"parents":[2147483647,0,0,1,1,2,2,3,3,4,4,5,5,6,6],"right_children":[2,4,6,8,10,12,14,-1,-1,-1,-1,-1,-1,-1,-1],"split_conditions":[7.0731705E-1,6.511628E-1,7.42268E-1,4.6875E-1,4.6666667E-1,4.6666667E-1,4.878049E-1,7.226088E-3,-1.778311E-2,6.7848633E-3,2.2307983E-2,-7.646849E-3,-2.2451375E-2,-1.144094E-2,1.1631645E-2],"split_indices":[92,87,87,93,88,93,88,0,0,0,0,0,0,0,0],"split_type":[0,0,0,0,0,0,0,0,0,0,0,0,0,0,0],"sum_hessian":[1.2725745E4,5.747033E3,6.9787124E3,1.2652842E3,4.481749E3,4.371938E3,2.6067744E3,4.649551E2,8.003291E2,1.089697E3,3.392052E3,9.9044214E2,3.3814956E3,8.5334125E2,1.7534332E3],"tree_param":{"num_deleted":"0","num_feature":"98","num_nodes":"15","size_leaf_vector":"1"}},{"base_weights":[2.2758658E-3,-7.60261E-1,6.60097E-1,3.5993466E-1,-1.2004588E0,1.1797377E0,-2.3748119E-1,-1.448736E-2,1.1712455E-2,-1.3016763E-2,-2.207736E-2,2.3049658E-2,1.3816051E-2,1.1463166E-2,-9.25931E-3],"categories":[],"categories_nodes":[],"categories_segments":[],"categories_sizes":[],"default_left":[0,0,0,0,0,0,0,0,0,0,0,0,0,0,0],"id":23,"left_children":[1,3,5,7,9,11,13,-1,-1,-1,-1,-1,-1,-1,-1],"loss_changes":[6.330093E3,2.88202E3,3.1599878E3,7.691919E2,2.8546045E2,3.5041992E2,8.018115E2,0E0,0E0,0E0,0E0,0E0,0E0,0E0,0E0],"parents":[2147483647,0,0,1,1,2,2,3,3,4,4,5,5,6,6],"right_children":[2,4,6,8,10,12,14,-1,-1,-1,-1,-1,-1,-1,-1],"split_conditions":[7.096774E-1,6.730769E-1,7.4418604E-1,6E-1,9.243698E-2,6.7058825E-1,3.7037037E-2,-1.448736E-2,1.1712455E-2,-1.3016763E-2,-2.207736E-2,2.3049658E-2,1.3816051E-2,1.1463166E-2,-9.25931E-3],"split_indices":[87,92,92,87,95,92,95,0,0,0,0,0,0,0,0],"split_type":[0,0,0,0,0,0,0,0,0,0,0,0,0,0,0],"sum_hessian":[1.2619426E4,5.844511E3,6.774915E3,1.6487633E3,4.195748E3,4.2908203E3,2.4840947E3,3.7338107E2,1.2753823E3,1.2984377E3,2.8973103E3,2.381417E3,1.9094032E3,6.528689E2,1.8312258E3],"tree_param":{"num_deleted":"0","num_feature":"98","num_nodes":"15","size_leaf_vector":"1"}},{"base_weights":[3.200917E-3,9.841933E-1,-7.5380147E-1,1.2835584E0,-6.255983E-2,3.4675828E-1,-1.1429619E0,2.4079418E-2,1.5525896E-2,1.4330044E-2,-1.2348005E-2,1.22643905E-2,-1.3056963E-2,-1.20540755E-2,-2.2756724E-2],"categories":[],"categories_nodes":[],"categories_segments":[],"categories_sizes":[],"default_left":[0,0,0,0,0,0,0,0,0,0,0,0,0,0,0],"id":24,"left_children":[1,3,5,7,9,11,13,-1,-1,-1,-1,-1,-1,-1,-1],"loss_changes":[9.373722E3,1.7228677E3,3.05149E3,2.925078E2,8.25118E2,9.006021E2,5.664238E2,0E0,0E0,0E0,0E0,0E0,0E0,0E0,0E0],"parents":[2147483647,0,0,1,1,2,2,3,3,4,4,5,5,6,6],"right_children":[2,4,6,8,10,12,14,-1,-1,-1,-1,-1,-1,-1,-1],"split_conditions":[6.181818E-1,1.0784314E-1,5.7142857E-2,5.744681E-1,5.641026E-1,7.096774E-1,6.7142856E-1,2.4079418E-2,1.5525896E-2,1.4330044E-2,-1.2348005E-2,1.22643905E-2,-1.3056963E-2,-1.20540755E-2,-2.2756724E-2],"split_indices":[94,95,95,94,94,94,94,0,0,0,0,0,0,0,0],"split_type":[0,0,0,0,0,0,0,0,0,0,0,0,0,0,0],"sum_hessian":[1.2622544E4,5.497895E3,7.124649E3,4.2752236E3,1.2226715E3,1.861161E3,5.263488E3,2.5399307E3,1.7352927E3,5.198663E2,7.0280524E2,1.3689347E3,4.9222632E2,2.1670325E3,3.0964553E3],"tree_param":{"num_deleted":"0","num_feature":"98","num_nodes":"15","size_leaf_vector":"1"}},{"base_weights":[-5.75282E-3,9.8913777E-1,-7.2028327E-1,-7.309797E-1,1.3084675E0,-1.2728384E0,3.8292122E-1,1.445224E-2,-1.8688615E-2,2.4138415E-2,1.5439049E-2,-2.361919E-2,-1.4226594E-2,1.4463036E-2,-7.511492E-3],"categories":[],"categories_nodes":[],"categories_segments":[],"categories_sizes":[],"default_left":[0,0,0,0,0,0,0,0,0,0,0,0,0,0,0],"id":25,"left_children":[1,3,5,7,9,11,13,-1,-1,-1,-1,-1,-1,-1,-1],"loss_changes":[8.912146E3,2.8784634E3,4.447835E3,5.796101E2,2.9882568E2,3.7270557E2,1.0729303E3,0E0,0E0,0E0,0E0,0E0,0E0,0E0,0E0],"parents":[2147483647,0,0,1,1,2,2,3,3,4,4,5,5,6,6],"right_children":[2,4,6,8,10,12,14,-1,-1,-1,-1,-1,-1,-1,-1],"split_conditions":[6.145833E-1,5.744681E-1,6.5E-1,5.377358E-1,5.764706E-1,6.0194176E-1,6.849315E-1,1.445224E-2,-1.8688615E-2,2.4138415E-2,1.5439049E-2,-2.361919E-2,-1.4226594E-2,1.4463036E-2,-7.511492E-3],"split_indices":[94,89,89,94,94,89,94,0,0,0,0,0,0,0,0],"split_type":[0,0,0,0,0,0,0,0,0,0,0,0,0,0,0],"sum_hessian":[1.2536736E4,5.2402817E3,7.2964546E3,8.2048785E2,4.419794E3,4.8615156E3,2.4349395E3,1.7211101E2,6.4837683E2,2.8291108E3,1.5906833E3,3.2136726E3,1.6478428E3,1.5135753E3,9.2136395E2],"tree_param":{"num_deleted":"0","num_feature":"98","num_nodes":"15","size_leaf_vector":"1"}},{"base_weights":[-6.1383853E-3,-8.2284397E-1,5.7925785E-1,-1.2134705E0,1.5410715E-1,-4.1572845E-1,1.0183388E0,-1.20294E-2,-2.2193428E-2,-1.448915E-2,8.45942E-3,-1.4737422E-2,2.1061592E-3,2.0409068E-2,8.025257E-3],"categories":[],"categories_nodes":[],"categories_segments":[],"categories_sizes":[],"default_left":[0,0,0,0,0,0,0,0,0,0,0,0,0,0,0],"id":26,"left_children":[1,3,5,7,9,11,13,-1,-1,-1,-1,-1,-1,-1,-1],"loss_changes":[5.9719795E3,1.9902856E3,3.1787231E3,2.9194238E2,5.867439E2,6.1187964E2,6.6173145E2,0E0,0E0,0E0,0E0,0E0,0E0,0E0,0E0],"parents":[2147483647,0,0,1,1,2,2,3,3,4,4,5,5,6,6],"right_children":[2,4,6,8,10,12,14,-1,-1,-1,-1,-1,-1,-1,-1],"split_conditions":[6.976744E-1,1.02564104E-1,6.097561E-2,5E-1,6E-1,7.7272725E-1,5.0877196E-1,-1.20294E-2,-2.2193428E-2,-1.448915E-2,8.45942E-3,-1.4737422E-2,2.1061592E-3,2.0409068E-2,8.025257E-3],"split_indices":[87,97,97,93,87,87,93,0,0,0,0,0,0,0,0],"split_type":[0,0,0,0,0,0,0,0,0,0,0,0,0,0,0],"sum_hessian":[1.2491092E4,5.2152095E3,7.275882E3,3.7255815E3,1.4896282E3,2.2277043E3,5.0481777E3,9.937491E2,2.7318323E3,3.8848114E2,1.1011471E3,1.1613423E3,1.066362E3,3.3933218E3,1.6548558E3],"tree_param":{"num_deleted":"0","num_feature":"98","num_nodes":"15","size_leaf_vector":"1"}},{"base_weights":[-7.2306744E-3,9.5112574E-1,-7.383527E-1,-6.890127E-1,1.2830191E0,-1.2763095E0,3.0004933E-1,1.4106179E-2,-1.7995277E-2,1.3491306E-2,2.3020322E-2,-2.3055147E-2,-1.34177245E-2,1.2069788E-2,-1.149891E-2],"categories":[],"categories_nodes":[],"categories_segments":[],"categories_sizes":[],"default_left":[0,0,0,0,0,0,0,0,0,0,0,0,0,0,0],"id":27,"left_children":[1,3,5,7,9,11,13,-1,-1,-1,-1,-1,-1,-1,-1],"loss_changes":[8.716265E3,2.9304521E3,3.9418994E3,6.133511E2,2.9882764E2,3.2694092E2,1.1055071E3,0E0,0E0,0E0,0E0,0E0,0E0,0E0,0E0],"parents":[2147483647,0,0,1,1,2,2,3,3,4,4,5,5,6,6],"right_children":[2,4,6,8,10,12,14,-1,-1,-1,-1,-1,-1,-1,-1],"split_conditions":[6.181818E-1,5.777778E-1,6.4761907E-1,5.423729E-1,6.3E-1,6.103896E-1,7E-1,1.4106179E-2,-1.7995277E-2,1.3491306E-2,2.3020322E-2,-2.3055147E-2,-1.34177245E-2,1.2069788E-2,-1.149891E-2],"split_indices":[94,89,89,94,89,89,94,0,0,0,0,0,0,0,0],"split_type":[0,0,0,0,0,0,0,0,0,0,0,0,0,0,0],"sum_hessian":[1.243975E4,5.3832856E3,7.0564644E3,9.059906E2,4.477295E3,4.6483477E3,2.4081165E3,1.9565057E2,7.1034E2,1.137701E3,3.3395938E3,3.4117158E3,1.2366318E3,1.6671255E3,7.40991E2],"tree_param":{"num_deleted":"0","num_feature":"98","num_nodes":"15","size_leaf_vector":"1"}},{"base_weights":[3.5352348E-3,8.522582E-1,-8.057688E-1,-8.0280894E-1,1.2083081E0,-1.2014929E0,5.2161276E-1,1.1312745E-2,-1.9053869E-2,2.276746E-2,1.2187449E-2,-2.2844093E-2,-1.19148735E-2,1.4284855E-2,-8.908967E-3],"categories":[],"categories_nodes":[],"categories_segments":[],"categories_sizes":[],"default_left":[0,0,0,0,0,0,0,0,0,0,0,0,0,0,0],"id":28,"left_children":[1,3,5,7,9,11,13,-1,-1,-1,-1,-1,-1,-1,-1],"loss_changes":[8.54637E3,3.578955E3,3.3455698E3,6.223726E2,4.7088232E2,4.9881885E2,5.7967395E2,0E0,0E0,0E0,0E0,0E0,0E0,0E0,0E0],"parents":[2147483647,0,0,1,1,2,2,3,3,4,4,5,5,6,6],"right_children":[2,4,6,8,10,12,14,-1,-1,-1,-1,-1,-1,-1,-1],"split_conditions":[6.2903225E-1,5.777778E-1,6.7391306E-1,5.466667E-1,5.92233E-1,6.1728394E-1,7.121212E-1,1.1312745E-2,-1.9053869E-2,2.276746E-2,1.2187449E-2,-2.2844093E-2,-1.19148735E-2,1.4284855E-2,-8.908967E-3],"split_indices":[94,89,89,94,94,89,94,0,0,0,0,0,0,0,0],"split_type":[0,0,0,0,0,0,0,0,0,0,0,0,0,0,0],"sum_hessian":[1.2442337E4,6.0732764E3,6.3690605E3,1.0751998E3,4.9980767E3,4.906374E3,1.4626863E3,2.1825435E2,8.569455E2,3.407016E3,1.5910604E3,3.3108855E3,1.5954888E3,1.0899847E3,3.727015E2],"tree_param":{"num_deleted":"0","num_feature":"98","num_nodes":"15","size_leaf_vector":"1"}},{"base_weights":[-4.970996E-3,8.2578355E-1,-8.137716E-1,-4.725248E-1,1.1368144E0,-1.170525E0,2.3252591E-1,1.084346E-2,-1.7029112E-2,1.0272107E-2,2.1921275E-2,-2.2076055E-2,-1.0939215E-2,-1.1611047E-2,1.1379569E-2],"categories":[],"categories_nodes":[],"categories_segments":[],"categories_sizes":[],"default_left":[0,0,0,0,0,0,0,0,0,0,0,0,0,0,0],"id":29,"left_children":[1,3,5,7,9,11,13,-1,-1,-1,-1,-1,-1,-1,-1],"loss_changes":[8.349795E3,2.475499E3,2.3503804E3,7.998989E2,5.617075E2,4.6961914E2,7.287555E2,0E0,0E0,0E0,0E0,0E0,0E0,0E0,0E0],"parents":[2147483647,0,0,1,1,2,2,3,3,4,4,5,5,6,6],"right_children":[2,4,6,8,10,12,14,-1,-1,-1,-1,-1,-1,-1,-1],"split_conditions":[6.3076925E-1,6.486486E-1,7.704918E-1,5.632184E-1,5E-1,5.3061223E-1,4.878049E-1,1.084346E-2,-1.7029112E-2,1.0272107E-2,2.1921275E-2,-2.2076055E-2,-1.0939215E-2,-1.1611047E-2,1.1379569E-2],"split_indices":[94,87,87,94,88,88,88,0,0,0,0,0,0,0,0],"split_type":[0,0,0,0,0,0,0,0,0,0,0,0,0,0,0],"sum_hessian":[1.2426808E4,6.1301904E3,6.296617E3,1.1847406E3,4.9454497E3,4.695593E3,1.6010247E3,4.0134937E2,7.833913E2,1.55788E3,3.3875696E3,3.3113074E3,1.3842853E3,5.324538E2,1.0685709E3],"tree_param":{"num_deleted":"0","num_feature":"98","num_nodes":"15","size_leaf_vector":"1"}},{"base_weights":[3.8588578E-3,-7.687756E-1,5.6331563E-1,-6.732099E-2,-1.2049972E0,9.6943796E-1,-2.8370833E-1,-1.2025531E-2,9.505272E-3,-2.154699E-2,-1.1142641E-2,6.4711063E-3,1.9629441E-2,-1.3684961E-2,6.3189375E-3],"categories":[],"categories_nodes":[],"categories_segments":[],"categories_sizes":[],"default_left":[0,0,0,0,0,0,0,0,0,0,0,0,0,0,0],"id":30,"left_children":[1,3,5,7,9,11,13,-1,-1,-1,-1,-1,-1,-1,-1],"loss_changes":[5.32021E3,1.5816758E3,2.4557637E3,8.909136E2,2.231294E2,6.918921E2,8.910851E2,0E0,0E0,0E0,0E0,0E0,0E0,0E0,0E0],"parents":[2147483647,0,0,1,1,2,2,3,3,4,4,5,5,6,6],"right_children":[2,4,6,8,10,12,14,-1,-1,-1,-1,-1,-1,-1,-1],"split_conditions":[7E-1,5E-1,5.4901963E-1,5E-1,5.4901963E-1,5E-1,5.263158E-1,-1.2025531E-2,9.505272E-3,-2.154699E-2,-1.1142641E-2,6.4711063E-3,1.9629441E-2,-1.3684961E-2,6.3189375E-3],"split_indices":[87,93,93,88,88,88,88,0,0,0,0,0,0,0,0],"split_type":[0,0,0,0,0,0,0,0,0,0,0,0,0,0,0],"sum_hessian":[1.2307971E4,5.1691265E3,7.1388447E3,1.9820432E3,3.1870833E3,4.825289E3,2.3135557E3,9.7453394E2,1.00750934E3,2.512946E3,6.741374E2,1.4906931E3,3.3345957E3,1.2576426E3,1.0559131E3],"tree_param":{"num_deleted":"0","num_feature":"98","num_nodes":"15","size_leaf_vector":"1"}},{"base_weights":[2.0868205E-3,8.37309E-1,-7.8372794E-1,-8.435799E-1,1.1767908E0,-1.223183E0,3.6130401E-1,1.2962248E-2,-1.9055571E-2,8.117735E-3,2.1169718E-2,-2.2612883E-2,-1.3588196E-2,1.2105834E-2,-9.941362E-3],"categories":[],"categories_nodes":[],"categories_segments":[],"categories_sizes":[],"default_left":[0,0,0,0,0,0,0,0,0,0,0,0,0,0,0],"id":31,"left_children":[1,3,5,7,9,11,13,-1,-1,-1,-1,-1,-1,-1,-1],"loss_changes":[8.0230815E3,3.3814854E3,3.169303E3,5.643704E2,4.6904004E2,3.1767383E2,6.7264307E2,0E0,0E0,0E0,0E0,0E0,0E0,0E0,0E0],"parents":[2147483647,0,0,1,1,2,2,3,3,4,4,5,5,6,6],"right_children":[2,4,6,8,10,12,14,-1,-1,-1,-1,-1,-1,-1,-1],"split_conditions":[6.2903225E-1,5.744681E-1,6.617647E-1,5.394737E-1,6.1333334E-1,6.103896E-1,7.0731705E-1,1.2962248E-2,-1.9055571E-2,8.117735E-3,2.1169718E-2,-2.2612883E-2,-1.3588196E-2,1.2105834E-2,-9.941362E-3],"split_indices":[94,89,89,94,89,89,94,0,0,0,0,0,0,0,0],"split_type":[0,0,0,0,0,0,0,0,0,0,0,0,0,0,0],"sum_hessian":[1.2224099E4,5.925775E3,6.298324E3,9.956858E2,4.9300894E3,4.551507E3,1.7468171E3,1.7138385E2,8.2430194E2,8.5979425E2,4.070295E3,3.0512942E3,1.5002128E3,1.2472874E3,4.9952972E2],"tree_param":{"num_deleted":"0","num_feature":"98","num_nodes":"15","size_leaf_vector":"1"}},{"base_weights":[5.1963475E-4,9.792708E-1,-6.4587855E-1,-7.4630576E-1,1.2480426E0,-1.1538303E0,4.3322787E-1,1.9309027E-2,-1.7787099E-2,2.296981E-2,1.4669576E-2,-2.2674825E-2,-1.2370142E-2,1.4983289E-2,-6.6922754E-3],"categories":[],"categories_nodes":[],"categories_segments":[],"categories_sizes":[],"default_left":[0,0,0,0,0,0,0,0,0,0,0,0,0,0,0],"id":32,"left_children":[1,3,5,7,9,11,13,-1,-1,-1,-1,-1,-1,-1,-1],"loss_changes":[7.755783E3,2.2614468E3,4.0468872E3,4.6309848E2,2.5752246E2,4.97333E2,1.00437537E3,0E0,0E0,0E0,0E0,0E0,0E0,0E0,0E0],"parents":[2147483647,0,0,1,1,2,2,3,3,4,4,5,5,6,6],"right_children":[2,4,6,8,10,12,14,-1,-1,-1,-1,-1,-1,-1,-1],"split_conditions":[6.103896E-1,5.681818E-1,6.551724E-1,5.2238804E-1,5.744681E-1,5.970149E-1,6.8421054E-1,1.9309027E-2,-1.7787099E-2,2.296981E-2,1.4669576E-2,-2.2674825E-2,-1.2370142E-2,1.4983289E-2,-6.6922754E-3],"split_indices":[94,89,89,94,94,89,94,0,0,0,0,0,0,0,0],"split_type":[0,0,0,0,0,0,0,0,0,0,0,0,0,0,0],"sum_hessian":[1.2258878E4,4.87594E3,7.382938E3,6.5709534E2,4.218844E3,5.019978E3,2.3629597E3,1.02804825E2,5.542905E2,2.7283472E3,1.4904972E3,2.998282E3,2.0216963E3,1.487834E3,8.751256E2],"tree_param":{"num_deleted":"0","num_feature":"98","num_nodes":"15","size_leaf_vector":"1"}},{"base_weights":[-4.5118374E-3,7.373115E-1,-8.55648E-1,-4.191153E-1,1.0908052E0,1.301974E-1,-1.1746627E0,1.2804642E-2,-1.598549E-2,9.496429E-3,2.1268003E-2,8.979359E-3,-1.0301512E-2,-2.129923E-2,-1.0976064E-2],"categories":[],"categories_nodes":[],"categories_segments":[],"categories_sizes":[],"default_left":[0,0,0,0,0,0,0,0,0,0,0,0,0,0,0],"id":33,"left_children":[1,3,5,7,9,11,13,-1,-1,-1,-1,-1,-1,-1,-1],"loss_changes":[7.6708813E3,2.6536492E3,1.7793823E3,1.0660492E3,5.805161E2,4.581009E2,3.1887354E2,0E0,0E0,0E0,0E0,0E0,0E0,0E0,0E0],"parents":[2147483647,0,0,1,1,2,2,3,3,4,4,5,5,6,6],"right_children":[2,4,6,8,10,12,14,-1,-1,-1,-1,-1,-1,-1,-1],"split_conditions":[6.4E-1,6.6071427E-1,5.6338027E-2,5.632184E-1,5E-1,7.058824E-1,7.358491E-1,1.2804642E-2,-1.598549E-2,9.496429E-3,2.1268003E-2,8.979359E-3,-1.0301512E-2,-2.129923E-2,-1.0976064E-2],"split_indices":[94,87,95,94,88,94,87,0,0,0,0,0,0,0,0],"split_type":[0,0,0,0,0,0,0,0,0,0,0,0,0,0,0],"sum_hessian":[1.2149085E4,6.4913794E3,5.657705E3,1.5197064E3,4.9716733E3,1.3831927E3,4.274512E3,4.8859393E2,1.0311125E3,1.5859285E3,3.3857446E3,8.890061E2,4.941866E2,3.2642021E3,1.0103101E3],"tree_param":{"num_deleted":"0","num_feature":"98","num_nodes":"15","size_leaf_vector":"1"}},{"base_weights":[2.8750713E-3,9.584188E-1,-6.271157E-1,-3.4447277E-1,1.193375E0,-1.1390061E0,1.6892639E-1,1.5513458E-2,-1.3025419E-2,2.2370286E-2,1.345516E-2,-2.1334292E-2,-1.07185235E-2,-9.249117E-3,1.12932045E-2],"categories":[],"categories_nodes":[],"categories_segments":[],"categories_sizes":[],"default_left":[0,0,0,0,0,0,0,0,0,0,0,0,0,0,0],"id":34,"left_children":[1,3,5,7,9,11,13,-1,-1,-1,-1,-1,-1,-1,-1],"loss_changes":[7.2650947E3,1.4679819E3,2.9637893E3,4.483028E2,2.8856543E2,3.9599902E2,1.1334811E3,0E0,0E0,0E0,0E0,0E0,0E0,0E0,0E0],"parents":[2147483647,0,0,1,1,2,2,3,3,4,4,5,5,6,6],"right_children":[2,4,6,8,10,12,14,-1,-1,-1,-1,-1,-1,-1,-1],"split_conditions":[6.103896E-1,6.363636E-1,7.358491E-1,5.3608245E-1,5.753425E-1,5.3061223E-1,5.084746E-1,1.5513458E-2,-1.3025419E-2,2.2370286E-2,1.345516E-2,-2.1334292E-2,-1.07185235E-2,-9.249117E-3,1.12932045E-2],"split_indices":[94,87,87,94,94,88,88,0,0,0,0,0,0,0,0],"split_type":[0,0,0,0,0,0,0,0,0,0,0,0,0,0,0],"sum_hessian":[1.2068519E4,4.7952725E3,7.2732466E3,7.32616E2,4.0626562E3,4.426699E3,2.846547E3,1.9237685E2,5.402392E2,2.5995696E3,1.4630868E3,3.1559207E3,1.2707787E3,1.1890563E3,1.6574908E3],"tree_param":{"num_deleted":"0","num_feature":"98","num_nodes":"15","size_leaf_vector":"1"}},{"base_weights":[-1.2989353E-3,9.54969E-1,-6.270855E-1,-5.5966264E-1,1.2494123E0,-1.1547545E0,3.778119E-1,1.44749265E-2,-1.5691385E-2,2.256148E-2,1.5062779E-2,-2.2126002E-2,-1.2735973E-2,1.2614472E-2,-1.0487804E-2],"categories":[],"categories_nodes":[],"categories_segments":[],"categories_sizes":[],"default_left":[0,0,0,0,0,0,0,0,0,0,0,0,0,0,0],"id":35,"left_children":[1,3,5,7,9,11,13,-1,-1,-1,-1,-1,-1,-1,-1],"loss_changes":[7.177658E3,2.1159097E3,3.844354E3,4.7131897E2,1.9255273E2,3.8376123E2,1.0497817E3,0E0,0E0,0E0,0E0,0E0,0E0,0E0,0E0],"parents":[2147483647,0,0,1,1,2,2,3,3,4,4,5,5,6,6],"right_children":[2,4,6,8,10,12,14,-1,-1,-1,-1,-1,-1,-1,-1],"split_conditions":[6.103896E-1,5.777778E-1,6.5E-1,5.3608245E-1,5.764706E-1,5.970149E-1,7E-1,1.44749265E-2,-1.5691385E-2,2.256148E-2,1.5062779E-2,-2.2126002E-2,-1.2735973E-2,1.2614472E-2,-1.0487804E-2],"split_indices":[94,89,89,94,94,89,94,0,0,0,0,0,0,0,0],"split_type":[0,0,0,0,0,0,0,0,0,0,0,0,0,0,0],"sum_hessian":[1.1994311E4,4.7443657E3,7.2499453E3,7.721709E2,3.9721948E3,4.7537715E3,2.4961738E3,1.7163109E2,6.0053986E2,2.6467756E3,1.3254193E3,2.9381538E3,1.8156174E3,1.7886246E3,7.0754926E2],"tree_param":{"num_deleted":"0","num_feature":"98","num_nodes":"15","size_leaf_vector":"1"}},{"base_weights":[-4.1357097E-3,6.783005E-1,-5.811075E-1,-3.9904255E-1,1.0518012E0,-1.0236317E0,2.8611958E-1,7.154773E-3,-1.4601847E-2,2.0358853E-2,8.97545E-3,-7.5775557E-3,-2.0430172E-2,1.4102318E-2,-4.47222E-3],"categories":[],"categories_nodes":[],"categories_segments":[],"categories_sizes":[],"default_left":[0,0,0,0,0,0,0,0,0,0,0,0,0,0,0],"id":36,"left_children":[1,3,5,7,9,11,13,-1,-1,-1,-1,-1,-1,-1,-1],"loss_changes":[4.724963E3,2.212175E3,2.495476E3,6.102227E2,4.349497E2,5.910386E2,7.347471E2,0E0,0E0,0E0,0E0,0E0,0E0,0E0,0E0],"parents":[2147483647,0,0,1,1,2,2,3,3,4,4,5,5,6,6],"right_children":[2,4,6,8,10,12,14,-1,-1,-1,-1,-1,-1,-1,-1],"split_conditions":[7.096774E-1,6.617647E-1,7.536232E-1,4.6875E-1,5.263158E-1,5E-1,5.2E-1,7.154773E-3,-1.4601847E-2,2.0358853E-2,8.97545E-3,-7.5775557E-3,-2.0430172E-2,1.4102318E-2,-4.47222E-3],"split_indices":[92,87,87,93,93,93,93,0,0,0,0,0,0,0,0],"split_type":[0,0,0,0,0,0,0,0,0,0,0,0,0,0,0],"sum_hessian":[1.1999962E4,5.4975137E3,6.5024487E3,1.415246E3,4.0822678E3,4.305488E3,2.1969607E3,5.330689E2,8.82177E2,2.8371025E3,1.2451653E3,1.3385208E3,2.9669673E3,1.0723135E3,1.1246471E3],"tree_param":{"num_deleted":"0","num_feature":"98","num_nodes":"15","size_leaf_vector":"1"}},{"base_weights":[-1.184818E-3,9.3562084E-1,-6.1423606E-1,1.158819E0,-1.8215701E-1,3.7769935E-1,-9.83321E-1,2.1406222E-2,1.2924267E-2,1.3307808E-2,-1.205592E-2,1.3390592E-2,-7.823145E-3,-9.72793E-3,-2.083481E-2],"categories":[],"categories_nodes":[],"categories_segments":[],"categories_sizes":[],"default_left":[0,0,0,0,0,0,0,0,0,0,0,0,0,0,0],"id":37,"left_children":[1,3,5,7,9,11,13,-1,-1,-1,-1,-1,-1,-1,-1],"loss_changes":[6.8727627E3,1.1809897E3,2.6482463E3,2.4349658E2,4.530681E2,7.742832E2,6.2544385E2,0E0,0E0,0E0,0E0,0E0,0E0,0E0,0E0],"parents":[2147483647,0,0,1,1,2,2,3,3,4,4,5,5,6,6],"right_children":[2,4,6,8,10,12,14,-1,-1,-1,-1,-1,-1,-1,-1],"split_conditions":[6.103896E-1,1.1881188E-1,5.7692308E-2,5.7831323E-1,5.510204E-1,6.923077E-1,6.721311E-1,2.1406222E-2,1.2924267E-2,1.3307808E-2,-1.205592E-2,1.3390592E-2,-7.823145E-3,-9.72793E-3,-2.083481E-2],"split_indices":[94,95,95,94,94,94,94,0,0,0,0,0,0,0,0],"split_type":[0,0,0,0,0,0,0,0,0,0,0,0,0,0,0],"sum_hessian":[1.1966949E4,4.7335464E3,7.233403E3,3.9456907E3,7.8785583E2,1.9615552E3,5.271848E3,2.64254E3,1.3031506E3,2.8362088E2,5.0423492E2,1.2841152E3,6.774399E2,2.3957976E3,2.8760505E3],"tree_param":{"num_deleted":"0","num_feature":"98","num_nodes":"15","size_leaf_vector":"1"}},{"base_weights":[-7.3128096E-3,-7.7436244E-1,7.456874E-1,7.921454E-1,-1.1118025E0,1.1781074E0,-3.799425E-1,-1.4683741E-2,1.8456047E-2,-2.126693E-2,-1.1226732E-2,2.1609744E-2,1.3836006E-2,-1.2265603E-2,1.1202709E-2],"categories":[],"categories_nodes":[],"categories_segments":[],"categories_sizes":[],"default_left":[0,0,0,0,0,0,0,0,0,0,0,0,0,0,0],"id":38,"left_children":[1,3,5,7,9,11,13,-1,-1,-1,-1,-1,-1,-1,-1],"loss_changes":[6.8756387E3,3.1172156E3,2.923918E3,6.375401E2,4.2589062E2,2.3035254E2,6.900028E2,0E0,0E0,0E0,0E0,0E0,0E0,0E0,0E0],"parents":[2147483647,0,0,1,1,2,2,3,3,4,4,5,5,6,6],"right_children":[2,4,6,8,10,12,14,-1,-1,-1,-1,-1,-1,-1,-1],"split_conditions":[6.315789E-1,5.764706E-1,6.615385E-1,5.3968257E-1,5.925926E-1,6.086956E-1,7.1428573E-1,-1.4683741E-2,1.8456047E-2,-2.126693E-2,-1.1226732E-2,2.1609744E-2,1.3836006E-2,-1.2265603E-2,1.1202709E-2],"split_indices":[89,94,94,89,89,94,89,0,0,0,0,0,0,0,0],"split_type":[0,0,0,0,0,0,0,0,0,0,0,0,0,0,0],"sum_hessian":[1.1903983E4,5.8969946E3,6.0069893E3,1.0451154E3,4.8518794E3,4.339828E3,1.667161E3,1.8093694E2,8.641784E2,3.200692E3,1.6511873E3,2.8351968E3,1.5046313E3,1.2291906E3,4.3797043E2],"tree_param":{"num_deleted":"0","num_feature":"98","num_nodes":"15","size_leaf_vector":"1"}},{"base_weights":[-5.5676783E-3,-6.9534767E-1,5.382737E-1,-2.6417987E-2,-1.1173811E0,9.6445686E-1,-1.3472322E-1,-1.066466E-2,9.016208E-3,-2.0441033E-2,-1.1096068E-2,5.1969984E-3,1.8142559E-2,-1.2321695E-2,6.5746475E-3],"categories":[],"categories_nodes":[],"categories_segments":[],"categories_sizes":[],"default_left":[0,0,0,0,0,0,0,0,0,0,0,0,0,0,0],"id":39,"left_children":[1,3,5,7,9,11,13,-1,-1,-1,-1,-1,-1,-1,-1],"loss_changes":[4.4433506E3,1.4741389E3,1.8996324E3,7.5762225E2,2.1254639E2,4.3012158E2,8.842845E2,0E0,0E0,0E0,0E0,0E0,0E0,0E0,0E0],"parents":[2147483647,0,0,1,1,2,2,3,3,4,4,5,5,6,6],"right_children":[2,4,6,8,10,12,14,-1,-1,-1,-1,-1,-1,-1,-1],"split_conditions":[7.0454544E-1,5E-1,5.3061223E-1,5E-1,5.319149E-1,4.5833334E-1,5.084746E-1,-1.066466E-2,9.016208E-3,-2.0441033E-2,-1.1096068E-2,5.1969984E-3,1.8142559E-2,-1.2321695E-2,6.5746475E-3],"split_indices":[87,93,93,88,88,88,88,0,0,0,0,0,0,0,0],"split_type":[0,0,0,0,0,0,0,0,0,0,0,0,0,0,0],"sum_hessian":[1.1844732E4,5.2217603E3,6.622972E3,2.0200447E3,3.2017156E3,4.0550728E3,2.5678994E3,9.689758E2,1.0510688E3,2.3446719E3,8.570436E2,8.3264E2,3.2224326E3,1.1874098E3,1.3804895E3],"tree_param":{"num_deleted":"0","num_feature":"98","num_nodes":"15","size_leaf_vector":"1"}},{"base_weights":[-1.076691E-3,6.481739E-1,-8.467331E-1,-6.30051E-1,1.0796998E0,-1.1555164E0,3.6720031E-1,9.652397E-3,-1.7388787E-2,2.130258E-2,1.1416177E-2,-2.1353057E-2,-1.27595635E-2,1.227279E-2,-7.6382393E-3],"categories":[],"categories_nodes":[],"categories_segments":[],"categories_sizes":[],"default_left":[0,0,0,0,0,0,0,0,0,0,0,0,0,0,0],"id":40,"left_children":[1,3,5,7,9,11,13,-1,-1,-1,-1,-1,-1,-1,-1],"loss_changes":[6.4726094E3,3.6784863E3,1.9192346E3,9.38849E2,4.541411E2,2.568374E2,3.476595E2,0E0,0E0,0E0,0E0,0E0,0E0,0E0,0E0],"parents":[2147483647,0,0,1,1,2,2,3,3,4,4,5,5,6,6],"right_children":[2,4,6,8,10,12,14,-1,-1,-1,-1,-1,-1,-1,-1],"split_conditions":[6.455696E-1,5.945946E-1,6.8E-1,5.632184E-1,5.9322035E-1,6.2068963E-1,7.121212E-1,9.652397E-3,-1.7388787E-2,2.130258E-2,1.1416177E-2,-2.1353057E-2,-1.27595635E-2,1.227279E-2,-7.6382393E-3],"split_indices":[94,89,89,94,94,89,94,0,0,0,0,0,0,0,0],"split_type":[0,0,0,0,0,0,0,0,0,0,0,0,0,0,0],"sum_hessian":[1.1788826E4,6.6688286E3,5.119998E3,1.6831354E3,4.985693E3,4.0817588E3,1.0382393E3,4.5269095E2,1.2304443E3,2.9846697E3,2.0010233E3,2.7512375E3,1.330521E3,7.057223E2,3.3251694E2],"tree_param":{"num_deleted":"0","num_feature":"98","num_nodes":"15","size_leaf_vector":"1"}},{"base_weights":[-2.7762784E-3,-6.562858E-1,5.55991E-1,-1.0482578E0,1.8054165E-1,-3.3304465E-1,9.5634353E-1,-2.0375833E-2,-1.06660705E-2,-1.0695972E-2,1.0691582E-2,-1.3248168E-2,5.2196397E-3,6.8794005E-3,1.9297777E-2],"categories":[],"categories_nodes":[],"categories_segments":[],"categories_sizes":[],"default_left":[0,0,0,0,0,0,0,0,0,0,0,0,0,0,0],"id":41,"left_children":[1,3,5,7,9,11,13,-1,-1,-1,-1,-1,-1,-1,-1],"loss_changes":[4.2866553E3,1.7748574E3,2.2524268E3,3.1236987E2,7.093909E2,6.364319E2,5.6566895E2,0E0,0E0,0E0,0E0,0E0,0E0,0E0,0E0],"parents":[2147483647,0,0,1,1,2,2,3,3,4,4,5,5,6,6],"right_children":[2,4,6,8,10,12,14,-1,-1,-1,-1,-1,-1,-1,-1],"split_conditions":[7.096774E-1,9.89011E-2,6.097561E-2,5.084746E-1,4.6153846E-1,5.416667E-1,5E-1,-2.0375833E-2,-1.06660705E-2,-1.0695972E-2,1.0691582E-2,-1.3248168E-2,5.2196397E-3,6.8794005E-3,1.9297777E-2],"split_indices":[87,97,97,88,88,88,88,0,0,0,0,0,0,0,0],"split_type":[0,0,0,0,0,0,0,0,0,0,0,0,0,0,0],"sum_hessian":[1.1739058E4,5.4108286E3,6.328229E3,3.684855E3,1.7259735E3,1.964886E3,4.3633433E3,2.33913E3,1.3457251E3,6.288683E2,1.0971052E3,1.1242671E3,8.4061884E2,1.3856438E3,2.9776992E3],"tree_param":{"num_deleted":"0","num_feature":"98","num_nodes":"15","size_leaf_vector":"1"}},{"base_weights":[-5.0535556E-3,-9.0843505E-1,5.8206236E-1,2.507035E-1,-1.1533377E0,1.0865518E0,-1.8879981E-1,-1.595071E-2,1.1793912E-2,-9.823854E-3,-2.0271605E-2,1.9212995E-2,6.2064216E-3,-1.0486442E-2,9.864967E-3],"categories":[],"categories_nodes":[],"categories_segments":[],"categories_sizes":[],"default_left":[0,0,0,0,0,0,0,0,0,0,0,0,0,0,0],"id":42,"left_children":[1,3,5,7,9,11,13,-1,-1,-1,-1,-1,-1,-1,-1],"loss_changes":[6.196687E3,1.3064626E3,2.7538242E3,4.8329926E2,2.2474658E2,3.298994E2,1.0447709E3,0E0,0E0,0E0,0E0,0E0,0E0,0E0,0E0],"parents":[2147483647,0,0,1,1,2,2,3,3,4,4,5,5,6,6],"right_children":[2,4,6,8,10,12,14,-1,-1,-1,-1,-1,-1,-1,-1],"split_conditions":[6.103896E-1,6.4444447E-1,7.358491E-1,5.3968257E-1,4.4444445E-1,5.862069E-1,6.893204E-1,-1.595071E-2,1.1793912E-2,-9.823854E-3,-2.0271605E-2,1.9212995E-2,6.2064216E-3,-1.0486442E-2,9.864967E-3],"split_indices":[89,92,92,89,93,93,89,0,0,0,0,0,0,0,0],"split_type":[0,0,0,0,0,0,0,0,0,0,0,0,0,0,0],"sum_hessian":[1.16832E4,4.602093E3,7.0811074E3,8.027121E2,3.7993806E3,4.2800527E3,2.8010547E3,2.2474623E2,5.779659E2,6.3811005E2,3.1612708E3,3.6981558E3,5.818971E2,1.7749819E3,1.0260728E3],"tree_param":{"num_deleted":"0","num_feature":"98","num_nodes":"15","size_leaf_vector":"1"}},{"base_weights":[-5.4805423E-3,-8.9301896E-1,5.735855E-1,-1.1455457E0,2.322126E-2,-3.00491E-1,9.8149014E-1,-2.109769E-2,-1.4104652E-2,-1.5657261E-2,9.013279E-3,-1.0625747E-2,1.110394E-2,1.899703E-2,8.872059E-3],"categories":[],"categories_nodes":[],"categories_segments":[],"categories_sizes":[],"default_left":[0,0,0,0,0,0,0,0,0,0,0,0,0,0,0],"id":43,"left_children":[1,3,5,7,9,11,13,-1,-1,-1,-1,-1,-1,-1,-1],"loss_changes":[5.968632E3,1.0609712E3,2.5057896E3,1.616836E2,5.3235834E2,8.0164435E2,4.1455518E2,0E0,0E0,0E0,0E0,0E0,0E0,0E0,0E0],"parents":[2147483647,0,0,1,1,2,2,3,3,4,4,5,5,6,6],"right_children":[2,4,6,8,10,12,14,-1,-1,-1,-1,-1,-1,-1,-1],"split_conditions":[6.103896E-1,1.097561E-1,6.329114E-2,5.7272726E-1,5.483871E-1,7.0731705E-1,5.0877196E-1,-2.109769E-2,-1.4104652E-2,-1.5657261E-2,9.013279E-3,-1.0625747E-2,1.110394E-2,1.899703E-2,8.872059E-3],"split_indices":[89,97,97,89,89,89,93,0,0,0,0,0,0,0,0],"split_type":[0,0,0,0,0,0,0,0,0,0,0,0,0,0,0],"sum_hessian":[1.1613331E4,4.5853535E3,7.027977E3,3.594645E3,9.9070856E2,2.236167E3,4.7918105E3,2.2036997E3,1.3909454E3,3.469558E2,6.4375275E2,1.6391892E3,5.9697766E2,3.2588284E3,1.532982E3],"tree_param":{"num_deleted":"0","num_feature":"98","num_nodes":"15","size_leaf_vector":"1"}},{"base_weights":[8.507183E-3,-8.8854694E-1,5.80566E-1,4.9846223E-1,-1.0890591E0,1.0714637E0,-1.6254523E-1,-1.2516297E-2,1.5567078E-2,-2.06268E-2,-1.245922E-2,1.1774042E-2,2.027427E-2,-9.597725E-3,1.0833946E-2],"categories":[],"categories_nodes":[],"categories_segments":[],"categories_sizes":[],"default_left":[0,0,0,0,0,0,0,0,0,0,0,0,0,0,0],"id":44,"left_children":[1,3,5,7,9,11,13,-1,-1,-1,-1,-1,-1,-1,-1],"loss_changes":[5.9298257E3,1.2514038E3,2.573932E3,3.4222772E2,2.4073242E2,2.7478662E2,1.02297473E3,0E0,0E0,0E0,0E0,0E0,0E0,0E0,0E0],"parents":[2147483647,0,0,1,1,2,2,3,3,4,4,5,5,6,6],"right_children":[2,4,6,8,10,12,14,-1,-1,-1,-1,-1,-1,-1,-1],"split_conditions":[6.103896E-1,6.25E-1,7.358491E-1,5.3968257E-1,5.7272726E-1,6.585366E-1,6.938776E-1,-1.2516297E-2,1.5567078E-2,-2.06268E-2,-1.245922E-2,1.1774042E-2,2.027427E-2,-9.597725E-3,1.0833946E-2],"split_indices":[89,92,92,89,89,89,89,0,0,0,0,0,0,0,0],"split_type":[0,0,0,0,0,0,0,0,0,0,0,0,0,0,0],"sum_hessian":[1.1555294E4,4.4995005E3,7.055793E3,5.682897E2,3.931211E3,4.248959E3,2.8068342E3,1.530481E2,4.1524158E2,2.4189368E3,1.512274E3,1.5355247E3,2.713434E3,1.8468668E3,9.599674E2],"tree_param":{"num_deleted":"0","num_feature":"98","num_nodes":"15","size_leaf_vector":"1"}},{"base_weights":[-1.7374187E-3,-5.543843E-1,5.979457E-1,-9.286361E-1,-1.7206071E-2,-1.0996228E-2,8.975958E-1,-1.9610278E-2,-1.1324661E-2,-1.1116359E-2,3.4269954E-3,-2.6086427E-3,1.0491095E-2,1.1085728E-2,1.8557187E-2],"categories":[],"categories_nodes":[],"categories_segments":[],"categories_sizes":[],"default_left":[0,0,0,0,0,0,0,0,0,0,0,0,0,0,0],"id":45,"left_children":[1,3,5,7,9,11,13,-1,-1,-1,-1,-1,-1,-1,-1],"loss_changes":[3.802434E3,1.2003634E3,1.0040636E3,2.2998584E2,3.818483E2,1.8264348E2,1.971831E2,0E0,0E0,0E0,0E0,0E0,0E0,0E0,0E0],"parents":[2147483647,0,0,1,1,2,2,3,3,4,4,5,5,6,6],"right_children":[2,4,6,8,10,12,14,-1,-1,-1,-1,-1,-1,-1,-1],"split_conditions":[7.25E-1,5.084746E-1,5E-1,6.3235295E-1,6.25E-1,8.333333E-1,6E-1,-1.9610278E-2,-1.1324661E-2,-1.1116359E-2,3.4269954E-3,-2.6086427E-3,1.0491095E-2,1.1085728E-2,1.8557187E-2],"split_indices":[87,88,88,87,87,87,88,0,0,0,0,0,0,0,0],"split_type":[0,0,0,0,0,0,0,0,0,0,0,0,0,0,0],"sum_hessian":[1.1473346E4,5.9708564E3,5.5024897E3,3.519062E3,2.4517942E3,1.8146829E3,3.687807E3,1.5224266E3,1.9966354E3,6.2432324E2,1.827471E3,1.4778162E3,3.368666E2,2.046565E3,1.641242E3],"tree_param":{"num_deleted":"0","num_feature":"98","num_nodes":"15","size_leaf_vector":"1"}},{"base_weights":[3.1816727E-3,8.6710006E-1,-5.967843E-1,-2.560719E-1,1.098518E0,-1.0680122E0,1.15563035E-1,1.1600901E-2,-1.3298722E-2,2.0965979E-2,1.2146011E-2,-1.8972868E-2,-7.011282E-3,-9.089526E-3,9.925003E-3],"categories":[],"categories_nodes":[],"categories_segments":[],"categories_sizes":[],"default_left":[0,0,0,0,0,0,0,0,0,0,0,0,0,0,0],"id":46,"left_children":[1,3,5,7,9,11,13,-1,-1,-1,-1,-1,-1,-1,-1],"loss_changes":[5.9551455E3,1.2239607E3,2.2760688E3,4.505308E2,2.7679883E2,2.9291113E2,9.249795E2,0E0,0E0,0E0,0E0,0E0,0E0,0E0,0E0],"parents":[2147483647,0,0,1,1,2,2,3,3,4,4,5,5,6,6],"right_children":[2,4,6,8,10,12,14,-1,-1,-1,-1,-1,-1,-1,-1],"split_conditions":[6.1403507E-1,6.4102566E-1,7.358491E-1,5.555556E-1,5.764706E-1,5.8064514E-1,5.1111114E-1,1.1600901E-2,-1.3298722E-2,2.0965979E-2,1.2146011E-2,-1.8972868E-2,-7.011282E-3,-9.089526E-3,9.925003E-3],"split_indices":[94,87,87,94,94,88,88,0,0,0,0,0,0,0,0],"split_type":[0,0,0,0,0,0,0,0,0,0,0,0,0,0,0],"sum_hessian":[1.1489217E4,4.708811E3,6.7804053E3,8.0443445E2,3.9043765E3,4.0808699E3,2.6995354E3,2.9680106E2,5.0763342E2,2.430601E3,1.4737755E3,3.457951E3,6.2291907E2,1.1456395E3,1.553896E3],"tree_param":{"num_deleted":"0","num_feature":"98","num_nodes":"15","size_leaf_vector":"1"}},{"base_weights":[7.51532E-3,6.372171E-1,-8.044998E-1,-5.662949E-1,1.0459738E0,-1.0914406E0,3.7011376E-1,1.5455022E-2,-1.4394912E-2,2.05831E-2,1.0880124E-2,-2.0214694E-2,-1.0729714E-2,1.1718359E-2,-6.7886915E-3],"categories":[],"categories_nodes":[],"categories_segments":[],"categories_sizes":[],"default_left":[0,0,0,0,0,0,0,0,0,0,0,0,0,0,0],"id":47,"left_children":[1,3,5,7,9,11,13,-1,-1,-1,-1,-1,-1,-1,-1],"loss_changes":[5.850268E3,3.1701626E3,1.684322E3,8.2505945E2,4.181245E2,2.8480615E2,2.7989755E2,0E0,0E0,0E0,0E0,0E0,0E0,0E0,0E0],"parents":[2147483647,0,0,1,1,2,2,3,3,4,4,5,5,6,6],"right_children":[2,4,6,8,10,12,14,-1,-1,-1,-1,-1,-1,-1,-1],"split_conditions":[6.447368E-1,5.945946E-1,6.8421054E-1,5.423729E-1,5.952381E-1,6.3E-1,7.121212E-1,1.5455022E-2,-1.4394912E-2,2.05831E-2,1.0880124E-2,-2.0214694E-2,-1.0729714E-2,1.1718359E-2,-6.7886915E-3],"split_indices":[94,89,89,94,94,89,94,0,0,0,0,0,0,0,0],"split_type":[0,0,0,0,0,0,0,0,0,0,0,0,0,0,0],"sum_hessian":[1.1441285E4,6.444071E3,4.997215E3,1.6337404E3,4.81033E3,4.0161506E3,9.810639E2,2.9021588E2,1.3435244E3,2.931438E3,1.8788923E3,2.8764778E3,1.139673E3,6.748933E2,3.061706E2],"tree_param":{"num_deleted":"0","num_feature":"98","num_nodes":"15","size_leaf_vector":"1"}},{"base_weights":[7.7832257E-3,6.98595E-1,-5.076171E-1,-3.647488E-1,9.906251E-1,-1.0025061E0,1.905867E-1,7.7879243E-3,-1.4164465E-2,1.919963E-2,8.491543E-3,-7.4124755E-3,-1.9134134E-2,1.1436742E-2,-7.226794E-3],"categories":[],"categories_nodes":[],"categories_segments":[],"categories_sizes":[],"default_left":[0,0,0,0,0,0,0,0,0,0,0,0,0,0,0],"id":48,"left_children":[1,3,5,7,9,11,13,-1,-1,-1,-1,-1,-1,-1,-1],"loss_changes":[4.0425334E3,1.5065381E3,2.246872E3,4.597141E2,3.6060742E2,3.894524E2,9.016733E2,0E0,0E0,0E0,0E0,0E0,0E0,0E0,0E0],"parents":[2147483647,0,0,1,1,2,2,3,3,4,4,5,5,6,6],"right_children":[2,4,6,8,10,12,14,-1,-1,-1,-1,-1,-1,-1,-1],"split_conditions":[7.0149255E-1,6.486486E-1,7.358491E-1,4.6341464E-1,5.263158E-1,4.7368422E-1,5.3571427E-1,7.7879243E-3,-1.4164465E-2,1.919963E-2,8.491543E-3,-7.4124755E-3,-1.9134134E-2,1.1436742E-2,-7.226794E-3],"split_indices":[92,87,87,93,93,93,93,0,0,0,0,0,0,0,0],"split_type":[0,0,0,0,0,0,0,0,0,0,0,0,0,0,0],"sum_hessian":[1.13539375E4,4.85142E3,6.502517E3,1.0452723E3,3.8061477E3,3.8053174E3,2.6971997E3,3.9558865E2,6.496837E2,2.6349084E3,1.1712391E3,9.8653656E2,2.818781E3,1.4866232E3,1.2105765E3],"tree_param":{"num_deleted":"0","num_feature":"98","num_nodes":"15","size_leaf_vector":"1"}},{"base_weights":[-1.4019904E-3,6.10505E-1,-7.9205364E-1,-5.224506E-1,1.0425668E0,-1.1148438E0,2.834059E-1,9.310501E-3,-1.566684E-2,2.0214468E-2,1.0880506E-2,-1.9821925E-2,-1.0672637E-2,1.0223434E-2,-9.813907E-3],"categories":[],"categories_nodes":[],"categories_segments":[],"categories_sizes":[],"default_left":[0,0,0,0,0,0,0,0,0,0,0,0,0,0,0],"id":49,"left_children":[1,3,5,7,9,11,13,-1,-1,-1,-1,-1,-1,-1,-1],"loss_changes":[5.4724336E3,3.1212983E3,1.7131572E3,8.797874E2,3.6456055E2,2.045415E2,3.6017023E2,0E0,0E0,0E0,0E0,0E0,0E0,0E0,0E0],"parents":[2147483647,0,0,1,1,2,2,3,3,4,4,5,5,6,6],"right_children":[2,4,6,8,10,12,14,-1,-1,-1,-1,-1,-1,-1,-1],"split_conditions":[6.455696E-1,6E-1,6.7391306E-1,5.6666666E-1,5.97561E-1,6.376812E-1,7.1666664E-1,9.310501E-3,-1.566684E-2,2.0214468E-2,1.0880506E-2,-1.9821925E-2,-1.0672637E-2,1.0223434E-2,-9.813907E-3],"split_indices":[94,89,89,94,94,89,94,0,0,0,0,0,0,0,0],"split_type":[0,0,0,0,0,0,0,0,0,0,0,0,0,0,0],"sum_hessian":[1.1311165E4,6.376327E3,4.934838E3,1.760326E3,4.6160015E3,3.7956318E3,1.1392062E3,5.129686E2,1.2473574E3,2.8969814E3,1.7190199E3,2.997837E3,7.9779486E2,8.16681E2,3.2252512E2],"tree_param":{"num_deleted":"0","num_feature":"98","num_nodes":"15","size_leaf_vector":"1"}},{"base_weights":[-2.5997988E-3,6.73051E-1,-7.2546655E-1,-5.2704835E-1,1.0531884E0,-1.0600184E0,3.478358E-1,1.4620987E-2,-1.3932785E-2,2.025923E-2,1.1115826E-2,-1.9613545E-2,-9.293322E-3,1.1762242E-2,-7.7919895E-3],"categories":[],"categories_nodes":[],"categories_segments":[],"categories_sizes":[],"default_left":[0,0,0,0,0,0,0,0,0,0,0,0,0,0,0],"id":50,"left_children":[1,3,5,7,9,11,13,-1,-1,-1,-1,-1,-1,-1,-1],"loss_changes":[5.4992246E3,2.6550488E3,1.9532971E3,6.8590027E2,3.327085E2,3.2243555E2,4.1441742E2,0E0,0E0,0E0,0E0,0E0,0E0,0E0,0E0],"parents":[2147483647,0,0,1,1,2,2,3,3,4,4,5,5,6,6],"right_children":[2,4,6,8,10,12,14,-1,-1,-1,-1,-1,-1,-1,-1],"split_conditions":[6.363636E-1,5.925926E-1,6.7391306E-1,5.423729E-1,5.92233E-1,6.315789E-1,7.0731705E-1,1.4620987E-2,-1.3932785E-2,2.025923E-2,1.1115826E-2,-1.9613545E-2,-9.293322E-3,1.1762242E-2,-7.7919895E-3],"split_indices":[94,89,89,94,94,89,94,0,0,0,0,0,0,0,0],"split_type":[0,0,0,0,0,0,0,0,0,0,0,0,0,0,0],"sum_hessian":[1.1259487E4,5.819796E3,5.439691E3,1.3999766E3,4.4198193E3,4.147061E3,1.29263E3,2.6821317E2,1.1317634E3,2.8003481E3,1.6194712E3,3.1043313E3,1.0427296E3,8.842783E2,4.083517E2],"tree_param":{"num_deleted":"0","num_feature":"98","num_nodes":"15","size_leaf_vector":"1"}},{"base_weights":[-6.6127507E-3,5.9182453E-1,-7.9593515E-1,-5.2728635E-1,1.0176035E0,-1.0737178E0,3.6558026E-1,8.6708935E-3,-1.5413429E-2,2.0133195E-2,1.1003284E-2,-1.9566799E-2,-1.0627762E-2,1.1633029E-2,-6.264994E-3],"categories":[],"categories_nodes":[],"categories_segments":[],"categories_sizes":[],"default_left":[0,0,0,0,0,0,0,0,0,0,0,0,0,0,0],"id":51,"left_children":[1,3,5,7,9,11,13,-1,-1,-1,-1,-1,-1,-1,-1],"loss_changes":[5.2801133E3,3.0294932E3,1.5552983E3,8.0936646E2,3.6167627E2,2.3219287E2,2.5242926E2,0E0,0E0,0E0,0E0,0E0,0E0,0E0,0E0],"parents":[2147483647,0,0,1,1,2,2,3,3,4,4,5,5,6,6],"right_children":[2,4,6,8,10,12,14,-1,-1,-1,-1,-1,-1,-1,-1],"split_conditions":[6.4634144E-1,6E-1,6.851852E-1,5.6666666E-1,5.9322035E-1,6.363636E-1,7.121212E-1,8.6708935E-3,-1.5413429E-2,2.0133195E-2,1.1003284E-2,-1.9566799E-2,-1.0627762E-2,1.1633029E-2,-6.264994E-3],"split_indices":[94,89,89,94,94,89,94,0,0,0,0,0,0,0,0],"split_type":[0,0,0,0,0,0,0,0,0,0,0,0,0,0,0],"sum_hessian":[1.1178087E4,6.3577983E3,4.820288E3,1.752222E3,4.605576E3,3.8899973E3,9.302911E2,5.05455E2,1.2467671E3,2.6909243E3,1.9146517E3,2.8768242E3,1.01317303E3,6.3073895E2,2.9955215E2],"tree_param":{"num_deleted":"0","num_feature":"98","num_nodes":"15","size_leaf_vector":"1"}},{"base_weights":[5.8367045E-4,5.4284906E-1,-5.987375E-1,-2.8926897E-1,9.4240165E-1,-9.6345925E-1,1.6842489E-1,9.033471E-3,-1.12575805E-2,7.3744287E-3,1.9083237E-2,-6.654649E-3,-1.8650055E-2,-1.0237804E-2,8.952088E-3],"categories":[],"categories_nodes":[],"categories_segments":[],"categories_sizes":[],"default_left":[0,0,0,0,0,0,0,0,0,0,0,0,0,0,0],"id":52,"left_children":[1,3,5,7,9,11,13,-1,-1,-1,-1,-1,-1,-1,-1],"loss_changes":[3.591284E3,1.9288341E3,1.468709E3,6.6042194E2,4.6610352E2,3.8697168E2,5.3058344E2,0E0,0E0,0E0,0E0,0E0,0E0,0E0,0E0],"parents":[2147483647,0,0,1,1,2,2,3,3,4,4,5,5,6,6],"right_children":[2,4,6,8,10,12,14,-1,-1,-1,-1,-1,-1,-1,-1],"split_conditions":[7.258065E-1,6.792453E-1,7.592593E-1,4.5454547E-1,5E-1,4.7826087E-1,4.888889E-1,9.033471E-3,-1.12575805E-2,7.3744287E-3,1.9083237E-2,-6.654649E-3,-1.8650055E-2,-1.0237804E-2,8.952088E-3],"split_indices":[92,87,87,93,88,93,88,0,0,0,0,0,0,0,0],"split_type":[0,0,0,0,0,0,0,0,0,0,0,0,0,0,0],"sum_hessian":[1.1050352E4,5.801343E3,5.2490093E3,1.8819323E3,3.9194104E3,3.5576611E3,1.6913479E3,6.133413E2,1.268591E3,1.3232152E3,2.5961953E3,9.436452E2,2.6140159E3,5.506558E2,1.140692E3],"tree_param":{"num_deleted":"0","num_feature":"98","num_nodes":"15","size_leaf_vector":"1"}},{"base_weights":[5.153284E-3,-6.5192884E-1,6.853544E-1,1.8974274E-1,-1.0096223E0,1.038659E0,-1.6007072E-1,-1.317018E-2,1.0501733E-2,-1.998579E-2,-1.1714197E-2,1.9294232E-2,1.1295039E-2,-8.44742E-3,1.0366613E-2],"categories":[],"categories_nodes":[],"categories_segments":[],"categories_sizes":[],"default_left":[0,0,0,0,0,0,0,0,0,0,0,0,0,0,0],"id":53,"left_children":[1,3,5,7,9,11,13,-1,-1,-1,-1,-1,-1,-1,-1],"loss_changes":[4.939604E3,1.6924185E3,1.6220496E3,7.863399E2,2.5972095E2,2.0926074E2,4.72112E2,0E0,0E0,0E0,0E0,0E0,0E0,0E0,0E0],"parents":[2147483647,0,0,1,1,2,2,3,3,4,4,5,5,6,6],"right_children":[2,4,6,8,10,12,14,-1,-1,-1,-1,-1,-1,-1,-1],"split_conditions":[6.3492066E-1,6.785714E-1,7.625E-1,5.588235E-1,5.8181816E-1,7.037037E-1,7.1153843E-1,-1.317018E-2,1.0501733E-2,-1.998579E-2,-1.1714197E-2,1.9294232E-2,1.1295039E-2,-8.44742E-3,1.0366613E-2],"split_indices":[89,92,92,89,89,92,89,0,0,0,0,0,0,0,0],"split_type":[0,0,0,0,0,0,0,0,0,0,0,0,0,0,0],"sum_hessian":[1.1051793E4,5.621411E3,5.4303823E3,1.6764896E3,3.9449216E3,3.8298872E3,1.6004949E3,5.2798035E2,1.1485093E3,2.1439136E3,1.801008E3,2.576168E3,1.2537194E3,1.1005321E3,4.999627E2],"tree_param":{"num_deleted":"0","num_feature":"98","num_nodes":"15","size_leaf_vector":"1"}},{"base_weights":[2.4622248E-3,5.931905E-1,-7.709108E-1,-2.6288545E-1,9.4808453E-1,-1.0834628E0,6.917198E-3,1.2071601E-2,-1.238201E-2,6.275952E-3,1.7984712E-2,-1.8992001E-2,-9.879568E-3,-1.1021888E-2,7.918972E-3],"categories":[],"categories_nodes":[],"categories_segments":[],"categories_sizes":[],"default_left":[0,0,0,0,0,0,0,0,0,0,0,0,0,0,0],"id":54,"left_children":[1,3,5,7,9,11,13,-1,-1,-1,-1,-1,-1,-1,-1],"loss_changes":[5.0199824E3,1.892718E3,1.1568604E3,9.417901E2,4.222478E2,1.5797095E2,4.5997058E2,0E0,0E0,0E0,0E0,0E0,0E0,0E0,0E0],"parents":[2147483647,0,0,1,1,2,2,3,3,4,4,5,5,6,6],"right_children":[2,4,6,8,10,12,14,-1,-1,-1,-1,-1,-1,-1,-1],"split_conditions":[6.4634144E-1,6.764706E-1,7.647059E-1,5.6790125E-1,4.6666667E-1,5.744681E-1,5.1111114E-1,1.2071601E-2,-1.238201E-2,6.275952E-3,1.7984712E-2,-1.8992001E-2,-9.879568E-3,-1.1021888E-2,7.918972E-3],"split_indices":[94,87,87,94,88,88,88,0,0,0,0,0,0,0,0],"split_type":[0,0,0,0,0,0,0,0,0,0,0,0,0,0,0],"sum_hessian":[1.0988122E4,6.2297036E3,4.758419E3,1.8256964E3,4.404007E3,3.3944553E3,1.3639636E3,6.09301E2,1.2163954E3,1.039305E3,3.364702E3,2.7995647E3,5.948905E2,5.622361E2,8.0172754E2],"tree_param":{"num_deleted":"0","num_feature":"98","num_nodes":"15","size_leaf_vector":"1"}},{"base_weights":[1.0283035E-3,5.8935803E-1,-7.6126254E-1,-5.3391033E-1,9.799903E-1,-1.0413067E0,3.601337E-1,1.3886301E-2,-1.3905161E-2,1.9749954E-2,1.01773115E-2,-1.9069334E-2,-9.4975075E-3,1.1465314E-2,-6.120985E-3],"categories":[],"categories_nodes":[],"categories_segments":[],"categories_sizes":[],"default_left":[0,0,0,0,0,0,0,0,0,0,0,0,0,0,0],"id":55,"left_children":[1,3,5,7,9,11,13,-1,-1,-1,-1,-1,-1,-1,-1],"loss_changes":[4.8933994E3,2.7021785E3,1.4926196E3,7.3836206E2,3.9550098E2,2.5039844E2,2.4926524E2,0E0,0E0,0E0,0E0,0E0,0E0,0E0,0E0],"parents":[2147483647,0,0,1,1,2,2,3,3,4,4,5,5,6,6],"right_children":[2,4,6,8,10,12,14,-1,-1,-1,-1,-1,-1,-1,-1],"split_conditions":[6.455696E-1,5.945946E-1,6.8421054E-1,5.466667E-1,5.9322035E-1,6.376812E-1,7.121212E-1,1.3886301E-2,-1.3905161E-2,1.9749954E-2,1.01773115E-2,-1.9069334E-2,-9.4975075E-3,1.1465314E-2,-6.120985E-3],"split_indices":[94,89,89,94,94,89,94,0,0,0,0,0,0,0,0],"split_type":[0,0,0,0,0,0,0,0,0,0,0,0,0,0,0],"sum_hessian":[1.0911068E4,6.1582334E3,4.752835E3,1.5889926E3,4.5692407E3,3.8031138E3,9.497213E2,3.0490118E2,1.2840914E3,2.6522288E3,1.917012E3,2.8689565E3,9.341572E2,6.4282635E2,3.0689496E2],"tree_param":{"num_deleted":"0","num_feature":"98","num_nodes":"15","size_leaf_vector":"1"}},{"base_weights":[3.2994528E-3,-6.0823315E-1,6.678511E-1,3.8522992E-1,-9.26916E-1,1.0353622E0,-1.453222E-1,-1.1578483E-2,1.2965935E-2,-1.9143727E-2,-9.114658E-3,1.0745823E-2,1.8944252E-2,-7.4516507E-3,1.0813873E-2],"categories":[],"categories_nodes":[],"categories_segments":[],"categories_sizes":[],"default_left":[0,0,0,0,0,0,0,0,0,0,0,0,0,0,0],"id":56,"left_children":[1,3,5,7,9,11,13,-1,-1,-1,-1,-1,-1,-1,-1],"loss_changes":[4.438785E3,1.8008584E3,1.5642932E3,6.4556714E2,4.1058594E2,1.9073022E2,4.2534012E2,0E0,0E0,0E0,0E0,0E0,0E0,0E0,0E0],"parents":[2147483647,0,0,1,1,2,2,3,3,4,4,5,5,6,6],"right_children":[2,4,6,8,10,12,14,-1,-1,-1,-1,-1,-1,-1,-1],"split_conditions":[6.376812E-1,6.603774E-1,7.590361E-1,5.555556E-1,5.888889E-1,7.8125E-2,7.169811E-1,-1.1578483E-2,1.2965935E-2,-1.9143727E-2,-9.114658E-3,1.0745823E-2,1.8944252E-2,-7.4516507E-3,1.0813873E-2],"split_indices":[89,92,92,89,89,97,89,0,0,0,0,0,0,0,0],"split_type":[0,0,0,0,0,0,0,0,0,0,0,0,0,0,0],"sum_hessian":[1.092228E4,5.688023E3,5.234257E3,1.3814392E3,4.306584E3,3.6050063E3,1.6292502E3,3.8163452E2,9.998046E2,2.4764065E3,1.8301775E3,1.0208099E3,2.5841965E3,1.1727223E3,4.5652798E2],"tree_param":{"num_deleted":"0","num_feature":"98","num_nodes":"15","size_leaf_vector":"1"}},{"base_weights":[-1.949645E-3,7.59737E-1,-5.734074E-1,-7.0909494E-1,1.0105412E0,-9.6613735E-1,3.4979957E-1,1.7025273E-2,-1.5502724E-2,1.958464E-2,1.02864895E-2,-1.895225E-2,-9.427903E-3,1.083383E-2,-8.555879E-3],"categories":[],"categories_nodes":[],"categories_segments":[],"categories_sizes":[],"default_left":[0,0,0,0,0,0,0,0,0,0,0,0,0,0,0],"id":57,"left_children":[1,3,5,7,9,11,13,-1,-1,-1,-1,-1,-1,-1,-1],"loss_changes":[4.72843E3,1.7154424E3,2.2503765E3,3.0827023E2,3.078042E2,3.5353052E2,5.313833E2,0E0,0E0,0E0,0E0,0E0,0E0,0E0,0E0],"parents":[2147483647,0,0,1,1,2,2,3,3,4,4,5,5,6,6],"right_children":[2,4,6,8,10,12,14,-1,-1,-1,-1,-1,-1,-1,-1],"split_conditions":[6.181818E-1,5.6666666E-1,6.625E-1,5.185185E-1,5.816327E-1,6.103896E-1,7.04918E-1,1.7025273E-2,-1.5502724E-2,1.958464E-2,1.02864895E-2,-1.895225E-2,-9.427903E-3,1.083383E-2,-8.555879E-3],"split_indices":[94,89,89,94,94,89,94,0,0,0,0,0,0,0,0],"split_type":[0,0,0,0,0,0,0,0,0,0,0,0,0,0,0],"sum_hessian":[1.086312E4,4.6564985E3,6.2066216E3,6.791156E2,3.9773828E3,4.3543267E3,1.8522949E3,8.595285E1,5.931628E2,2.5399434E3,1.4374395E3,2.7812288E3,1.5730978E3,1.3538717E3,4.9842325E2],"tree_param":{"num_deleted":"0","num_feature":"98","num_nodes":"15","size_leaf_vector":"1"}},{"base_weights":[-3.8144302E-3,-6.190737E-1,6.6854906E-1,4.482614E-1,-8.930915E-1,1.0096734E0,-1.7926598E-1,-1.1129363E-2,1.3976365E-2,-7.2016646E-3,-1.802191E-2,1.7897831E-2,5.544614E-3,1.0884366E-2,-8.955428E-3],"categories":[],"categories_nodes":[],"categories_segments":[],"categories_sizes":[],"default_left":[0,0,0,0,0,0,0,0,0,0,0,0,0,0,0],"id":58,"left_children":[1,3,5,7,9,11,13,-1,-1,-1,-1,-1,-1,-1,-1],"loss_changes":[4.4472065E3,1.6418274E3,1.4856423E3,5.5275354E2,4.554712E2,2.5569336E2,4.7822208E2,0E0,0E0,0E0,0E0,0E0,0E0,0E0,0E0],"parents":[2147483647,0,0,1,1,2,2,3,3,4,4,5,5,6,6],"right_children":[2,4,6,8,10,12,14,-1,-1,-1,-1,-1,-1,-1,-1],"split_conditions":[6.376812E-1,6.486486E-1,7.6744187E-1,5.555556E-1,5E-1,5.925926E-1,4.827586E-1,-1.1129363E-2,1.3976365E-2,-7.2016646E-3,-1.802191E-2,1.7897831E-2,5.544614E-3,1.0884366E-2,-8.955428E-3],"split_indices":[89,92,92,89,93,93,93,0,0,0,0,0,0,0,0],"split_type":[0,0,0,0,0,0,0,0,0,0,0,0,0,0,0],"sum_hessian":[1.07503545E4,5.613578E3,5.136776E3,1.1467463E3,4.466832E3,3.6629746E3,1.473801E3,3.096417E2,8.3710474E2,1.5205427E3,2.946289E3,3.162606E3,5.0036868E2,4.5142456E2,1.02237646E3],"tree_param":{"num_deleted":"0","num_feature":"98","num_nodes":"15","size_leaf_vector":"1"}},{"base_weights":[-2.4948982E-3,-5.037793E-1,5.350674E-1,-7.540409E-1,5.8067005E-2,3.2177183E-1,9.872282E-1,-1.7593613E-2,-8.130454E-3,-1.0694376E-2,5.241335E-3,1.1165668E-3,1.2469195E-2,1.2781931E-2,1.856143E-2],"categories":[],"categories_nodes":[],"categories_segments":[],"categories_sizes":[],"default_left":[0,0,0,0,0,0,0,0,0,0,0,0,0,0,0],"id":59,"left_children":[1,3,5,7,9,11,13,-1,-1,-1,-1,-1,-1,-1,-1],"loss_changes":[2.8888687E3,7.800382E2,4.9886755E2,3.247771E2,3.322588E2,4.0326062E2,5.3435303E1,0E0,0E0,0E0,0E0,0E0,0E0,0E0,0E0],"parents":[2147483647,0,0,1,1,2,2,3,3,4,4,5,5,6,6],"right_children":[2,4,6,8,10,12,14,-1,-1,-1,-1,-1,-1,-1,-1],"split_conditions":[8.219178E-2,9.7087376E-2,1.3207547E-1,4.494382E-2,3.1746034E-2,8.235294E-2,5.6603774E-2,-1.7593613E-2,-8.130454E-3,-1.0694376E-2,5.241335E-3,1.1165668E-3,1.2469195E-2,1.2781931E-2,1.856143E-2],"split_indices":[97,90,97,97,97,90,90,0,0,0,0,0,0,0,0],"split_type":[0,0,0,0,0,0,0,0,0,0,0,0,0,0,0],"sum_hessian":[1.0720438E4,5.547429E3,5.17301E3,3.8379392E3,1.70949E3,3.5149995E3,1.6580103E3,1.6123818E3,2.2255574E3,4.622147E2,1.2472753E3,2.2612341E3,1.2537654E3,7.7794824E2,8.800621E2],"tree_param":{"num_deleted":"0","num_feature":"98","num_nodes":"15","size_leaf_vector":"1"}},{"base_weights":[2.3790174E-3,-7.2621375E-1,5.368788E-1,2.6833564E-1,-9.8173743E-1,-3.3291656E-1,8.7477607E-1,-1.5124972E-2,1.0825824E-2,-1.9382782E-2,-1.0978748E-2,-1.0716124E-2,8.865345E-3,1.8152917E-2,8.016459E-3],"categories":[],"categories_nodes":[],"categories_segments":[],"categories_sizes":[],"default_left":[0,0,0,0,0,0,0,0,0,0,0,0,0,0,0],"id":60,"left_children":[1,3,5,7,9,11,13,-1,-1,-1,-1,-1,-1,-1,-1],"loss_changes":[4.1626416E3,1.1495149E3,1.8121537E3,4.5431635E2,2.41719E2,5.1081494E2,4.2658594E2,0E0,0E0,0E0,0E0,0E0,0E0,0E0,0E0],"parents":[2147483647,0,0,1,1,2,2,3,3,4,4,5,5,6,6],"right_children":[2,4,6,8,10,12,14,-1,-1,-1,-1,-1,-1,-1,-1],"split_conditions":[6.181818E-1,6.486486E-1,5.699482E-2,5.3968257E-1,5.744681E-1,7.0886075E-1,7.037037E-1,-1.5124972E-2,1.0825824E-2,-1.9382782E-2,-1.0978748E-2,-1.0716124E-2,8.865345E-3,1.8152917E-2,8.016459E-3],"split_indices":[89,92,97,89,89,89,92,0,0,0,0,0,0,0,0],"split_type":[0,0,0,0,0,0,0,0,0,0,0,0,0,0,0],"sum_hessian":[1.0688942E4,4.5231904E3,6.165752E3,9.245525E2,3.5986377E3,1.7250806E3,4.4406714E3,2.3218031E2,6.923722E2,2.048111E3,1.5505269E3,1.2519263E3,4.7315433E2,2.6408406E3,1.7998308E3],"tree_param":{"num_deleted":"0","num_feature":"98","num_nodes":"15","size_leaf_vector":"1"}},{"base_weights":[-4.903619E-5,-7.2636575E-1,5.4110587E-1,5.476728E-1,-9.2880344E-1,9.028504E-1,-2.6244682E-1,-1.35135865E-2,1.4172228E-2,-5.394952E-3,-1.7533336E-2,1.7895022E-2,7.242385E-3,9.198328E-3,-1.0532325E-2],"categories":[],"categories_nodes":[],"categories_segments":[],"categories_sizes":[],"default_left":[0,0,0,0,0,0,0,0,0,0,0,0,0,0,0],"id":61,"left_children":[1,3,5,7,9,11,13,-1,-1,-1,-1,-1,-1,-1,-1],"loss_changes":[4.1702773E3,1.1683818E3,1.7673602E3,2.8915002E2,3.782561E2,4.0099683E2,6.205335E2,0E0,0E0,0E0,0E0,0E0,0E0,0E0,0E0],"parents":[2147483647,0,0,1,1,2,2,3,3,4,4,5,5,6,6],"right_children":[2,4,6,8,10,12,14,-1,-1,-1,-1,-1,-1,-1,-1],"split_conditions":[6.181818E-1,6.25E-1,7.6119405E-1,5.316456E-1,4.5454547E-1,5.3061223E-1,4.864865E-1,-1.35135865E-2,1.4172228E-2,-5.394952E-3,-1.7533336E-2,1.7895022E-2,7.242385E-3,9.198328E-3,-1.0532325E-2],"split_indices":[89,92,92,89,93,93,93,0,0,0,0,0,0,0,0],"split_type":[0,0,0,0,0,0,0,0,0,0,0,0,0,0,0],"sum_hessian":[1.0609978E4,4.5300103E3,6.079967E3,6.210807E2,3.9089297E3,4.1925737E3,1.8873931E3,1.2065067E2,5.0043005E2,8.441569E2,3.0647727E3,2.8545361E3,1.3380377E3,6.044086E2,1.2829844E3],"tree_param":{"num_deleted":"0","num_feature":"98","num_nodes":"15","size_leaf_vector":"1"}},{"base_weights":[-5.2013234E-3,-6.0462075E-1,6.2703574E-1,-9.0602905E-1,2.0788354E-1,-1.9316584E-1,9.438335E-1,-1.8565096E-2,-9.152038E-3,-1.600331E-2,9.039142E-3,-9.091433E-3,9.338188E-3,1.047977E-2,1.8192526E-2],"categories":[],"categories_nodes":[],"categories_segments":[],"categories_sizes":[],"default_left":[0,0,0,0,0,0,0,0,0,0,0,0,0,0,0],"id":62,"left_children":[1,3,5,7,9,11,13,-1,-1,-1,-1,-1,-1,-1,-1],"loss_changes":[4.0143247E3,1.3316248E3,1.3395272E3,3.3349023E2,6.2941785E2,4.152218E2,2.0485059E2,0E0,0E0,0E0,0E0,0E0,0E0,0E0,0E0],"parents":[2147483647,0,0,1,1,2,2,3,3,4,4,5,5,6,6],"right_children":[2,4,6,8,10,12,14,-1,-1,-1,-1,-1,-1,-1,-1],"split_conditions":[6.363636E-1,1.0465116E-1,5.699482E-2,5.882353E-1,5.423729E-1,7.0886075E-1,6.779661E-1,-1.8565096E-2,-9.152038E-3,-1.600331E-2,9.039142E-3,-9.091433E-3,9.338188E-3,1.047977E-2,1.8192526E-2],"split_indices":[89,97,97,89,89,89,89,0,0,0,0,0,0,0,0],"split_type":[0,0,0,0,0,0,0,0,0,0,0,0,0,0,0],"sum_hessian":[1.0592523E4,5.4374014E3,5.155122E3,3.9661396E3,1.4712616E3,1.4363341E3,3.718788E3,2.2728406E3,1.6932991E3,3.3494144E2,1.1363202E3,9.6951355E2,4.6682053E2,1.4654255E3,2.2533625E3],"tree_param":{"num_deleted":"0","num_feature":"98","num_nodes":"15","size_leaf_vector":"1"}},{"base_weights":[-1.5125104E-3,8.2471114E-1,-4.7990182E-1,-4.9157688E-1,9.960439E-1,-9.2808187E-1,1.4811738E-1,1.5177311E-2,-1.3050966E-2,1.894535E-2,1.0287191E-2,-9.99744E-3,-1.8612832E-2,9.069893E-3,-8.616321E-3],"categories":[],"categories_nodes":[],"categories_segments":[],"categories_sizes":[],"default_left":[0,0,0,0,0,0,0,0,0,0,0,0,0,0,0],"id":63,"left_children":[1,3,5,7,9,11,13,-1,-1,-1,-1,-1,-1,-1,-1],"loss_changes":[4.152637E3,8.6885693E2,1.8728096E3,2.0486938E2,2.2275317E2,2.741106E2,7.908831E2,0E0,0E0,0E0,0E0,0E0,0E0,0E0,0E0],"parents":[2147483647,0,0,1,1,2,2,3,3,4,4,5,5,6,6],"right_children":[2,4,6,8,10,12,14,-1,-1,-1,-1,-1,-1,-1,-1],"split_conditions":[6.056338E-1,6.1538464E-1,7.358491E-1,5.16129E-1,5.753425E-1,6.6292137E-1,6.8604654E-1,1.5177311E-2,-1.3050966E-2,1.894535E-2,1.0287191E-2,-9.99744E-3,-1.8612832E-2,9.069893E-3,-8.616321E-3],"split_indices":[94,87,87,94,94,94,94,0,0,0,0,0,0,0,0],"split_type":[0,0,0,0,0,0,0,0,0,0,0,0,0,0,0],"sum_hessian":[1.0506145E4,3.8524785E3,6.6536665E3,4.436768E2,3.4088018E3,3.8827803E3,2.770886E3,8.105606E1,3.6262073E2,2.2458313E3,1.1629706E3,1.673139E3,2.2096414E3,1.7225056E3,1.0483802E3],"tree_param":{"num_deleted":"0","num_feature":"98","num_nodes":"15","size_leaf_vector":"1"}},{"base_weights":[-2.57287E-3,8.122294E-1,-4.818797E-1,-3.516709E-1,9.9619585E-1,-9.378723E-1,1.5157562E-1,1.6667962E-2,-1.0792369E-2,1.900592E-2,1.05635235E-2,-1.0041444E-2,-1.8755222E-2,9.268623E-3,-8.123439E-3],"categories":[],"categories_nodes":[],"categories_segments":[],"categories_sizes":[],"default_left":[0,0,0,0,0,0,0,0,0,0,0,0,0,0,0],"id":64,"left_children":[1,3,5,7,9,11,13,-1,-1,-1,-1,-1,-1,-1,-1],"loss_changes":[4.0905142E3,8.3065625E2,1.90491E3,2.3588783E2,2.1248584E2,2.7584424E2,7.726868E2,0E0,0E0,0E0,0E0,0E0,0E0,0E0,0E0],"parents":[2147483647,0,0,1,1,2,2,3,3,4,4,5,5,6,6],"right_children":[2,4,6,8,10,12,14,-1,-1,-1,-1,-1,-1,-1,-1],"split_conditions":[6.0674155E-1,6.25E-1,7.358491E-1,5.185185E-1,5.744681E-1,6.6292137E-1,6.8421054E-1,1.6667962E-2,-1.0792369E-2,1.900592E-2,1.05635235E-2,-1.0041444E-2,-1.8755222E-2,9.268623E-3,-8.123439E-3],"split_indices":[94,87,87,94,94,94,94,0,0,0,0,0,0,0,0],"split_type":[0,0,0,0,0,0,0,0,0,0,0,0,0,0,0],"sum_hessian":[1.047395E4,3.8792727E3,6.5946772E3,5.2944934E2,3.3498232E3,3.8344634E3,2.7602136E3,9.919554E1,4.302538E2,2.1546978E3,1.1951256E3,1.6271521E3,2.2073113E3,1.6754795E3,1.0847341E3],"tree_param":{"num_deleted":"0","num_feature":"98","num_nodes":"15","size_leaf_vector":"1"}},{"base_weights":[7.345019E-3,5.808413E-1,-6.656841E-1,-6.75446E-1,8.8760924E-1,-9.529201E-1,4.060799E-1,1.0725024E-2,-1.5385661E-2,1.839298E-2,8.35924E-3,-1.872172E-2,-9.810473E-3,1.1100121E-2,-5.8949E-3],"categories":[],"categories_nodes":[],"categories_segments":[],"categories_sizes":[],"default_left":[0,0,0,0,0,0,0,0,0,0,0,0,0,0,0],"id":65,"left_children":[1,3,5,7,9,11,13,-1,-1,-1,-1,-1,-1,-1,-1],"loss_changes":[3.9885583E3,2.1502527E3,1.4636077E3,4.1613052E2,4.244956E2,2.7317505E2,2.2168475E2,0E0,0E0,0E0,0E0,0E0,0E0,0E0,0E0],"parents":[2147483647,0,0,1,1,2,2,3,3,4,4,5,5,6,6],"right_children":[2,4,6,8,10,12,14,-1,-1,-1,-1,-1,-1,-1,-1],"split_conditions":[6.40625E-1,5.777778E-1,6.8421054E-1,5.423729E-1,5.92233E-1,6.181818E-1,7.1666664E-1,1.0725024E-2,-1.5385661E-2,1.839298E-2,8.35924E-3,-1.872172E-2,-9.810473E-3,1.1100121E-2,-5.8949E-3],"split_indices":[94,89,89,94,94,89,94,0,0,0,0,0,0,0,0],"split_type":[0,0,0,0,0,0,0,0,0,0,0,0,0,0,0],"sum_hessian":[1.0333543E4,5.5793506E3,4.754193E3,1.0949911E3,4.4843594E3,3.7493745E3,1.00481836E3,1.9042184E2,9.045692E2,2.633009E3,1.8513503E3,2.3093325E3,1.4400421E3,7.34029E2,2.7078937E2],"tree_param":{"num_deleted":"0","num_feature":"98","num_nodes":"15","size_leaf_vector":"1"}},{"base_weights":[-1.2533725E-3,5.3746057E-1,-7.0848006E-1,-4.6768984E-1,9.321816E-1,-9.7213984E-1,3.320933E-1,7.775043E-3,-1.4233722E-2,1.8555367E-2,9.659237E-3,-1.7183045E-2,-5.067178E-3,1.0594621E-2,-5.677348E-3],"categories":[],"categories_nodes":[],"categories_segments":[],"categories_sizes":[],"default_left":[0,0,0,0,0,0,0,0,0,0,0,0,0,0,0],"id":66,"left_children":[1,3,5,7,9,11,13,-1,-1,-1,-1,-1,-1,-1,-1],"loss_changes":[3.9241245E3,2.3195896E3,1.2218376E3,6.573373E2,3.101306E2,2.2881421E2,2.0237079E2,0E0,0E0,0E0,0E0,0E0,0E0,0E0,0E0],"parents":[2147483647,0,0,1,1,2,2,3,3,4,4,5,5,6,6],"right_children":[2,4,6,8,10,12,14,-1,-1,-1,-1,-1,-1,-1,-1],"split_conditions":[6.4634144E-1,6E-1,6.851852E-1,5.6790125E-1,5.97561E-1,1.3461539E-1,7.121212E-1,7.775043E-3,-1.4233722E-2,1.8555367E-2,9.659237E-3,-1.7183045E-2,-5.067178E-3,1.0594621E-2,-5.677348E-3],"split_indices":[94,89,89,94,94,90,94,0,0,0,0,0,0,0,0],"split_type":[0,0,0,0,0,0,0,0,0,0,0,0,0,0,0],"sum_hessian":[1.0299662E4,5.8463276E3,4.4533345E3,1.6484675E3,4.1978604E3,3.553082E3,9.0025275E2,5.0367676E2,1.1447908E3,2.5042183E3,1.6936418E3,3.0911133E3,4.6196866E2,6.091111E2,2.9114172E2],"tree_param":{"num_deleted":"0","num_feature":"98","num_nodes":"15","size_leaf_vector":"1"}},{"base_weights":[-2.4039585E-3,4.9310133E-1,-5.0070465E-1,-1.6974893E-1,8.7929094E-1,-8.341994E-1,2.3624858E-1,-9.889679E-3,4.731162E-3,1.7071605E-2,8.121796E-3,-1.794271E-2,-9.079079E-3,-1.0236592E-2,8.268642E-3],"categories":[],"categories_nodes":[],"categories_segments":[],"categories_sizes":[],"default_left":[0,0,0,0,0,0,0,0,0,0,0,0,0,0,0],"id":67,"left_children":[1,3,5,7,9,11,13,-1,-1,-1,-1,-1,-1,-1,-1],"loss_changes":[2.5402566E3,1.3205316E3,1.2607313E3,3.9357556E2,2.2392651E2,2.6884033E2,3.893001E2,0E0,0E0,0E0,0E0,0E0,0E0,0E0,0E0],"parents":[2147483647,0,0,1,1,2,2,3,3,4,4,5,5,6,6],"right_children":[2,4,6,8,10,12,14,-1,-1,-1,-1,-1,-1,-1,-1],"split_conditions":[8E-2,6.542056E-2,1.0204082E-1,7.714286E-1,5.0877196E-1,6.6071427E-1,6.1290324E-1,-9.889679E-3,4.731162E-3,1.7071605E-2,8.121796E-3,-1.794271E-2,-9.079079E-3,-1.0236592E-2,8.268642E-3],"split_indices":[95,97,97,87,93,87,87,0,0,0,0,0,0,0,0],"split_type":[0,0,0,0,0,0,0,0,0,0,0,0,0,0,0],"sum_hessian":[1.02881045E4,5.1584976E3,5.129607E3,1.8990134E3,3.2594841E3,3.5315132E3,1.5980938E3,9.6850366E2,9.305098E2,2.1834246E3,1.0760596E3,1.7187957E3,1.8127174E3,3.8648047E2,1.2116133E3],"tree_param":{"num_deleted":"0","num_feature":"98","num_nodes":"15","size_leaf_vector":"1"}},{"base_weights":[6.038709E-4,7.9668486E-1,-4.585724E-1,-6.1409783E-1,1.0184884E0,-9.3872255E-1,2.8208148E-1,1.624174E-2,-1.4448216E-2,1.9005502E-2,1.1320089E-2,-1.8733138E-2,-1.0190151E-2,1.09101115E-2,-6.39339E-3],"categories":[],"categories_nodes":[],"categories_segments":[],"categories_sizes":[],"default_left":[0,0,0,0,0,0,0,0,0,0,0,0,0,0,0],"id":68,"left_children":[1,3,5,7,9,11,13,-1,-1,-1,-1,-1,-1,-1,-1],"loss_changes":[3.7397825E3,1.1711072E3,2.3074312E3,2.362759E2,1.6744849E2,2.7289014E2,6.900143E2,0E0,0E0,0E0,0E0,0E0,0E0,0E0,0E0],"parents":[2147483647,0,0,1,1,2,2,3,3,4,4,5,5,6,6],"right_children":[2,4,6,8,10,12,14,-1,-1,-1,-1,-1,-1,-1,-1],"split_conditions":[6.056338E-1,5.633803E-1,6.458333E-1,5.185185E-1,5.744681E-1,5.934066E-1,6.8421054E-1,1.624174E-2,-1.4448216E-2,1.9005502E-2,1.1320089E-2,-1.8733138E-2,-1.0190151E-2,1.09101115E-2,-6.39339E-3],"split_indices":[94,89,89,94,94,89,94,0,0,0,0,0,0,0,0],"split_type":[0,0,0,0,0,0,0,0,0,0,0,0,0,0,0],"sum_hessian":[1.0230721E4,3.7424346E3,6.4882866E3,5.084264E2,3.2340083E3,3.936416E3,2.5518704E3,7.599605E1,4.3243033E2,2.117337E3,1.1166714E3,2.249073E3,1.6873431E3,1.6108068E3,9.4106366E2],"tree_param":{"num_deleted":"0","num_feature":"98","num_nodes":"15","size_leaf_vector":"1"}},{"base_weights":[5.0874786E-3,7.1582985E-1,-5.037317E-1,-4.8778975E-1,9.8625034E-1,-8.636427E-1,4.321596E-1,1.1833592E-2,-1.3597578E-2,1.9192617E-2,1.1326933E-2,-1.8682187E-2,-9.023894E-3,1.1258506E-2,-7.133204E-3],"categories":[],"categories_nodes":[],"categories_segments":[],"categories_sizes":[],"default_left":[0,0,0,0,0,0,0,0,0,0,0,0,0,0,0],"id":69,"left_children":[1,3,5,7,9,11,13,-1,-1,-1,-1,-1,-1,-1,-1],"loss_changes":[3.6726108E3,1.3791052E3,1.9935669E3,3.4194775E2,2.0309546E2,3.8666333E2,3.8768958E2,0E0,0E0,0E0,0E0,0E0,0E0,0E0,0E0],"parents":[2147483647,0,0,1,1,2,2,3,3,4,4,5,5,6,6],"right_children":[2,4,6,8,10,12,14,-1,-1,-1,-1,-1,-1,-1,-1],